svm_type c_svc
kernel_type linear
nr_class 3
total_sv 13
rho 2.4997345147306103 -5.000009536743174 -2.528176801348193
label 0 1 2
nr_sv 6 3 4
SV
0.5108249246064793 0.0 0:1.8 1:0.0 
1.0 0.0 0:1.8 1:1.0 
0.0 1.0 0:2.2 1:2.0 
1.0 0.8000030517578148 0:2.0 1:5.0 
0.0 1.0 0:2.3 1:4.0 
0.13560251421264222 0.0 0:2.0 1:3.5 
-0.6464274388191217 0.0 0:1.0 1:4.0 
-1.0 0.0067870768304768864 0:1.2 1:2.0 
-1.0 0.6866458348024205 0:1.2 1:2.0 
-0.4000031280517603 -0.0 0:3.0 1:5.0 
-0.3999999237060545 -0.45248948358978863 0:3.0 1:0.0 
-1.0 -0.0 0:3.0 1:2.0 
-1.0 -0.24094342804310875 0:2.7 1:6.0 
