svm_type c_svc
kernel_type linear
nr_class 3
total_sv 8
rho 2.998502604166667 -3.000000000000001 -1.6669333333333336
label -1 -2 1
nr_sv 3 1 4
SV
0.7998046875000002 1.600000000000934E-4 1:2.0 2:0.0 
0.0 0.09984000000000012 1:2.0 2:1.0 
1.1996093750000005 0.4 1:2.0 2:5.0 
-1.999414062500001 0.2222 1:1.0 2:3.0 
-6.400000000001072E-4 -0.055499999999999994 1:4.0 2:0.0 
-0.09920000000000001 -0.0 1:4.0 2:2.0 
-0.24976000000000026 -0.16670000000000001 1:4.0 2:4.0 
-0.15039999999999987 -0.0 1:4.0 2:6.0 
