svm_type c_svc
kernel_type polynomial
degree 6
gamma 3.0
coef0 3.0
nr_class 3
total_sv 78
rho -1.1464321770963672 -1.1150828372054398 2.836857318981952
label 0 1 2
nr_sv 39 13 26
SV
0.0 10.0 0:0.006035163 1:0.026480384 2:0.028501432 
0.0 10.0 0:0.061229216 1:0.085361891 2:0.081863763 
0.0 10.0 0:0.045568307 1:0.036681099 2:0.049721374 
8.396427767543313 0.0 0:0.043192808 1:0.022429474 2:0.071377424 
4.084979317784704 10.0 0:0.037105771 1:0.044763451 2:0.019195114 
10.0 10.0 0:0.08431233 1:0.049862801 2:0.081071673 
0.06134750602209952 0.14865825089758256 0:0.371118076 1:0.38088203 2:0.343781936 
10.0 4.1696449141793375 0:0.015831774 1:0.040487154 2:0.050472659 
0.0 10.0 0:0.01579487 1:0.029448488 2:0.044512829 
0.0 10.0 0:0.002822487 1:0.024448587 2:0.031649189 
0.0 10.0 0:0.010749818 1:0.025442549 2:0.02023128 
0.0 10.0 0:0.026566274 1:0.024578681 2:0.042020173 
10.0 0.0 0:0.015575112 1:0.044445318 2:0.063337283 
0.0 2.645588222623559 0:0.018429714 1:0.011331979 2:0.03951202 
0.0 10.0 0:0.019790994 1:0.012396999 2:0.03702478 
10.0 10.0 0:0.057923834 1:0.041760715 2:0.085810144 
2.639107222690855 0.0 0:0.123355048 1:0.151918574 2:0.178506536 
0.0 10.0 0:0.012123811 1:0.038270732 2:0.026039298 
0.0 8.623493792856113 0:0.005412248 1:0.029608665 2:0.030982922 
10.0 0.0 0:0.002217316 1:0.037039903 2:0.041698393 
8.882200703036622 0.0 0:0.01838065 1:0.050063211 2:0.023503777 
0.0 5.091956220104515 0:0.089860994 1:0.120788892 2:0.131009317 
0.0 10.0 0:0.093391649 1:0.14327289 2:0.079743243 
1.926398137033441 10.0 0:0.090540734 1:0.091874363 2:0.059120535 
10.0 0.0 0:0.003070383 1:0.037910079 2:0.040247531 
1.127205484420625 0.0 0:0.007307733 1:0.043102953 2:0.048270255 
10.0 0.0 0:0.005986831 1:0.038494068 2:0.040440349 
0.0 10.0 0:0.072859193 1:0.114416168 2:0.045139159 
1.3119991673854623 0.0 0:0.00306828 1:0.038687954 2:0.035919356 
0.0 10.0 0:0.004524875 1:0.025321627 2:0.026691703 
0.0 10.0 0:0.011710869 1:0.034416023 2:0.04205847 
0.0 10.0 0:0.018641173 1:0.039589237 2:0.02291382 
0.0 0.21785237084935008 0:1.003666834 1:0.956240993 2:1.025432669 
0.0 10.0 0:0.013285814 1:0.029378377 2:0.048213265 
10.0 0.0 0:0.007142361 1:0.041874886 2:0.049654087 
0.0 10.0 0:0.002406114 1:0.024141876 2:0.033485792 
4.758477679998766 10.0 0:0.039350759 1:0.05967842 2:0.063768862 
0.0 4.489125167570885 0:0.016260661 1:0.031134107 2:0.053843864 
0.0 10.0 0:0.065550518 1:0.084355609 2:0.081916552 
-10.0 10.0 0:0.007090427 1:0.035317575 2:0.034085127 
-10.0 10.0 0:0.066201296 1:0.041417458 2:0.070125924 
-10.0 10.0 0:0.028092771 1:0.046041877 2:0.038450779 
-0.0 1.7191258149208666 0:0.212301542 1:0.172079668 2:0.214856965 
-3.188142985915786 0.0 0:0.176735454 1:0.132337344 2:0.197957477 
-10.0 10.0 0:0.012326003 1:0.039955405 2:0.055067277 
-10.0 10.0 0:0.050074088 1:0.06189769 2:0.031143898 
-10.0 10.0 0:0.027574096 1:0.026381906 2:0.061402566 
-10.0 10.0 0:0.017289499 1:0.057061448 2:0.064576277 
-10.0 10.0 0:0.032170218 1:0.027947319 2:0.068983691 
-10.0 10.0 0:0.023814601 1:0.064784134 2:0.067613089 
-10.0 10.0 0:0.006247657 1:0.035904787 2:0.046746524 
-10.0 10.0 0:0.004751243 1:0.033184394 2:0.041184977 
-10.0 -0.0 0:0.031365011 1:0.024988493 2:0.038319864 
-10.0 -0.0 0:0.060560268 1:0.069295828 2:0.039808398 
-10.0 -10.0 0:0.089060656 1:0.095153015 2:0.120867716 
-10.0 -10.0 0:0.007388935 1:0.029830771 2:0.04391378 
-10.0 -10.0 0:0.010747126 1:0.026036658 2:0.043681872 
-10.0 -6.14940290418456 0:0.042690397 1:0.032034128 2:0.043685238 
-10.0 -0.0 0:0.014293753 1:0.038807097 2:0.02523788 
-10.0 -10.0 0:0.041028968 1:0.062587907 2:0.039125814 
-10.0 -10.0 0:0.001317805 1:0.032985074 2:0.033049663 
-10.0 -0.0 0:0.006175834 1:0.027659297 2:0.030137986 
-10.0 -4.4136886802901 0:0.002155314 1:0.023021943 2:0.035046109 
-10.0 -0.0 0:0.047027781 1:0.045357074 2:0.035050781 
-10.0 -10.0 0:0.012136803 1:0.027320492 2:0.054165185 
-10.0 -0.0 0:0.08109039 1:0.111430712 2:0.06063124 
-10.0 -10.0 0:0.040330037 1:0.055429653 2:0.072010865 
-10.0 -0.0 0:0.026883106 1:0.05006606 2:0.030787673 
-10.0 -0.0 0:0.016258289 1:0.021401258 2:0.040488948 
-9.806607623250121 -0.0 0:0.121613352 1:0.135064094 2:0.108553588 
-10.0 -10.0 0:0.02178644 1:0.042235267 2:0.056213088 
-0.21808480342966946 -0.0010808924101635743 0:1.002691125 1:0.957900652 2:1.026869645 
-10.0 -3.3367619363811043 0:0.02408002 1:0.011135187 2:0.051518524 
-10.0 -7.81819140165493 0:0.060539282 1:0.083652409 2:0.071013401 
-10.0 -0.0 0:0.027730152 1:0.027242163 2:0.022533433 
-10.0 -0.0 0:0.014353313 1:0.03904014 2:0.026956706 
-10.0 -10.0 0:0.005890567 1:0.027762157 2:0.037394891 
-5.361626512401548 -0.0 0:0.1172192 1:0.141091051 2:0.087395982 
