svm_type c_svc
kernel_type linear
nr_class 3
total_sv 1339
rho 1.706647778184135 -0.5436653176983162 -0.6561124700133083
label 0 1 2
nr_sv 459 515 365
SV
1.0 0.0 0:-32.06208501977645 1:189.92434340808987 
1.0 0.0 0:-3.733228764485185 1:68.30910947894067 
1.0 0.0 0:-3.733228764485185 1:68.30910947894067 
1.0 0.0 0:-3.733228764485185 1:68.30910947894067 
1.0 0.0 0:-3.733228764485185 1:68.30910947894067 
1.0 0.0 0:-3.733228764485185 1:68.30910947894067 
1.0 0.0 0:-3.733228764485185 1:68.30910947894067 
1.0 0.0 0:-3.733228764485185 1:68.30910947894067 
1.0 0.0 0:-3.733228764485185 1:68.30910947894067 
1.0 0.0 0:-30.305918283598 1:215.1359649304231 
1.0 0.0 0:-3.733228764485185 1:68.30910947894067 
1.0 0.0 0:-34.29009692966821 1:158.74047056677708 
1.0 0.0 0:-3.733228764485185 1:68.30910947894067 
1.0 1.0 0:-13.895889482331839 1:70.52984196902776 
1.0 0.0 0:-3.733228764485185 1:68.30910947894067 
1.0 0.0 0:-3.733228764485185 1:68.30910947894067 
1.0 0.0 0:-3.733228764485185 1:68.30910947894067 
1.0 0.0 0:-3.733228764485185 1:68.30910947894067 
1.0 0.0 0:-3.733228764485185 1:68.30910947894067 
1.0 0.0 0:-3.733228764485185 1:68.30910947894067 
1.0 0.0 0:-3.733228764485185 1:68.30910947894067 
1.0 0.0 0:-3.733228764485185 1:68.30910947894067 
1.0 0.0 0:-3.733228764485185 1:68.30910947894067 
1.0 0.0 0:-3.733228764485185 1:68.30910947894067 
1.0 0.0 0:-3.733228764485185 1:68.30910947894067 
1.0 0.0 0:-3.733228764485185 1:68.30910947894067 
1.0 0.0 0:-3.733228764485185 1:68.30910947894067 
1.0 0.0 0:-3.733228764485185 1:68.30910947894067 
1.0 0.0 0:-3.733228764485185 1:68.30910947894067 
1.0 0.0 0:-3.733228764485185 1:68.30910947894067 
1.0 0.0 0:-3.733228764485185 1:68.30910947894067 
1.0 1.0 0:-35.09967711478322 1:84.91899922195228 
1.0 0.0 0:-3.733228764485185 1:68.30910947894067 
1.0 0.924003789171736 0:-3.733228764485185 1:68.30910947894067 
1.0 1.0 0:-3.733228764485185 1:68.30910947894067 
1.0 1.0 0:25.956318025386654 1:30.569778905614143 
1.0 1.0 0:-3.733228764485185 1:68.30910947894067 
1.0 1.0 0:-30.113834811654296 1:67.87869283214573 
1.0 1.0 0:-3.733228764485185 1:68.30910947894067 
1.0 1.0 0:-3.733228764485185 1:68.30910947894067 
1.0 1.0 0:-3.733228764485185 1:68.30910947894067 
1.0 0.0 0:32.35645570741534 1:59.06279455872467 
1.0 1.0 0:-3.733228764485185 1:68.30910947894067 
1.0 1.0 0:-3.733228764485185 1:68.30910947894067 
1.0 1.0 0:-3.733228764485185 1:68.30910947894067 
1.0 0.0 0:8.926223442286425 1:139.51793838342834 
1.0 1.0 0:-3.733228764485185 1:68.30910947894067 
1.0 0.0 0:-22.551674340117614 1:89.78811957013296 
1.0 0.0 0:-20.681681041302397 1:233.77158735965335 
1.0 1.0 0:-3.733228764485185 1:68.30910947894067 
1.0 0.0 0:6.494371230462451 1:94.92470952609706 
1.0 0.0 0:-15.662378287372944 1:121.10871328604453 
1.0 1.0 0:-3.733228764485185 1:68.30910947894067 
1.0 1.0 0:-3.733228764485185 1:68.30910947894067 
1.0 0.0 0:-29.5224254186731 1:89.41469263294628 
1.0 1.0 0:-3.733228764485185 1:68.30910947894067 
1.0 0.0 0:-4.585360926295548 1:187.43552549987848 
1.0 1.0 0:-3.733228764485185 1:68.30910947894067 
1.0 1.0 0:-3.733228764485185 1:68.30910947894067 
1.0 1.0 0:-14.518655046185174 1:-2.35868410749274 
1.0 1.0 0:-3.733228764485185 1:68.30910947894067 
1.0 1.0 0:-3.733228764485185 1:68.30910947894067 
1.0 1.0 0:-3.733228764485185 1:68.30910947894067 
1.0 1.0 0:-3.733228764485185 1:68.30910947894067 
1.0 1.0 0:-3.733228764485185 1:68.30910947894067 
1.0 1.0 0:-3.733228764485185 1:68.30910947894067 
1.0 1.0 0:-3.733228764485185 1:68.30910947894067 
1.0 1.0 0:-3.733228764485185 1:68.30910947894067 
1.0 1.0 0:-3.733228764485185 1:68.30910947894067 
1.0 0.0 0:-19.637743676594905 1:152.0031172092767 
1.0 1.0 0:-3.733228764485185 1:68.30910947894067 
1.0 1.0 0:-3.733228764485185 1:68.30910947894067 
1.0 1.0 0:-3.733228764485185 1:68.30910947894067 
1.0 1.0 0:-3.733228764485185 1:68.30910947894067 
1.0 1.0 0:-3.733228764485185 1:68.30910947894067 
1.0 1.0 0:-3.733228764485185 1:68.30910947894067 
0.0 1.0 0:106.67086066671347 1:-58.8626041361198 
1.0 0.0 0:-7.652941171257161 1:155.3310418433737 
1.0 1.0 0:-3.733228764485185 1:68.30910947894067 
1.0 0.0 0:12.788689050811033 1:76.89253687230695 
1.0 1.0 0:-3.733228764485185 1:68.30910947894067 
1.0 1.0 0:-11.452023129973036 1:73.43481822122652 
1.0 0.0 0:43.642856770168706 1:40.45156532321216 
1.0 1.0 0:-3.733228764485185 1:68.30910947894067 
1.0 0.0 0:-20.429114614694065 1:158.4449330870251 
1.0 1.0 0:56.359164415003015 1:8.109305235535656 
1.0 1.0 0:-3.733228764485185 1:68.30910947894067 
1.0 1.0 0:-3.733228764485185 1:68.30910947894067 
1.0 1.0 0:-3.733228764485185 1:68.30910947894067 
1.0 1.0 0:-3.733228764485185 1:68.30910947894067 
1.0 1.0 0:-3.733228764485185 1:68.30910947894067 
1.0 0.0 0:-61.95305224810253 1:142.46063719156865 
1.0 1.0 0:-3.733228764485185 1:68.30910947894067 
1.0 0.0 0:20.771698610972383 1:113.59242581638773 
1.0 1.0 0:-3.733228764485185 1:68.30910947894067 
1.0 1.0 0:-3.733228764485185 1:68.30910947894067 
1.0 1.0 0:7.885729906943974 1:10.521696189432017 
1.0 1.0 0:-3.733228764485185 1:68.30910947894067 
1.0 1.0 0:-3.733228764485185 1:68.30910947894067 
1.0 1.0 0:-3.733228764485185 1:68.30910947894067 
1.0 1.0 0:-3.733228764485185 1:68.30910947894067 
1.0 1.0 0:-3.733228764485185 1:68.30910947894067 
1.0 1.0 0:-3.733228764485185 1:68.30910947894067 
1.0 0.0 0:-17.335480202002003 1:136.05122257620465 
1.0 1.0 0:-3.733228764485185 1:68.30910947894067 
1.0 1.0 0:-3.733228764485185 1:68.30910947894067 
1.0 1.0 0:-3.733228764485185 1:68.30910947894067 
1.0 0.0 0:20.644790714889716 1:84.50437625294948 
1.0 0.0 0:27.338111813058433 1:86.12128238751166 
1.0 1.0 0:-3.733228764485185 1:68.30910947894067 
1.0 1.0 0:-3.733228764485185 1:68.30910947894067 
1.0 0.0 0:4.77261217174766 1:155.65694203719977 
1.0 1.0 0:-3.733228764485185 1:68.30910947894067 
1.0 1.0 0:-3.733228764485185 1:68.30910947894067 
1.0 1.0 0:-3.733228764485185 1:68.30910947894067 
1.0 1.0 0:-3.733228764485185 1:68.30910947894067 
1.0 1.0 0:-3.733228764485185 1:68.30910947894067 
1.0 1.0 0:-17.876758311569922 1:-329.8704630238314 
1.0 1.0 0:-3.733228764485185 1:68.30910947894067 
1.0 1.0 0:-3.733228764485185 1:68.30910947894067 
1.0 1.0 0:-3.733228764485185 1:68.30910947894067 
1.0 1.0 0:-3.733228764485185 1:68.30910947894067 
1.0 1.0 0:-3.733228764485185 1:68.30910947894067 
1.0 1.0 0:-3.733228764485185 1:68.30910947894067 
1.0 1.0 0:-3.733228764485185 1:68.30910947894067 
1.0 1.0 0:-3.733228764485185 1:68.30910947894067 
1.0 1.0 0:-3.733228764485185 1:68.30910947894067 
1.0 0.0 0:17.214603889072286 1:99.64122848714824 
1.0 1.0 0:-3.733228764485185 1:68.30910947894067 
1.0 0.0 0:7.201293519822578 1:154.48752820763139 
1.0 1.0 0:-3.733228764485185 1:68.30910947894067 
1.0 1.0 0:-3.733228764485185 1:68.30910947894067 
1.0 0.0 0:-16.0458598990911 1:224.8492210627095 
1.0 1.0 0:-3.733228764485185 1:68.30910947894067 
1.0 1.0 0:-3.733228764485185 1:68.30910947894067 
1.0 1.0 0:-3.733228764485185 1:68.30910947894067 
1.0 1.0 0:-3.733228764485185 1:68.30910947894067 
1.0 0.0 0:17.230756929524834 1:124.29352328191142 
1.0 1.0 0:28.30394101985321 1:-5.5911444097069145 
1.0 1.0 0:-3.733228764485185 1:68.30910947894067 
1.0 1.0 0:-3.733228764485185 1:68.30910947894067 
1.0 1.0 0:-3.733228764485185 1:68.30910947894067 
1.0 1.0 0:-3.733228764485185 1:68.30910947894067 
1.0 1.0 0:-3.733228764485185 1:68.30910947894067 
1.0 1.0 0:-3.733228764485185 1:68.30910947894067 
1.0 1.0 0:-3.733228764485185 1:68.30910947894067 
1.0 1.0 0:-3.733228764485185 1:68.30910947894067 
1.0 0.0 0:-9.63453642426136 1:170.57482370245643 
1.0 1.0 0:-3.733228764485185 1:68.30910947894067 
1.0 1.0 0:-3.733228764485185 1:68.30910947894067 
1.0 1.0 0:-3.733228764485185 1:68.30910947894067 
1.0 1.0 0:-3.733228764485185 1:68.30910947894067 
1.0 1.0 0:-3.733228764485185 1:68.30910947894067 
1.0 1.0 0:-3.733228764485185 1:68.30910947894067 
1.0 1.0 0:-3.733228764485185 1:68.30910947894067 
1.0 1.0 0:-3.733228764485185 1:68.30910947894067 
1.0 1.0 0:-3.733228764485185 1:68.30910947894067 
1.0 1.0 0:-3.733228764485185 1:68.30910947894067 
1.0 1.0 0:-3.733228764485185 1:68.30910947894067 
1.0 1.0 0:-3.733228764485185 1:68.30910947894067 
1.0 1.0 0:-3.733228764485185 1:68.30910947894067 
1.0 1.0 0:-3.733228764485185 1:68.30910947894067 
1.0 1.0 0:-3.733228764485185 1:68.30910947894067 
1.0 1.0 0:-3.733228764485185 1:68.30910947894067 
1.0 1.0 0:-3.733228764485185 1:68.30910947894067 
1.0 0.0 0:-30.823375894276445 1:258.62636246318317 
1.0 1.0 0:-3.733228764485185 1:68.30910947894067 
1.0 1.0 0:-3.733228764485185 1:68.30910947894067 
1.0 1.0 0:-3.733228764485185 1:68.30910947894067 
1.0 1.0 0:-3.733228764485185 1:68.30910947894067 
1.0 1.0 0:-3.733228764485185 1:68.30910947894067 
1.0 1.0 0:-3.733228764485185 1:68.30910947894067 
1.0 1.0 0:-3.733228764485185 1:68.30910947894067 
1.0 1.0 0:-3.733228764485185 1:68.30910947894067 
1.0 1.0 0:-3.733228764485185 1:68.30910947894067 
1.0 1.0 0:-3.733228764485185 1:68.30910947894067 
1.0 0.0 0:-19.89610943225704 1:137.92749497659142 
1.0 1.0 0:-3.733228764485185 1:68.30910947894067 
1.0 1.0 0:-3.733228764485185 1:68.30910947894067 
1.0 1.0 0:-3.733228764485185 1:68.30910947894067 
1.0 1.0 0:-3.733228764485185 1:68.30910947894067 
1.0 1.0 0:-3.733228764485185 1:68.30910947894067 
1.0 1.0 0:-3.733228764485185 1:68.30910947894067 
1.0 1.0 0:-3.733228764485185 1:68.30910947894067 
1.0 0.0 0:-52.26236965375121 1:255.10287288681388 
1.0 0.0 0:-23.86947712124622 1:101.05251459504582 
1.0 1.0 0:-3.733228764485185 1:68.30910947894067 
1.0 1.0 0:-3.733228764485185 1:68.30910947894067 
1.0 1.0 0:-3.733228764485185 1:68.30910947894067 
1.0 1.0 0:2.6606261311851 1:44.54259223034102 
1.0 1.0 0:-3.733228764485185 1:68.30910947894067 
1.0 1.0 0:-3.733228764485185 1:68.30910947894067 
1.0 1.0 0:-3.733228764485185 1:68.30910947894067 
1.0 1.0 0:-3.733228764485185 1:68.30910947894067 
1.0 1.0 0:-3.733228764485185 1:68.30910947894067 
1.0 1.0 0:-3.733228764485185 1:68.30910947894067 
1.0 1.0 0:-3.733228764485185 1:68.30910947894067 
1.0 1.0 0:-3.733228764485185 1:68.30910947894067 
1.0 1.0 0:-3.733228764485185 1:68.30910947894067 
1.0 1.0 0:-3.733228764485185 1:68.30910947894067 
1.0 1.0 0:-3.733228764485185 1:68.30910947894067 
1.0 1.0 0:-3.733228764485185 1:68.30910947894067 
1.0 1.0 0:-3.733228764485185 1:68.30910947894067 
1.0 1.0 0:-3.733228764485185 1:68.30910947894067 
1.0 0.0 0:7.325972778166494 1:92.15090595789948 
1.0 1.0 0:-3.733228764485185 1:68.30910947894067 
1.0 1.0 0:-3.733228764485185 1:68.30910947894067 
1.0 1.0 0:-3.733228764485185 1:68.30910947894067 
1.0 1.0 0:-3.733228764485185 1:68.30910947894067 
1.0 1.0 0:-17.263789595903816 1:45.94115820264735 
1.0 1.0 0:-3.733228764485185 1:68.30910947894067 
1.0 1.0 0:-3.733228764485185 1:68.30910947894067 
1.0 1.0 0:-3.733228764485185 1:68.30910947894067 
1.0 0.0 0:-2.514117343754208 1:147.317010350261 
1.0 1.0 0:-3.733228764485185 1:68.30910947894067 
1.0 1.0 0:-3.733228764485185 1:68.30910947894067 
1.0 1.0 0:-3.733228764485185 1:68.30910947894067 
1.0 1.0 0:-3.733228764485185 1:68.30910947894067 
1.0 1.0 0:-3.733228764485185 1:68.30910947894067 
1.0 0.0 0:-51.71271356636715 1:153.22231848973328 
1.0 1.0 0:-3.733228764485185 1:68.30910947894067 
1.0 0.0 0:39.12226554753714 1:48.90475363259569 
1.0 1.0 0:-3.733228764485185 1:68.30910947894067 
1.0 1.0 0:-3.733228764485185 1:68.30910947894067 
1.0 0.0 0:-11.140253603508771 1:205.2322496563902 
1.0 1.0 0:-6.301263604845599 1:25.7948095391037 
1.0 1.0 0:-3.733228764485185 1:68.30910947894067 
1.0 1.0 0:-3.733228764485185 1:68.30910947894067 
1.0 1.0 0:-3.733228764485185 1:68.30910947894067 
1.0 1.0 0:11.221423723087515 1:-42.6117915240361 
1.0 1.0 0:-3.733228764485185 1:68.30910947894067 
1.0 1.0 0:-3.733228764485185 1:68.30910947894067 
1.0 1.0 0:-3.733228764485185 1:68.30910947894067 
1.0 1.0 0:-3.733228764485185 1:68.30910947894067 
1.0 0.0 0:-10.039394771419849 1:87.62132795591677 
1.0 1.0 0:-3.733228764485185 1:68.30910947894067 
1.0 1.0 0:-3.733228764485185 1:68.30910947894067 
1.0 1.0 0:-46.02350783088239 1:93.55436010310636 
1.0 1.0 0:25.528982535925962 1:31.678166998115618 
1.0 1.0 0:-3.733228764485185 1:68.30910947894067 
1.0 1.0 0:33.865184915128346 1:7.708119501714963 
1.0 1.0 0:30.61747654336162 1:38.486581724688314 
1.0 0.0 0:1.2387123755934828 1:75.86198436270301 
1.0 1.0 0:-3.733228764485185 1:68.30910947894067 
1.0 0.0 0:-31.762304777240683 1:142.7939084623518 
1.0 1.0 0:-3.733228764485185 1:68.30910947894067 
1.0 0.0 0:4.950726510996439 1:132.87144250446042 
1.0 1.0 0:-3.733228764485185 1:68.30910947894067 
1.0 1.0 0:-3.733228764485185 1:68.30910947894067 
1.0 1.0 0:-3.733228764485185 1:68.30910947894067 
1.0 1.0 0:-3.733228764485185 1:68.30910947894067 
1.0 1.0 0:-3.733228764485185 1:68.30910947894067 
1.0 0.0 0:-9.628144680136268 1:158.7663512073905 
1.0 1.0 0:-3.733228764485185 1:68.30910947894067 
1.0 1.0 0:-3.733228764485185 1:68.30910947894067 
1.0 1.0 0:-3.733228764485185 1:68.30910947894067 
1.0 1.0 0:-3.733228764485185 1:68.30910947894067 
1.0 1.0 0:-3.733228764485185 1:68.30910947894067 
1.0 1.0 0:-3.733228764485185 1:68.30910947894067 
1.0 0.0 0:-15.119608043407496 1:142.96068875124493 
1.0 1.0 0:-3.733228764485185 1:68.30910947894067 
1.0 1.0 0:-3.733228764485185 1:68.30910947894067 
0.44477184491764055 0.0 0:-43.075482866770884 1:308.2720685738907 
1.0 1.0 0:-3.733228764485185 1:68.30910947894067 
1.0 0.0 0:-61.01646059128723 1:170.0810972232156 
1.0 1.0 0:-3.733228764485185 1:68.30910947894067 
1.0 1.0 0:-3.733228764485185 1:68.30910947894067 
1.0 1.0 0:-3.733228764485185 1:68.30910947894067 
1.0 1.0 0:-3.733228764485185 1:68.30910947894067 
1.0 1.0 0:-3.733228764485185 1:68.30910947894067 
1.0 0.0 0:-4.477553567245859 1:107.01873609246931 
1.0 1.0 0:-3.733228764485185 1:68.30910947894067 
1.0 1.0 0:-3.733228764485185 1:68.30910947894067 
1.0 1.0 0:-3.733228764485185 1:68.30910947894067 
1.0 1.0 0:-3.733228764485185 1:68.30910947894067 
1.0 1.0 0:-3.733228764485185 1:68.30910947894067 
1.0 1.0 0:-3.733228764485185 1:68.30910947894067 
1.0 1.0 0:-3.733228764485185 1:68.30910947894067 
1.0 1.0 0:-3.733228764485185 1:68.30910947894067 
1.0 0.0 0:5.104459030673207 1:158.57070256734673 
1.0 0.0 0:8.513451064576046 1:63.553102479181824 
1.0 1.0 0:-3.733228764485185 1:68.30910947894067 
1.0 1.0 0:-3.733228764485185 1:68.30910947894067 
1.0 0.0 0:2.575357173397695 1:105.2084159880824 
1.0 1.0 0:-3.733228764485185 1:68.30910947894067 
1.0 1.0 0:-3.733228764485185 1:68.30910947894067 
1.0 1.0 0:-3.733228764485185 1:68.30910947894067 
1.0 1.0 0:-3.733228764485185 1:68.30910947894067 
1.0 1.0 0:-3.733228764485185 1:68.30910947894067 
1.0 1.0 0:49.12798436322775 1:-10.04846992982674 
1.0 1.0 0:-3.733228764485185 1:68.30910947894067 
1.0 0.0 0:0.22957595044306342 1:152.93205836492018 
1.0 1.0 0:24.316765676664158 1:43.34090614456601 
1.0 1.0 0:-3.733228764485185 1:68.30910947894067 
1.0 1.0 0:-3.733228764485185 1:68.30910947894067 
1.0 1.0 0:-3.733228764485185 1:68.30910947894067 
1.0 1.0 0:-3.733228764485185 1:68.30910947894067 
1.0 1.0 0:-3.733228764485185 1:68.30910947894067 
1.0 1.0 0:-3.733228764485185 1:68.30910947894067 
1.0 0.0 0:6.1522743844143974 1:109.48196331968354 
1.0 1.0 0:-16.91871187689563 1:72.25278475002868 
1.0 1.0 0:-3.733228764485185 1:68.30910947894067 
1.0 0.0 0:-4.142652065720592 1:177.53503074635015 
1.0 1.0 0:-3.733228764485185 1:68.30910947894067 
1.0 1.0 0:-3.733228764485185 1:68.30910947894067 
1.0 0.0 0:7.108926785065953 1:115.04754015494319 
1.0 1.0 0:-3.733228764485185 1:68.30910947894067 
1.0 1.0 0:-3.733228764485185 1:68.30910947894067 
1.0 0.0 0:1.0938040538541758 1:99.8191140445029 
1.0 1.0 0:-3.733228764485185 1:68.30910947894067 
1.0 1.0 0:-3.733228764485185 1:68.30910947894067 
1.0 1.0 0:45.63402880782342 1:-43.78565002017636 
1.0 1.0 0:-3.733228764485185 1:68.30910947894067 
1.0 1.0 0:-3.733228764485185 1:68.30910947894067 
1.0 1.0 0:-3.733228764485185 1:68.30910947894067 
1.0 0.0 0:8.991171470939877 1:141.11522571005224 
1.0 1.0 0:-3.733228764485185 1:68.30910947894067 
1.0 1.0 0:-3.733228764485185 1:68.30910947894067 
1.0 1.0 0:-3.733228764485185 1:68.30910947894067 
1.0 1.0 0:-3.733228764485185 1:68.30910947894067 
1.0 0.0 0:24.302581600544002 1:104.51364826471055 
1.0 1.0 0:-3.733228764485185 1:68.30910947894067 
1.0 1.0 0:-3.733228764485185 1:68.30910947894067 
1.0 1.0 0:-3.733228764485185 1:68.30910947894067 
1.0 1.0 0:-3.733228764485185 1:68.30910947894067 
1.0 1.0 0:-3.733228764485185 1:68.30910947894067 
1.0 1.0 0:-3.733228764485185 1:68.30910947894067 
1.0 1.0 0:-3.733228764485185 1:68.30910947894067 
1.0 1.0 0:-3.733228764485185 1:68.30910947894067 
1.0 0.2488111656574804 0:17.01306964315511 1:53.08584510295058 
1.0 1.0 0:-3.733228764485185 1:68.30910947894067 
1.0 1.0 0:-3.733228764485185 1:68.30910947894067 
1.0 1.0 0:-3.733228764485185 1:68.30910947894067 
1.0 0.0 0:5.0994941523677335 1:151.22630272392303 
1.0 1.0 0:-3.733228764485185 1:68.30910947894067 
1.0 0.0 0:-2.699843981332706 1:121.6657239676681 
1.0 1.0 0:-3.733228764485185 1:68.30910947894067 
1.0 1.0 0:-3.733228764485185 1:68.30910947894067 
1.0 1.0 0:-3.733228764485185 1:68.30910947894067 
1.0 1.0 0:-3.733228764485185 1:68.30910947894067 
1.0 1.0 0:-3.733228764485185 1:68.30910947894067 
1.0 1.0 0:-3.733228764485185 1:68.30910947894067 
1.0 1.0 0:-3.733228764485185 1:68.30910947894067 
1.0 1.0 0:-3.733228764485185 1:68.30910947894067 
1.0 1.0 0:-3.733228764485185 1:68.30910947894067 
1.0 1.0 0:-3.733228764485185 1:68.30910947894067 
1.0 1.0 0:-3.733228764485185 1:68.30910947894067 
1.0 1.0 0:-3.733228764485185 1:68.30910947894067 
1.0 1.0 0:-3.733228764485185 1:68.30910947894067 
1.0 1.0 0:-3.733228764485185 1:68.30910947894067 
1.0 0.0 0:44.41418034741229 1:40.35195739500781 
1.0 1.0 0:-3.733228764485185 1:68.30910947894067 
1.0 1.0 0:-3.733228764485185 1:68.30910947894067 
1.0 1.0 0:-3.733228764485185 1:68.30910947894067 
1.0 1.0 0:-3.733228764485185 1:68.30910947894067 
1.0 1.0 0:-3.733228764485185 1:68.30910947894067 
1.0 1.0 0:-3.733228764485185 1:68.30910947894067 
1.0 0.0 0:-11.678728539373775 1:204.83839613993266 
1.0 0.0 0:-16.57795549663725 1:152.22770274533036 
1.0 0.0 0:0.6140354014157621 1:156.76592490936795 
1.0 0.0 0:16.54409215248003 1:73.89579400785382 
1.0 1.0 0:-2.1824920223948086 1:17.50841364140417 
1.0 1.0 0:-3.733228764485185 1:68.30910947894067 
1.0 1.0 0:-3.733228764485185 1:68.30910947894067 
1.0 0.0 0:-61.182295014425655 1:230.28678234609373 
1.0 1.0 0:43.41248709729155 1:29.842875508622335 
1.0 1.0 0:-3.733228764485185 1:68.30910947894067 
1.0 1.0 0:-3.733228764485185 1:68.30910947894067 
1.0 1.0 0:-3.733228764485185 1:68.30910947894067 
1.0 1.0 0:-3.733228764485185 1:68.30910947894067 
1.0 0.0 0:5.4326473524066525 1:131.13006664132104 
1.0 1.0 0:-3.733228764485185 1:68.30910947894067 
1.0 1.0 0:-3.733228764485185 1:68.30910947894067 
1.0 0.0 0:45.662318909165485 1:40.73660261021304 
1.0 0.0 0:23.633544581309046 1:61.702475542414945 
1.0 1.0 0:-3.733228764485185 1:68.30910947894067 
1.0 1.0 0:-3.733228764485185 1:68.30910947894067 
1.0 1.0 0:-3.733228764485185 1:68.30910947894067 
1.0 1.0 0:-3.733228764485185 1:68.30910947894067 
1.0 1.0 0:-3.733228764485185 1:68.30910947894067 
1.0 1.0 0:-3.733228764485185 1:68.30910947894067 
1.0 0.0 0:-12.734650437711394 1:218.34517803194765 
1.0 1.0 0:-3.733228764485185 1:68.30910947894067 
1.0 1.0 0:-3.733228764485185 1:68.30910947894067 
1.0 1.0 0:-3.733228764485185 1:68.30910947894067 
1.0 1.0 0:-3.733228764485185 1:68.30910947894067 
1.0 1.0 0:-3.733228764485185 1:68.30910947894067 
1.0 1.0 0:-3.733228764485185 1:68.30910947894067 
1.0 1.0 0:-3.733228764485185 1:68.30910947894067 
1.0 1.0 0:-3.733228764485185 1:68.30910947894067 
1.0 1.0 0:-3.733228764485185 1:68.30910947894067 
0.9570030699184773 0.0 0:47.501622024870265 1:43.517164219550644 
1.0 0.0 0:-32.622926497572315 1:137.1850991848589 
1.0 1.0 0:-3.733228764485185 1:68.30910947894067 
1.0 1.0 0:-3.733228764485185 1:68.30910947894067 
1.0 1.0 0:-3.733228764485185 1:68.30910947894067 
1.0 1.0 0:-3.733228764485185 1:68.30910947894067 
1.0 1.0 0:-3.733228764485185 1:68.30910947894067 
1.0 1.0 0:-3.733228764485185 1:68.30910947894067 
1.0 0.0 0:-14.599508847658374 1:222.38529149568797 
1.0 1.0 0:31.6142218586978 1:37.011272980136376 
1.0 1.0 0:-3.733228764485185 1:68.30910947894067 
1.0 1.0 0:-3.733228764485185 1:68.30910947894067 
1.0 1.0 0:-3.733228764485185 1:68.30910947894067 
1.0 0.0 0:23.544033515696473 1:93.97612546922059 
1.0 0.0 0:-7.9241988438167 1:203.94527836187328 
1.0 1.0 0:-3.733228764485185 1:68.30910947894067 
1.0 1.0 0:-3.733228764485185 1:68.30910947894067 
1.0 0.0 0:4.396303715468802 1:137.8612930648136 
1.0 0.0 0:-24.761897693023613 1:174.3328789415641 
1.0 1.0 0:-3.733228764485185 1:68.30910947894067 
1.0 1.0 0:-3.733228764485185 1:68.30910947894067 
1.0 1.0 0:-3.733228764485185 1:68.30910947894067 
1.0 1.0 0:-3.733228764485185 1:68.30910947894067 
1.0 1.0 0:-3.733228764485185 1:68.30910947894067 
1.0 1.0 0:-3.733228764485185 1:68.30910947894067 
1.0 1.0 0:-3.733228764485185 1:68.30910947894067 
1.0 1.0 0:-3.733228764485185 1:68.30910947894067 
1.0 1.0 0:-3.733228764485185 1:68.30910947894067 
1.0 1.0 0:-3.733228764485185 1:68.30910947894067 
1.0 1.0 0:-3.733228764485185 1:68.30910947894067 
1.0 1.0 0:-3.733228764485185 1:68.30910947894067 
1.0 1.0 0:-3.733228764485185 1:68.30910947894067 
1.0 1.0 0:-3.733228764485185 1:68.30910947894067 
1.0 1.0 0:-3.733228764485185 1:68.30910947894067 
1.0 1.0 0:-3.733228764485185 1:68.30910947894067 
1.0 1.0 0:-3.733228764485185 1:68.30910947894067 
1.0 1.0 0:-3.733228764485185 1:68.30910947894067 
1.0 1.0 0:-3.733228764485185 1:68.30910947894067 
1.0 1.0 0:-3.733228764485185 1:68.30910947894067 
1.0 1.0 0:-3.733228764485185 1:68.30910947894067 
1.0 1.0 0:-3.733228764485185 1:68.30910947894067 
1.0 1.0 0:-3.733228764485185 1:68.30910947894067 
1.0 1.0 0:-3.733228764485185 1:68.30910947894067 
1.0 1.0 0:-3.733228764485185 1:68.30910947894067 
1.0 1.0 0:-3.733228764485185 1:68.30910947894067 
1.0 1.0 0:-3.733228764485185 1:68.30910947894067 
1.0 1.0 0:-3.733228764485185 1:68.30910947894067 
1.0 0.0 0:27.671984825601015 1:83.23971015080637 
1.0 1.0 0:-3.733228764485185 1:68.30910947894067 
1.0 1.0 0:-3.733228764485185 1:68.30910947894067 
1.0 1.0 0:-3.733228764485185 1:68.30910947894067 
1.0 1.0 0:-3.733228764485185 1:68.30910947894067 
1.0 1.0 0:-3.733228764485185 1:68.30910947894067 
1.0 1.0 0:-3.733228764485185 1:68.30910947894067 
1.0 1.0 0:-3.733228764485185 1:68.30910947894067 
1.0 1.0 0:-3.733228764485185 1:68.30910947894067 
1.0 0.0 0:0.567170616947563 1:175.2991222908273 
1.0 1.0 0:-3.733228764485185 1:68.30910947894067 
1.0 1.0 0:-3.733228764485185 1:68.30910947894067 
1.0 1.0 0:-3.733228764485185 1:68.30910947894067 
1.0 1.0 0:-3.733228764485185 1:68.30910947894067 
1.0 1.0 0:-3.733228764485185 1:68.30910947894067 
1.0 1.0 0:-3.733228764485185 1:68.30910947894067 
1.0 1.0 0:-3.733228764485185 1:68.30910947894067 
1.0 1.0 0:-3.733228764485185 1:68.30910947894067 
1.0 1.0 0:-3.733228764485185 1:68.30910947894067 
1.0 1.0 0:-3.733228764485185 1:68.30910947894067 
1.0 1.0 0:-3.733228764485185 1:68.30910947894067 
-0.0 1.0 0:-30.460461112824206 1:-46.15051184716818 
-1.0 0.0 0:-3.733228764485185 1:68.30910947894067 
-1.0 0.0 0:-3.733228764485185 1:68.30910947894067 
-1.0 0.0 0:-3.733228764485185 1:68.30910947894067 
-0.0 1.0 0:-23.885596952025374 1:-4.785776762732781 
-1.0 0.0 0:-3.733228764485185 1:68.30910947894067 
-1.0 0.0 0:-3.733228764485185 1:68.30910947894067 
-1.0 0.0 0:-3.733228764485185 1:68.30910947894067 
-1.0 0.0 0:-10.177082790535817 1:178.9085496145073 
-1.0 0.0 0:-3.733228764485185 1:68.30910947894067 
-1.0 0.0 0:-3.733228764485185 1:68.30910947894067 
-1.0 0.0 0:-3.733228764485185 1:68.30910947894067 
-1.0 0.0 0:-3.733228764485185 1:68.30910947894067 
-1.0 0.0 0:-3.733228764485185 1:68.30910947894067 
-1.0 0.0 0:-3.733228764485185 1:68.30910947894067 
-1.0 0.0 0:-3.733228764485185 1:68.30910947894067 
-1.0 0.0 0:17.577045618023476 1:146.40343810810953 
-1.0 1.0 0:19.46122866141008 1:58.50110093738468 
-1.0 0.0 0:-3.733228764485185 1:68.30910947894067 
-1.0 0.0 0:2.4667744925821617 1:168.6633112360647 
-1.0 0.0 0:-3.733228764485185 1:68.30910947894067 
-1.0 0.0 0:-3.733228764485185 1:68.30910947894067 
-1.0 1.0 0:-1.5588817579878829 1:61.189466133360405 
-1.0 0.0 0:-3.733228764485185 1:68.30910947894067 
-1.0 0.0 0:0.15752713523968476 1:170.18246152500706 
-1.0 0.0 0:-3.733228764485185 1:68.30910947894067 
-1.0 0.0 0:-3.733228764485185 1:68.30910947894067 
-1.0 0.0 0:-3.733228764485185 1:68.30910947894067 
-1.0 0.0 0:-3.733228764485185 1:68.30910947894067 
-1.0 1.0 0:14.035600143361522 1:70.38350408650496 
-1.0 0.0 0:-3.733228764485185 1:68.30910947894067 
-1.0 0.0 0:-3.733228764485185 1:68.30910947894067 
-1.0 0.0 0:-3.733228764485185 1:68.30910947894067 
-1.0 0.0 0:-3.733228764485185 1:68.30910947894067 
-1.0 0.0 0:-3.733228764485185 1:68.30910947894067 
-1.0 0.0 0:-3.733228764485185 1:68.30910947894067 
-1.0 0.0 0:-3.733228764485185 1:68.30910947894067 
-1.0 0.0 0:-3.733228764485185 1:68.30910947894067 
-1.0 0.0 0:-3.733228764485185 1:68.30910947894067 
-0.0 1.0 0:-24.410189502881977 1:5.634255714249744 
-1.0 0.0 0:-3.733228764485185 1:68.30910947894067 
-1.0 0.0 0:-3.733228764485185 1:68.30910947894067 
-1.0 0.0 0:-1.7440222065855395 1:102.69592380318923 
-1.0 0.0 0:-3.733228764485185 1:68.30910947894067 
-1.0 0.0 0:-6.954796486950041 1:132.43778184505328 
-0.0 1.0 0:-44.92920096109847 1:-1.5100993710149382 
-1.0 0.0 0:-3.733228764485185 1:68.30910947894067 
-1.0 0.0 0:-3.733228764485185 1:68.30910947894067 
-1.0 0.0 0:-3.733228764485185 1:68.30910947894067 
-1.0 0.0 0:-3.733228764485185 1:68.30910947894067 
-1.0 0.0 0:-3.733228764485185 1:68.30910947894067 
-1.0 0.0 0:0.831637063359619 1:96.62490520260393 
-1.0 0.0 0:-3.733228764485185 1:68.30910947894067 
-1.0 0.0 0:-3.733228764485185 1:68.30910947894067 
-1.0 0.0 0:-3.733228764485185 1:68.30910947894067 
-1.0 0.0 0:16.596279708291153 1:197.44249243939043 
-1.0 1.0 0:8.896255687116064 1:82.05199132811956 
-1.0 0.0 0:-3.733228764485185 1:68.30910947894067 
-1.0 0.0 0:-3.733228764485185 1:68.30910947894067 
-1.0 0.0 0:-3.733228764485185 1:68.30910947894067 
-1.0 0.0 0:-3.733228764485185 1:68.30910947894067 
-1.0 0.0 0:-3.733228764485185 1:68.30910947894067 
-1.0 0.0 0:-3.733228764485185 1:68.30910947894067 
-1.0 0.0 0:-3.733228764485185 1:68.30910947894067 
-1.0 0.0 0:-3.733228764485185 1:68.30910947894067 
-1.0 0.0 0:-3.733228764485185 1:68.30910947894067 
-1.0 0.0 0:-3.733228764485185 1:68.30910947894067 
-0.0 1.0 0:-6.12570085407761 1:42.222777460830095 
-1.0 0.0 0:2.1592120963179418 1:123.76995389341687 
-0.0 1.0 0:1.1443773953711904 1:33.1155109971751 
-1.0 1.0 0:50.23873932133766 1:-3.086134197515092 
-1.0 0.0 0:-3.733228764485185 1:68.30910947894067 
-1.0 1.0 0:6.939913406282231 1:33.44125918638374 
-0.0 1.0 0:-32.297220871514014 1:-37.56876041273967 
-1.0 1.0 0:39.48160203920246 1:121.15873726869339 
-0.0 1.0 0:-23.10367856812552 1:37.073097436668085 
-1.0 0.0 0:-3.733228764485185 1:68.30910947894067 
-1.0 0.0 0:-3.733228764485185 1:68.30910947894067 
-1.0 1.0 0:30.30302214418378 1:61.8508526694804 
-1.0 0.0 0:-3.733228764485185 1:68.30910947894067 
-1.0 0.0 0:-3.733228764485185 1:68.30910947894067 
-1.0 0.0 0:-3.733228764485185 1:68.30910947894067 
-1.0 0.0 0:-3.733228764485185 1:68.30910947894067 
-0.0 0.3799576025065713 0:-40.49230439885276 1:13.301891801985917 
-1.0 0.0 0:-3.733228764485185 1:68.30910947894067 
-1.0 0.0 0:-3.733228764485185 1:68.30910947894067 
-0.0 1.0 0:-3.6491531229259007 1:21.323268555883146 
-1.0 0.0 0:-3.733228764485185 1:68.30910947894067 
-1.0 0.0 0:-3.733228764485185 1:68.30910947894067 
-1.0 0.0 0:-3.733228764485185 1:68.30910947894067 
-1.0 0.0 0:-3.733228764485185 1:68.30910947894067 
-0.0 1.0 0:-35.167522057012626 1:3.704277187717821 
-1.0 0.0 0:-3.733228764485185 1:68.30910947894067 
-1.0 0.0 0:-29.170045762045678 1:136.69564867107132 
-1.0 0.0 0:-3.733228764485185 1:68.30910947894067 
-1.0 0.0 0:-3.733228764485185 1:68.30910947894067 
-1.0 0.0 0:-3.733228764485185 1:68.30910947894067 
-1.0 0.0 0:-3.733228764485185 1:68.30910947894067 
-1.0 0.0 0:-3.733228764485185 1:68.30910947894067 
-1.0 0.0 0:-3.733228764485185 1:68.30910947894067 
-1.0 0.0 0:-3.733228764485185 1:68.30910947894067 
-1.0 0.0 0:-3.733228764485185 1:68.30910947894067 
-1.0 0.0 0:-3.733228764485185 1:68.30910947894067 
-1.0 0.0 0:-3.733228764485185 1:68.30910947894067 
-1.0 0.0 0:1.51254502683006 1:128.62352951773565 
-1.0 0.0 0:-3.733228764485185 1:68.30910947894067 
-1.0 0.0 0:-3.733228764485185 1:68.30910947894067 
-1.0 0.0 0:-3.733228764485185 1:68.30910947894067 
-1.0 0.0 0:-3.733228764485185 1:68.30910947894067 
-1.0 0.0 0:-3.733228764485185 1:68.30910947894067 
-1.0 0.0 0:-3.733228764485185 1:68.30910947894067 
-1.0 0.0 0:-3.733228764485185 1:68.30910947894067 
-1.0 0.0 0:-3.733228764485185 1:68.30910947894067 
-0.0 1.0 0:-32.57823325663053 1:18.816377149054638 
-1.0 0.0 0:-3.733228764485185 1:68.30910947894067 
-1.0 0.0 0:-3.733228764485185 1:68.30910947894067 
-1.0 0.0 0:-3.733228764485185 1:68.30910947894067 
-1.0 0.0 0:-33.54600608302378 1:188.9489213810663 
-1.0 0.0 0:-3.733228764485185 1:68.30910947894067 
-1.0 0.0 0:-3.733228764485185 1:68.30910947894067 
-1.0 0.0 0:-3.733228764485185 1:68.30910947894067 
-1.0 0.0 0:-3.733228764485185 1:68.30910947894067 
-1.0 0.0 0:-3.733228764485185 1:68.30910947894067 
-1.0 0.0 0:-3.733228764485185 1:68.30910947894067 
-1.0 0.0 0:-26.729634901644758 1:207.1634788881466 
-1.0 0.0 0:-3.733228764485185 1:68.30910947894067 
-1.0 0.0 0:-29.193274241279994 1:173.18433806629088 
-1.0 0.0 0:-3.733228764485185 1:68.30910947894067 
-0.0 1.0 0:-15.170009182569686 1:47.08158438533384 
-1.0 0.0 0:-3.733228764485185 1:68.30910947894067 
-1.0 0.0 0:-3.733228764485185 1:68.30910947894067 
-0.0 1.0 0:-17.102712237210355 1:31.553181923394256 
-1.0 0.0 0:-3.733228764485185 1:68.30910947894067 
-1.0 0.0 0:-3.733228764485185 1:68.30910947894067 
-1.0 1.0 0:44.27918669286831 1:119.49676309004427 
-1.0 1.0 0:8.131291325944334 1:80.97708556572393 
-1.0 0.15067241774015483 0:-3.733228764485185 1:68.30910947894067 
-1.0 1.0 0:-3.733228764485185 1:68.30910947894067 
-1.0 1.0 0:-3.733228764485185 1:68.30910947894067 
-1.0 1.0 0:-3.733228764485185 1:68.30910947894067 
-1.0 1.0 0:-3.733228764485185 1:68.30910947894067 
-1.0 1.0 0:-3.733228764485185 1:68.30910947894067 
-1.0 1.0 0:-3.733228764485185 1:68.30910947894067 
-0.0 1.0 0:-15.726456487397185 1:32.36615369650675 
-1.0 1.0 0:-2.603216228556776 1:58.1645762773563 
-1.0 1.0 0:-3.733228764485185 1:68.30910947894067 
-1.0 1.0 0:51.951301966076194 1:3.993645727655955 
-1.0 1.0 0:-3.733228764485185 1:68.30910947894067 
-1.0 1.0 0:-3.733228764485185 1:68.30910947894067 
-1.0 1.0 0:-3.733228764485185 1:68.30910947894067 
-1.0 1.0 0:-3.733228764485185 1:68.30910947894067 
-1.0 1.0 0:-3.733228764485185 1:68.30910947894067 
-1.0 1.0 0:-3.733228764485185 1:68.30910947894067 
-0.0 1.0 0:-38.48378529641373 1:-15.815258419612915 
-1.0 1.0 0:-3.733228764485185 1:68.30910947894067 
-1.0 1.0 0:32.110068145019135 1:26.17997677088115 
-1.0 1.0 0:-3.733228764485185 1:68.30910947894067 
-0.0 1.0 0:-37.602122313875114 1:6.199869062805035 
-1.0 1.0 0:-3.733228764485185 1:68.30910947894067 
-1.0 1.0 0:-3.733228764485185 1:68.30910947894067 
-1.0 1.0 0:-3.733228764485185 1:68.30910947894067 
-1.0 1.0 0:-3.733228764485185 1:68.30910947894067 
-1.0 1.0 0:-3.733228764485185 1:68.30910947894067 
-0.0 1.0 0:-20.824760930301636 1:39.335297509470735 
-1.0 0.0 0:-12.096111646297485 1:103.22315876099671 
-1.0 1.0 0:-3.733228764485185 1:68.30910947894067 
-1.0 1.0 0:-3.733228764485185 1:68.30910947894067 
-1.0 1.0 0:-3.733228764485185 1:68.30910947894067 
-1.0 1.0 0:-3.733228764485185 1:68.30910947894067 
-1.0 1.0 0:-3.733228764485185 1:68.30910947894067 
-1.0 1.0 0:-3.733228764485185 1:68.30910947894067 
-1.0 0.0 0:-7.248449753471094 1:101.77748207193902 
-1.0 1.0 0:-3.733228764485185 1:68.30910947894067 
-1.0 1.0 0:-3.733228764485185 1:68.30910947894067 
-1.0 1.0 0:-3.733228764485185 1:68.30910947894067 
-1.0 1.0 0:-3.733228764485185 1:68.30910947894067 
-1.0 1.0 0:-3.733228764485185 1:68.30910947894067 
-1.0 1.0 0:-3.733228764485185 1:68.30910947894067 
-0.0 1.0 0:-11.969875243893583 1:2.8270092785154173 
-1.0 1.0 0:-3.733228764485185 1:68.30910947894067 
-1.0 1.0 0:-3.733228764485185 1:68.30910947894067 
-1.0 1.0 0:-3.733228764485185 1:68.30910947894067 
-1.0 1.0 0:-3.733228764485185 1:68.30910947894067 
-0.0 1.0 0:-26.22534130854081 1:-36.06663788038163 
-1.0 1.0 0:-3.733228764485185 1:68.30910947894067 
-1.0 1.0 0:-3.733228764485185 1:68.30910947894067 
-1.0 1.0 0:-3.733228764485185 1:68.30910947894067 
-1.0 1.0 0:-3.733228764485185 1:68.30910947894067 
-1.0 1.0 0:-3.733228764485185 1:68.30910947894067 
-1.0 0.0 0:-8.465257127035121 1:163.6534812254362 
-1.0 1.0 0:-3.733228764485185 1:68.30910947894067 
-1.0 1.0 0:-3.733228764485185 1:68.30910947894067 
-0.0 1.0 0:7.502112475025339 1:10.915174933260111 
-1.0 1.0 0:-3.733228764485185 1:68.30910947894067 
-1.0 1.0 0:7.845086101753937 1:84.33741279874832 
-1.0 1.0 0:-3.733228764485185 1:68.30910947894067 
-1.0 1.0 0:-3.733228764485185 1:68.30910947894067 
-1.0 1.0 0:-3.733228764485185 1:68.30910947894067 
-1.0 1.0 0:-3.733228764485185 1:68.30910947894067 
-0.0 1.0 0:-28.635305772992446 1:25.212700142043598 
-0.0 1.0 0:-39.6271237250533 1:8.670472658809711 
-1.0 1.0 0:-3.733228764485185 1:68.30910947894067 
-1.0 1.0 0:-3.733228764485185 1:68.30910947894067 
-1.0 1.0 0:-3.733228764485185 1:68.30910947894067 
-1.0 0.0 0:-5.071906960424225 1:85.33011555872595 
-1.0 1.0 0:-3.733228764485185 1:68.30910947894067 
-1.0 1.0 0:-3.733228764485185 1:68.30910947894067 
-1.0 1.0 0:-3.733228764485185 1:68.30910947894067 
-1.0 1.0 0:-3.733228764485185 1:68.30910947894067 
-0.0 1.0 0:-3.5514275312494017 1:38.13148576766264 
-1.0 1.0 0:-3.733228764485185 1:68.30910947894067 
-1.0 0.0 0:-17.38725877649407 1:172.80707957073514 
-1.0 1.0 0:-3.733228764485185 1:68.30910947894067 
-1.0 1.0 0:-3.733228764485185 1:68.30910947894067 
-1.0 1.0 0:14.841732153977347 1:60.827176973681375 
-1.0 1.0 0:-3.733228764485185 1:68.30910947894067 
-1.0 0.0 0:5.923843793628558 1:119.13771569358806 
-1.0 1.0 0:-3.733228764485185 1:68.30910947894067 
-1.0 1.0 0:-3.733228764485185 1:68.30910947894067 
-1.0 1.0 0:-3.733228764485185 1:68.30910947894067 
-1.0 1.0 0:-3.733228764485185 1:68.30910947894067 
-1.0 1.0 0:-3.733228764485185 1:68.30910947894067 
-1.0 1.0 0:-3.733228764485185 1:68.30910947894067 
-1.0 1.0 0:-3.733228764485185 1:68.30910947894067 
-1.0 1.0 0:-3.733228764485185 1:68.30910947894067 
-1.0 1.0 0:-3.733228764485185 1:68.30910947894067 
-1.0 1.0 0:43.00306241060511 1:132.1911453575047 
-1.0 1.0 0:-3.733228764485185 1:68.30910947894067 
-1.0 1.0 0:13.985239141497853 1:61.76815279760211 
-1.0 1.0 0:-3.733228764485185 1:68.30910947894067 
-1.0 1.0 0:-3.733228764485185 1:68.30910947894067 
-1.0 1.0 0:-3.733228764485185 1:68.30910947894067 
-1.0 1.0 0:-3.733228764485185 1:68.30910947894067 
-1.0 1.0 0:-3.733228764485185 1:68.30910947894067 
-0.0 1.0 0:-18.57899587456857 1:7.933567299209076 
-1.0 1.0 0:-3.733228764485185 1:68.30910947894067 
-1.0 1.0 0:-3.733228764485185 1:68.30910947894067 
-1.0 0.0 0:-26.735100024079546 1:160.99379118949633 
-1.0 1.0 0:-3.733228764485185 1:68.30910947894067 
-1.0 1.0 0:-3.733228764485185 1:68.30910947894067 
-0.0 1.0 0:-1.1855115581280415 1:34.96882064640328 
-1.0 1.0 0:-3.733228764485185 1:68.30910947894067 
-1.0 1.0 0:-3.733228764485185 1:68.30910947894067 
-1.0 0.0 0:8.138047698774816 1:93.20035370328742 
-1.0 1.0 0:-3.733228764485185 1:68.30910947894067 
-1.0 1.0 0:-3.733228764485185 1:68.30910947894067 
-1.0 1.0 0:-3.733228764485185 1:68.30910947894067 
-1.0 0.0 0:-35.907918490233506 1:164.02273081492328 
-1.0 1.0 0:-3.733228764485185 1:68.30910947894067 
-1.0 1.0 0:-3.733228764485185 1:68.30910947894067 
-0.0 1.0 0:-7.571391585140135 1:61.587341730009356 
-1.0 1.0 0:-3.733228764485185 1:68.30910947894067 
-1.0 1.0 0:-3.733228764485185 1:68.30910947894067 
-1.0 1.0 0:-3.733228764485185 1:68.30910947894067 
-1.0 1.0 0:-3.733228764485185 1:68.30910947894067 
-1.0 1.0 0:-3.733228764485185 1:68.30910947894067 
-1.0 1.0 0:-3.733228764485185 1:68.30910947894067 
-1.0 1.0 0:-3.733228764485185 1:68.30910947894067 
-1.0 0.0 0:-22.00604467272237 1:125.84183590952436 
-1.0 0.0 0:-32.292610631535176 1:168.235121023858 
-1.0 1.0 0:-3.733228764485185 1:68.30910947894067 
-1.0 1.0 0:18.06338805830855 1:5.617637966621675 
-1.0 0.0 0:-3.589833676240064 1:71.43598843545354 
-1.0 1.0 0:-3.733228764485185 1:68.30910947894067 
-0.0 1.0 0:-3.5768413657320948 1:42.54958031467431 
-1.0 1.0 0:-3.733228764485185 1:68.30910947894067 
-1.0 1.0 0:-3.733228764485185 1:68.30910947894067 
-1.0 1.0 0:-3.733228764485185 1:68.30910947894067 
-1.0 0.0 0:10.608722867974299 1:146.4869037240058 
-1.0 0.0 0:-19.086848324574383 1:128.70928400266087 
-1.0 1.0 0:-3.733228764485185 1:68.30910947894067 
-1.0 1.0 0:-3.733228764485185 1:68.30910947894067 
-1.0 1.0 0:-3.733228764485185 1:68.30910947894067 
-1.0 0.0 0:-29.42365844467468 1:136.23408604698042 
-1.0 1.0 0:-3.733228764485185 1:68.30910947894067 
-1.0 0.0 0:6.162398925225424 1:190.0606157609651 
-1.0 1.0 0:-3.733228764485185 1:68.30910947894067 
-1.0 1.0 0:-3.733228764485185 1:68.30910947894067 
-0.0 1.0 0:-54.73573761845224 1:-12.352875706530583 
-1.0 1.0 0:-3.733228764485185 1:68.30910947894067 
-1.0 1.0 0:-3.733228764485185 1:68.30910947894067 
-1.0 0.0 0:-17.325634261433272 1:102.27033256142457 
-1.0 1.0 0:-3.733228764485185 1:68.30910947894067 
-1.0 1.0 0:-3.733228764485185 1:68.30910947894067 
-0.0 1.0 0:-2.6232490418890304 1:44.106445742496156 
-1.0 1.0 0:-3.733228764485185 1:68.30910947894067 
-0.0 1.0 0:-15.227055920528656 1:-52.78976247224495 
-1.0 1.0 0:-3.733228764485185 1:68.30910947894067 
-1.0 1.0 0:-3.733228764485185 1:68.30910947894067 
-1.0 1.0 0:-3.733228764485185 1:68.30910947894067 
-1.0 1.0 0:-3.733228764485185 1:68.30910947894067 
-1.0 1.0 0:-3.733228764485185 1:68.30910947894067 
-1.0 1.0 0:-3.733228764485185 1:68.30910947894067 
-1.0 1.0 0:-3.733228764485185 1:68.30910947894067 
-1.0 1.0 0:-3.733228764485185 1:68.30910947894067 
-1.0 1.0 0:-3.733228764485185 1:68.30910947894067 
-1.0 1.0 0:-3.733228764485185 1:68.30910947894067 
-1.0 0.0 0:21.11333510615173 1:158.05681115857473 
-1.0 1.0 0:-3.733228764485185 1:68.30910947894067 
-1.0 1.0 0:-3.733228764485185 1:68.30910947894067 
-1.0 1.0 0:-3.733228764485185 1:68.30910947894067 
-1.0 1.0 0:-3.733228764485185 1:68.30910947894067 
-1.0 1.0 0:-3.733228764485185 1:68.30910947894067 
-1.0 1.0 0:-3.733228764485185 1:68.30910947894067 
-1.0 1.0 0:-3.733228764485185 1:68.30910947894067 
-1.0 1.0 0:-3.733228764485185 1:68.30910947894067 
-1.0 1.0 0:12.535502406299779 1:52.503854247424705 
-0.0 1.0 0:-6.781821834139824 1:51.19197568762803 
-1.0 1.0 0:-3.733228764485185 1:68.30910947894067 
-1.0 1.0 0:-3.733228764485185 1:68.30910947894067 
-0.0 1.0 0:-94.65728903498938 1:-72.62771753214106 
-1.0 1.0 0:23.92130684745596 1:77.22493160287723 
-1.0 1.0 0:-3.733228764485185 1:68.30910947894067 
-0.0 1.0 0:-15.713921911514923 1:39.49228113224231 
-0.0 1.0 0:-4.561068547093892 1:-27.94385026869176 
-1.0 1.0 0:-3.733228764485185 1:68.30910947894067 
-1.0 1.0 0:-3.733228764485185 1:68.30910947894067 
-1.0 1.0 0:-3.733228764485185 1:68.30910947894067 
-1.0 1.0 0:-3.733228764485185 1:68.30910947894067 
-1.0 1.0 0:-3.733228764485185 1:68.30910947894067 
-1.0 1.0 0:-3.733228764485185 1:68.30910947894067 
-1.0 0.0 0:-20.961903620821957 1:192.1544183634309 
-1.0 1.0 0:-3.733228764485185 1:68.30910947894067 
-1.0 1.0 0:-3.733228764485185 1:68.30910947894067 
-1.0 1.0 0:-0.5839026360667869 1:67.66111235106524 
-1.0 1.0 0:-3.733228764485185 1:68.30910947894067 
-1.0 1.0 0:-3.733228764485185 1:68.30910947894067 
-0.0 1.0 0:1.3593976146747104 1:-24.566489603746348 
-1.0 1.0 0:-3.733228764485185 1:68.30910947894067 
-1.0 1.0 0:-3.733228764485185 1:68.30910947894067 
-1.0 1.0 0:-3.733228764485185 1:68.30910947894067 
-1.0 1.0 0:-3.733228764485185 1:68.30910947894067 
-1.0 1.0 0:-3.733228764485185 1:68.30910947894067 
-1.0 0.0 0:-10.407802097618985 1:117.0585050128369 
-1.0 0.0 0:-17.784325718939087 1:156.7482126082408 
-1.0 1.0 0:-3.733228764485185 1:68.30910947894067 
-1.0 0.0 0:-33.15658393284764 1:149.35836708105342 
-1.0 1.0 0:-3.733228764485185 1:68.30910947894067 
-1.0 1.0 0:-3.733228764485185 1:68.30910947894067 
-1.0 1.0 0:-3.733228764485185 1:68.30910947894067 
-1.0 1.0 0:-3.733228764485185 1:68.30910947894067 
-0.0 1.0 0:-78.31880386900504 1:-43.40444007257844 
-1.0 0.0 0:-7.942451145346507 1:80.37894130644582 
-1.0 1.0 0:-3.733228764485185 1:68.30910947894067 
-1.0 1.0 0:-3.733228764485185 1:68.30910947894067 
-1.0 1.0 0:-3.733228764485185 1:68.30910947894067 
-1.0 1.0 0:-3.733228764485185 1:68.30910947894067 
-1.0 1.0 0:-3.733228764485185 1:68.30910947894067 
-1.0 1.0 0:48.66969685233424 1:125.50561477229135 
-1.0 1.0 0:-3.733228764485185 1:68.30910947894067 
-1.0 1.0 0:-3.733228764485185 1:68.30910947894067 
-1.0 1.0 0:-3.733228764485185 1:68.30910947894067 
-1.0 1.0 0:-1.1366632714684948 1:68.58884909610869 
-1.0 1.0 0:-3.733228764485185 1:68.30910947894067 
-1.0 1.0 0:-3.733228764485185 1:68.30910947894067 
-1.0 1.0 0:-3.733228764485185 1:68.30910947894067 
-1.0 1.0 0:-3.733228764485185 1:68.30910947894067 
-1.0 1.0 0:-3.733228764485185 1:68.30910947894067 
-1.0 1.0 0:-3.733228764485185 1:68.30910947894067 
-1.0 1.0 0:-3.733228764485185 1:68.30910947894067 
-1.0 1.0 0:-3.733228764485185 1:68.30910947894067 
-1.0 1.0 0:-3.733228764485185 1:68.30910947894067 
-1.0 1.0 0:-3.733228764485185 1:68.30910947894067 
-1.0 1.0 0:-3.733228764485185 1:68.30910947894067 
-1.0 0.0 0:-1.864480430269607 1:128.26876299749128 
-0.0 1.0 0:-16.985772888713214 1:-94.41115619362192 
-1.0 1.0 0:-3.733228764485185 1:68.30910947894067 
-1.0 1.0 0:-3.733228764485185 1:68.30910947894067 
-1.0 0.0 0:-23.53799206467708 1:124.69468005116565 
-0.0 1.0 0:-37.15261605436863 1:-27.331658098764706 
-1.0 1.0 0:-3.733228764485185 1:68.30910947894067 
-1.0 1.0 0:-3.733228764485185 1:68.30910947894067 
-1.0 1.0 0:-3.733228764485185 1:68.30910947894067 
-1.0 1.0 0:-3.733228764485185 1:68.30910947894067 
-1.0 0.0 0:-12.183453877505947 1:89.5818792352997 
-1.0 1.0 0:-3.733228764485185 1:68.30910947894067 
-1.0 1.0 0:-3.733228764485185 1:68.30910947894067 
-1.0 1.0 0:-3.733228764485185 1:68.30910947894067 
-1.0 1.0 0:-3.733228764485185 1:68.30910947894067 
-1.0 1.0 0:-3.733228764485185 1:68.30910947894067 
-0.0 1.0 0:-21.203938926963772 1:-8.540271815634371 
-1.0 1.0 0:-3.733228764485185 1:68.30910947894067 
-1.0 1.0 0:-3.733228764485185 1:68.30910947894067 
-1.0 0.0 0:-16.485715153256596 1:108.75528870509224 
-1.0 1.0 0:-3.733228764485185 1:68.30910947894067 
-1.0 1.0 0:-3.733228764485185 1:68.30910947894067 
-1.0 1.0 0:-3.733228764485185 1:68.30910947894067 
-1.0 1.0 0:-3.733228764485185 1:68.30910947894067 
-1.0 1.0 0:23.328260948689316 1:66.05524842158053 
-1.0 1.0 0:-3.733228764485185 1:68.30910947894067 
-1.0 1.0 0:-3.733228764485185 1:68.30910947894067 
-1.0 1.0 0:-3.733228764485185 1:68.30910947894067 
-1.0 1.0 0:-3.733228764485185 1:68.30910947894067 
-1.0 1.0 0:-3.733228764485185 1:68.30910947894067 
-1.0 1.0 0:-3.733228764485185 1:68.30910947894067 
-1.0 1.0 0:-3.733228764485185 1:68.30910947894067 
-1.0 1.0 0:-3.733228764485185 1:68.30910947894067 
-0.0 1.0 0:-4.9208797915900035 1:-0.36067609816533797 
-0.0 1.0 0:14.939649981876226 1:-25.125759355122426 
-1.0 1.0 0:-3.733228764485185 1:68.30910947894067 
-1.0 1.0 0:-3.733228764485185 1:68.30910947894067 
-1.0 1.0 0:-3.733228764485185 1:68.30910947894067 
-1.0 1.0 0:-3.733228764485185 1:68.30910947894067 
-1.0 1.0 0:-3.733228764485185 1:68.30910947894067 
-1.0 0.0 0:-29.578754402469066 1:148.15644351102918 
-1.0 1.0 0:-3.733228764485185 1:68.30910947894067 
-1.0 1.0 0:-3.733228764485185 1:68.30910947894067 
-1.0 1.0 0:23.661134807360284 1:-1.7920551595398266 
-1.0 1.0 0:-3.733228764485185 1:68.30910947894067 
-1.0 1.0 0:-3.733228764485185 1:68.30910947894067 
-1.0 0.0 0:-24.82773669859448 1:166.76404237470143 
-0.0 1.0 0:-61.18759022549637 1:-24.864671076164566 
-1.0 0.0 0:-8.499600561865437 1:106.64768778678831 
-1.0 1.0 0:-3.733228764485185 1:68.30910947894067 
-1.0 1.0 0:-3.733228764485185 1:68.30910947894067 
-0.0 1.0 0:-1.06637864461447 1:46.51403530175734 
-1.0 1.0 0:14.404197830976166 1:95.23731353657172 
-1.0 0.0 0:-8.90737410809539 1:117.16117706997503 
-1.0 1.0 0:-3.733228764485185 1:68.30910947894067 
-1.0 1.0 0:34.1878599677285 1:43.51626222693534 
-1.0 1.0 0:-3.733228764485185 1:68.30910947894067 
-1.0 1.0 0:-3.733228764485185 1:68.30910947894067 
-1.0 1.0 0:-3.733228764485185 1:68.30910947894067 
-1.0 1.0 0:-3.733228764485185 1:68.30910947894067 
-1.0 1.0 0:-3.733228764485185 1:68.30910947894067 
-1.0 0.0 0:-39.81649378979113 1:184.13014102600584 
-1.0 1.0 0:-3.733228764485185 1:68.30910947894067 
-1.0 1.0 0:-3.733228764485185 1:68.30910947894067 
-1.0 1.0 0:-3.733228764485185 1:68.30910947894067 
-1.0 0.0 0:-19.958905946310068 1:119.83773909540463 
-1.0 1.0 0:-3.733228764485185 1:68.30910947894067 
-1.0 0.0 0:-28.303261528454286 1:189.86844222818695 
-0.401774914836084 0.0 0:-28.86298040993625 1:132.57754001251575 
-1.0 0.0 0:-4.637952466176643 1:175.25154070617802 
-1.0 1.0 0:-3.733228764485185 1:68.30910947894067 
-1.0 1.0 0:61.200729886058326 1:-55.337990076057544 
-1.0 0.0 0:15.57217357075266 1:180.10802491113725 
-1.0 1.0 0:-3.733228764485185 1:68.30910947894067 
-1.0 1.0 0:-3.733228764485185 1:68.30910947894067 
-1.0 1.0 0:-3.733228764485185 1:68.30910947894067 
-1.0 1.0 0:-3.733228764485185 1:68.30910947894067 
-1.0 1.0 0:-3.733228764485185 1:68.30910947894067 
-1.0 1.0 0:-3.733228764485185 1:68.30910947894067 
-1.0 1.0 0:-3.733228764485185 1:68.30910947894067 
-1.0 1.0 0:-3.733228764485185 1:68.30910947894067 
-1.0 1.0 0:-3.733228764485185 1:68.30910947894067 
-1.0 1.0 0:-3.733228764485185 1:68.30910947894067 
-1.0 1.0 0:13.96827010795205 1:84.22962765584445 
-1.0 1.0 0:-3.733228764485185 1:68.30910947894067 
-1.0 1.0 0:-3.733228764485185 1:68.30910947894067 
-1.0 1.0 0:-3.733228764485185 1:68.30910947894067 
-0.0 1.0 0:7.252437513904035 1:-53.28524757227109 
-1.0 1.0 0:-3.733228764485185 1:68.30910947894067 
-1.0 1.0 0:-3.733228764485185 1:68.30910947894067 
-1.0 0.0 0:-9.125025716500758 1:140.3841747557449 
-0.0 1.0 0:-10.896888264183927 1:34.74922047337324 
-1.0 1.0 0:-3.733228764485185 1:68.30910947894067 
-1.0 1.0 0:-3.733228764485185 1:68.30910947894067 
-1.0 1.0 0:-3.733228764485185 1:68.30910947894067 
-1.0 1.0 0:-3.733228764485185 1:68.30910947894067 
-1.0 1.0 0:-3.733228764485185 1:68.30910947894067 
-1.0 1.0 0:-3.733228764485185 1:68.30910947894067 
-0.0 1.0 0:-6.646694974260778 1:-72.83979466272135 
-1.0 1.0 0:-3.733228764485185 1:68.30910947894067 
-1.0 1.0 0:-3.733228764485185 1:68.30910947894067 
-1.0 1.0 0:-3.733228764485185 1:68.30910947894067 
-1.0 1.0 0:-3.733228764485185 1:68.30910947894067 
-1.0 1.0 0:-3.733228764485185 1:68.30910947894067 
-1.0 1.0 0:-3.733228764485185 1:68.30910947894067 
-1.0 1.0 0:-3.733228764485185 1:68.30910947894067 
-1.0 0.0 0:-10.599505266513768 1:106.62859554534926 
-1.0 1.0 0:-3.733228764485185 1:68.30910947894067 
-0.0 1.0 0:-16.601835245008136 1:25.976211679362862 
-1.0 0.0 0:-1.047102961668327 1:93.18727606506907 
-1.0 1.0 0:-3.733228764485185 1:68.30910947894067 
-1.0 1.0 0:-3.733228764485185 1:68.30910947894067 
-1.0 1.0 0:-3.733228764485185 1:68.30910947894067 
-1.0 0.0 0:-48.75817047232873 1:194.6923955660039 
-1.0 1.0 0:-3.733228764485185 1:68.30910947894067 
-0.0 1.0 0:-57.605437655319925 1:-33.5184138195977 
-1.0 1.0 0:-3.733228764485185 1:68.30910947894067 
-1.0 1.0 0:-3.733228764485185 1:68.30910947894067 
-1.0 0.0 0:-22.454210686398238 1:193.98646615703947 
-1.0 1.0 0:-3.733228764485185 1:68.30910947894067 
-1.0 1.0 0:-3.733228764485185 1:68.30910947894067 
-1.0 1.0 0:-3.733228764485185 1:68.30910947894067 
-1.0 1.0 0:-3.733228764485185 1:68.30910947894067 
-0.0 1.0 0:-37.20474049706014 1:-93.28782681353029 
-1.0 1.0 0:-3.733228764485185 1:68.30910947894067 
-1.0 1.0 0:-3.733228764485185 1:68.30910947894067 
-1.0 1.0 0:-3.733228764485185 1:68.30910947894067 
-0.0 1.0 0:-24.317722483244523 1:4.213653503961016 
-1.0 1.0 0:-3.733228764485185 1:68.30910947894067 
-0.0 1.0 0:-12.311410525798886 1:-14.621202213293376 
-1.0 1.0 0:-3.733228764485185 1:68.30910947894067 
-1.0 1.0 0:-3.733228764485185 1:68.30910947894067 
-0.0 1.0 0:-40.10587705377731 1:-60.305189624690335 
-1.0 1.0 0:-3.733228764485185 1:68.30910947894067 
-1.0 1.0 0:-3.733228764485185 1:68.30910947894067 
-1.0 1.0 0:-3.733228764485185 1:68.30910947894067 
-0.0 1.0 0:-42.43395767526143 1:-2.62446274146267 
-0.0 1.0 0:-6.868263162901357 1:16.250863069253004 
-1.0 1.0 0:-3.733228764485185 1:68.30910947894067 
-1.0 1.0 0:-3.733228764485185 1:68.30910947894067 
-1.0 1.0 0:-3.733228764485185 1:68.30910947894067 
-0.0 1.0 0:-10.844281142302993 1:-70.63628210791882 
-1.0 1.0 0:-3.733228764485185 1:68.30910947894067 
-1.0 1.0 0:-3.733228764485185 1:68.30910947894067 
-1.0 1.0 0:-3.733228764485185 1:68.30910947894067 
-1.0 1.0 0:-3.733228764485185 1:68.30910947894067 
-1.0 1.0 0:-3.733228764485185 1:68.30910947894067 
-1.0 1.0 0:-3.733228764485185 1:68.30910947894067 
-1.0 0.3683728605817804 0:-3.733228764485185 1:68.30910947894067 
-0.0 1.0 0:4.703294811460404 1:-55.16157322889486 
-1.0 1.0 0:10.200270591800274 1:46.38060346205304 
-1.0 -1.0 0:-3.733228764485185 1:68.30910947894067 
-1.0 -1.0 0:-3.733228764485185 1:68.30910947894067 
-1.0 -1.0 0:-3.733228764485185 1:68.30910947894067 
-1.0 -1.0 0:-3.733228764485185 1:68.30910947894067 
-1.0 -1.0 0:-3.733228764485185 1:68.30910947894067 
-1.0 -1.0 0:-3.733228764485185 1:68.30910947894067 
-1.0 -1.0 0:-3.733228764485185 1:68.30910947894067 
-1.0 -1.0 0:-3.733228764485185 1:68.30910947894067 
-1.0 -1.0 0:-3.733228764485185 1:68.30910947894067 
-1.0 -1.0 0:-3.733228764485185 1:68.30910947894067 
-1.0 -1.0 0:-3.733228764485185 1:68.30910947894067 
-1.0 -1.0 0:-3.733228764485185 1:68.30910947894067 
-1.0 -1.0 0:-3.733228764485185 1:68.30910947894067 
-1.0 -1.0 0:-3.733228764485185 1:68.30910947894067 
-1.0 -1.0 0:-3.733228764485185 1:68.30910947894067 
-1.0 -1.0 0:-3.733228764485185 1:68.30910947894067 
-1.0 -1.0 0:-3.733228764485185 1:68.30910947894067 
-1.0 -1.0 0:-3.733228764485185 1:68.30910947894067 
-1.0 -1.0 0:-3.733228764485185 1:68.30910947894067 
-1.0 -1.0 0:-3.733228764485185 1:68.30910947894067 
-1.0 -1.0 0:-3.733228764485185 1:68.30910947894067 
-1.0 -0.0 0:84.65118628881076 1:-286.61675872638585 
-1.0 -1.0 0:-3.733228764485185 1:68.30910947894067 
-1.0 -1.0 0:-3.733228764485185 1:68.30910947894067 
-1.0 -1.0 0:-3.733228764485185 1:68.30910947894067 
-1.0 -1.0 0:-3.733228764485185 1:68.30910947894067 
-1.0 -1.0 0:-3.733228764485185 1:68.30910947894067 
-1.0 -1.0 0:-3.733228764485185 1:68.30910947894067 
-1.0 -1.0 0:-3.733228764485185 1:68.30910947894067 
-1.0 -1.0 0:-3.733228764485185 1:68.30910947894067 
-1.0 -1.0 0:-3.733228764485185 1:68.30910947894067 
-1.0 -1.0 0:-3.733228764485185 1:68.30910947894067 
-1.0 -1.0 0:-3.733228764485185 1:68.30910947894067 
-1.0 -1.0 0:-3.733228764485185 1:68.30910947894067 
-1.0 -1.0 0:-3.733228764485185 1:68.30910947894067 
-1.0 -1.0 0:-3.733228764485185 1:68.30910947894067 
-1.0 -1.0 0:-3.733228764485185 1:68.30910947894067 
-1.0 -1.0 0:-3.733228764485185 1:68.30910947894067 
-1.0 -1.0 0:-3.733228764485185 1:68.30910947894067 
-1.0 -1.0 0:-3.733228764485185 1:68.30910947894067 
-1.0 -1.0 0:-3.733228764485185 1:68.30910947894067 
-1.0 -1.0 0:-3.733228764485185 1:68.30910947894067 
-1.0 -1.0 0:-3.733228764485185 1:68.30910947894067 
-1.0 -1.0 0:-3.733228764485185 1:68.30910947894067 
-1.0 -1.0 0:-3.733228764485185 1:68.30910947894067 
-1.0 -1.0 0:-3.733228764485185 1:68.30910947894067 
-1.0 -1.0 0:-3.733228764485185 1:68.30910947894067 
-1.0 -1.0 0:-3.733228764485185 1:68.30910947894067 
-1.0 -1.0 0:-3.733228764485185 1:68.30910947894067 
-1.0 -1.0 0:-3.733228764485185 1:68.30910947894067 
-1.0 -1.0 0:-3.733228764485185 1:68.30910947894067 
-1.0 -1.0 0:-3.733228764485185 1:68.30910947894067 
-1.0 -1.0 0:-3.733228764485185 1:68.30910947894067 
-1.0 -1.0 0:-3.733228764485185 1:68.30910947894067 
-1.0 -1.0 0:-3.733228764485185 1:68.30910947894067 
-1.0 -1.0 0:-3.733228764485185 1:68.30910947894067 
-1.0 -1.0 0:-3.733228764485185 1:68.30910947894067 
-1.0 -1.0 0:-3.733228764485185 1:68.30910947894067 
-1.0 -1.0 0:-3.733228764485185 1:68.30910947894067 
-1.0 -1.0 0:-3.733228764485185 1:68.30910947894067 
-1.0 -1.0 0:-3.733228764485185 1:68.30910947894067 
-1.0 -1.0 0:-3.733228764485185 1:68.30910947894067 
-1.0 -1.0 0:-3.733228764485185 1:68.30910947894067 
-1.0 -1.0 0:-3.733228764485185 1:68.30910947894067 
-1.0 -1.0 0:-3.733228764485185 1:68.30910947894067 
-1.0 -1.0 0:-3.733228764485185 1:68.30910947894067 
-1.0 -1.0 0:-3.733228764485185 1:68.30910947894067 
-0.0 -1.0 0:29.263119903429743 1:-331.6409214773218 
-1.0 -1.0 0:-3.733228764485185 1:68.30910947894067 
-1.0 -1.0 0:-3.733228764485185 1:68.30910947894067 
-1.0 -1.0 0:-3.733228764485185 1:68.30910947894067 
-1.0 -1.0 0:-3.733228764485185 1:68.30910947894067 
-1.0 -1.0 0:-3.733228764485185 1:68.30910947894067 
-1.0 -1.0 0:-3.733228764485185 1:68.30910947894067 
-1.0 -1.0 0:-3.733228764485185 1:68.30910947894067 
-1.0 -1.0 0:-3.733228764485185 1:68.30910947894067 
-1.0 -1.0 0:-3.733228764485185 1:68.30910947894067 
-1.0 -1.0 0:-3.733228764485185 1:68.30910947894067 
-1.0 -1.0 0:-3.733228764485185 1:68.30910947894067 
-1.0 -1.0 0:-3.733228764485185 1:68.30910947894067 
-1.0 -1.0 0:-3.733228764485185 1:68.30910947894067 
-1.0 -1.0 0:-3.733228764485185 1:68.30910947894067 
-1.0 -1.0 0:-3.733228764485185 1:68.30910947894067 
-1.0 -1.0 0:-3.733228764485185 1:68.30910947894067 
-1.0 -1.0 0:-3.733228764485185 1:68.30910947894067 
-1.0 -1.0 0:-3.733228764485185 1:68.30910947894067 
-1.0 -1.0 0:-3.733228764485185 1:68.30910947894067 
-1.0 -1.0 0:-3.733228764485185 1:68.30910947894067 
-1.0 -1.0 0:-3.733228764485185 1:68.30910947894067 
-1.0 -1.0 0:-3.733228764485185 1:68.30910947894067 
-1.0 -1.0 0:-3.733228764485185 1:68.30910947894067 
-1.0 -1.0 0:-3.733228764485185 1:68.30910947894067 
-1.0 -1.0 0:-3.733228764485185 1:68.30910947894067 
-1.0 -1.0 0:-3.733228764485185 1:68.30910947894067 
-1.0 -1.0 0:-3.733228764485185 1:68.30910947894067 
-1.0 -1.0 0:-3.733228764485185 1:68.30910947894067 
-1.0 -1.0 0:-3.733228764485185 1:68.30910947894067 
-1.0 -1.0 0:-3.733228764485185 1:68.30910947894067 
-1.0 -1.0 0:-3.733228764485185 1:68.30910947894067 
-1.0 -1.0 0:-3.733228764485185 1:68.30910947894067 
-1.0 -1.0 0:-3.733228764485185 1:68.30910947894067 
-1.0 -1.0 0:-3.733228764485185 1:68.30910947894067 
-1.0 -1.0 0:-3.733228764485185 1:68.30910947894067 
-1.0 -1.0 0:-3.733228764485185 1:68.30910947894067 
-1.0 -1.0 0:-3.733228764485185 1:68.30910947894067 
-1.0 -1.0 0:-3.733228764485185 1:68.30910947894067 
-1.0 -1.0 0:-3.733228764485185 1:68.30910947894067 
-1.0 -1.0 0:-3.733228764485185 1:68.30910947894067 
-1.0 -1.0 0:-3.733228764485185 1:68.30910947894067 
-1.0 -1.0 0:-3.733228764485185 1:68.30910947894067 
-1.0 -1.0 0:-3.733228764485185 1:68.30910947894067 
-1.0 -1.0 0:-3.733228764485185 1:68.30910947894067 
-1.0 -1.0 0:-3.733228764485185 1:68.30910947894067 
-1.0 -1.0 0:-3.733228764485185 1:68.30910947894067 
-1.0 -1.0 0:-3.733228764485185 1:68.30910947894067 
-1.0 -1.0 0:-3.733228764485185 1:68.30910947894067 
-1.0 -1.0 0:-3.733228764485185 1:68.30910947894067 
-1.0 -1.0 0:-3.733228764485185 1:68.30910947894067 
-1.0 -1.0 0:-3.733228764485185 1:68.30910947894067 
-1.0 -1.0 0:-3.733228764485185 1:68.30910947894067 
-1.0 -1.0 0:-3.733228764485185 1:68.30910947894067 
-1.0 -1.0 0:-3.733228764485185 1:68.30910947894067 
-1.0 -1.0 0:-3.733228764485185 1:68.30910947894067 
-1.0 -1.0 0:-3.733228764485185 1:68.30910947894067 
-1.0 -1.0 0:-3.733228764485185 1:68.30910947894067 
-1.0 -1.0 0:-3.733228764485185 1:68.30910947894067 
-1.0 -1.0 0:-3.733228764485185 1:68.30910947894067 
-1.0 -1.0 0:-3.733228764485185 1:68.30910947894067 
-1.0 -1.0 0:-3.733228764485185 1:68.30910947894067 
-1.0 -1.0 0:-3.733228764485185 1:68.30910947894067 
-1.0 -1.0 0:-3.733228764485185 1:68.30910947894067 
-1.0 -1.0 0:-3.733228764485185 1:68.30910947894067 
-1.0 -0.0 0:91.80491656958363 1:-272.5693312430718 
-1.0 -1.0 0:-3.733228764485185 1:68.30910947894067 
-1.0 -1.0 0:-3.733228764485185 1:68.30910947894067 
-1.0 -1.0 0:-3.733228764485185 1:68.30910947894067 
-1.0 -1.0 0:-3.733228764485185 1:68.30910947894067 
-1.0 -1.0 0:-3.733228764485185 1:68.30910947894067 
-1.0 -1.0 0:-3.733228764485185 1:68.30910947894067 
-1.0 -1.0 0:-3.733228764485185 1:68.30910947894067 
-1.0 -1.0 0:-3.733228764485185 1:68.30910947894067 
-1.0 -1.0 0:-3.733228764485185 1:68.30910947894067 
-1.0 -1.0 0:-3.733228764485185 1:68.30910947894067 
-1.0 -1.0 0:-3.733228764485185 1:68.30910947894067 
-0.0 -1.0 0:23.597850012062462 1:-347.18064295681296 
-1.0 -1.0 0:-3.733228764485185 1:68.30910947894067 
-1.0 -1.0 0:-3.733228764485185 1:68.30910947894067 
-1.0 -1.0 0:-3.733228764485185 1:68.30910947894067 
-1.0 -1.0 0:-3.733228764485185 1:68.30910947894067 
-1.0 -1.0 0:-3.733228764485185 1:68.30910947894067 
-1.0 -1.0 0:-3.733228764485185 1:68.30910947894067 
-1.0 -1.0 0:-3.733228764485185 1:68.30910947894067 
-1.0 -1.0 0:-3.733228764485185 1:68.30910947894067 
-1.0 -1.0 0:-3.733228764485185 1:68.30910947894067 
-0.0 -1.0 0:-33.67859598385595 1:-430.83761151976165 
-0.1728149548292186 -0.0 0:71.23623479831586 1:-277.85654299038265 
-1.0 -1.0 0:-3.733228764485185 1:68.30910947894067 
-1.0 -1.0 0:-3.733228764485185 1:68.30910947894067 
-0.0 -1.0 0:-178.21249992898709 1:-592.9155055122826 
-1.0 -1.0 0:-3.733228764485185 1:68.30910947894067 
-1.0 -1.0 0:-3.733228764485185 1:68.30910947894067 
-1.0 -1.0 0:-3.733228764485185 1:68.30910947894067 
-0.0 -1.0 0:3.198510786963284 1:-372.6839387826598 
-1.0 -1.0 0:-3.733228764485185 1:68.30910947894067 
-1.0 -1.0 0:-3.733228764485185 1:68.30910947894067 
-1.0 -1.0 0:-3.733228764485185 1:68.30910947894067 
-1.0 -1.0 0:-3.733228764485185 1:68.30910947894067 
-1.0 -1.0 0:-3.733228764485185 1:68.30910947894067 
-1.0 -1.0 0:-3.733228764485185 1:68.30910947894067 
-1.0 -1.0 0:-3.733228764485185 1:68.30910947894067 
-1.0 -1.0 0:-3.733228764485185 1:68.30910947894067 
-1.0 -1.0 0:-3.733228764485185 1:68.30910947894067 
-1.0 -1.0 0:-3.733228764485185 1:68.30910947894067 
-1.0 -1.0 0:-3.733228764485185 1:68.30910947894067 
-1.0 -1.0 0:-3.733228764485185 1:68.30910947894067 
-1.0 -1.0 0:-3.733228764485185 1:68.30910947894067 
-1.0 -1.0 0:-3.733228764485185 1:68.30910947894067 
-1.0 -1.0 0:-3.733228764485185 1:68.30910947894067 
-1.0 -1.0 0:-3.733228764485185 1:68.30910947894067 
-1.0 -1.0 0:-3.733228764485185 1:68.30910947894067 
-1.0 -1.0 0:-3.733228764485185 1:68.30910947894067 
-1.0 -1.0 0:-3.733228764485185 1:68.30910947894067 
-1.0 -1.0 0:-3.733228764485185 1:68.30910947894067 
-1.0 -1.0 0:-3.733228764485185 1:68.30910947894067 
-1.0 -1.0 0:-3.733228764485185 1:68.30910947894067 
-1.0 -1.0 0:-3.733228764485185 1:68.30910947894067 
-1.0 -1.0 0:-3.733228764485185 1:68.30910947894067 
-1.0 -1.0 0:-3.733228764485185 1:68.30910947894067 
-1.0 -1.0 0:-3.733228764485185 1:68.30910947894067 
-1.0 -1.0 0:-3.733228764485185 1:68.30910947894067 
-0.0 -0.4558913982666581 0:35.698426105185746 1:-352.5777715770831 
-1.0 -1.0 0:-3.733228764485185 1:68.30910947894067 
-1.0 -1.0 0:-3.733228764485185 1:68.30910947894067 
-1.0 -1.0 0:-3.733228764485185 1:68.30910947894067 
-1.0 -1.0 0:-3.733228764485185 1:68.30910947894067 
-1.0 -1.0 0:-3.733228764485185 1:68.30910947894067 
-1.0 -1.0 0:-3.733228764485185 1:68.30910947894067 
-1.0 -1.0 0:-3.733228764485185 1:68.30910947894067 
-1.0 -1.0 0:-3.733228764485185 1:68.30910947894067 
-1.0 -1.0 0:-3.733228764485185 1:68.30910947894067 
-1.0 -1.0 0:-3.733228764485185 1:68.30910947894067 
-1.0 -1.0 0:-3.733228764485185 1:68.30910947894067 
-1.0 -1.0 0:-3.733228764485185 1:68.30910947894067 
-1.0 -1.0 0:-3.733228764485185 1:68.30910947894067 
-1.0 -1.0 0:-3.733228764485185 1:68.30910947894067 
-1.0 -1.0 0:-3.733228764485185 1:68.30910947894067 
-1.0 -1.0 0:-3.733228764485185 1:68.30910947894067 
-1.0 -1.0 0:-3.733228764485185 1:68.30910947894067 
-1.0 -1.0 0:-3.733228764485185 1:68.30910947894067 
-1.0 -1.0 0:-3.733228764485185 1:68.30910947894067 
-1.0 -1.0 0:-3.733228764485185 1:68.30910947894067 
-1.0 -1.0 0:-3.733228764485185 1:68.30910947894067 
-1.0 -1.0 0:-3.733228764485185 1:68.30910947894067 
-1.0 -1.0 0:-3.733228764485185 1:68.30910947894067 
-1.0 -1.0 0:-3.733228764485185 1:68.30910947894067 
-1.0 -1.0 0:-3.733228764485185 1:68.30910947894067 
-1.0 -1.0 0:-3.733228764485185 1:68.30910947894067 
-1.0 -1.0 0:-3.733228764485185 1:68.30910947894067 
-1.0 -1.0 0:-3.733228764485185 1:68.30910947894067 
-1.0 -1.0 0:-3.733228764485185 1:68.30910947894067 
-1.0 -1.0 0:-3.733228764485185 1:68.30910947894067 
-1.0 -1.0 0:-3.733228764485185 1:68.30910947894067 
-1.0 -1.0 0:-3.733228764485185 1:68.30910947894067 
-1.0 -1.0 0:-3.733228764485185 1:68.30910947894067 
-1.0 -1.0 0:-3.733228764485185 1:68.30910947894067 
-0.0 -0.44311148256184363 0:-82.88851214153546 1:-515.6890256520438 
-1.0 -1.0 0:-3.733228764485185 1:68.30910947894067 
-1.0 -1.0 0:-3.733228764485185 1:68.30910947894067 
-1.0 -1.0 0:-3.733228764485185 1:68.30910947894067 
-1.0 -1.0 0:-3.733228764485185 1:68.30910947894067 
-1.0 -1.0 0:-3.733228764485185 1:68.30910947894067 
-0.0 -1.0 0:-29.974379324876825 1:-399.189260424467 
-1.0 -1.0 0:-3.733228764485185 1:68.30910947894067 
-1.0 -1.0 0:-3.733228764485185 1:68.30910947894067 
-1.0 -1.0 0:-3.733228764485185 1:68.30910947894067 
-1.0 -1.0 0:-3.733228764485185 1:68.30910947894067 
-1.0 -1.0 0:-3.733228764485185 1:68.30910947894067 
-1.0 -1.0 0:-3.733228764485185 1:68.30910947894067 
-1.0 -1.0 0:-3.733228764485185 1:68.30910947894067 
-1.0 -1.0 0:-3.733228764485185 1:68.30910947894067 
-1.0 -1.0 0:-3.733228764485185 1:68.30910947894067 
-1.0 -1.0 0:-3.733228764485185 1:68.30910947894067 
-1.0 -1.0 0:-3.733228764485185 1:68.30910947894067 
-1.0 -1.0 0:-3.733228764485185 1:68.30910947894067 
-1.0 -1.0 0:-3.733228764485185 1:68.30910947894067 
-1.0 -1.0 0:-3.733228764485185 1:68.30910947894067 
-1.0 -1.0 0:-3.733228764485185 1:68.30910947894067 
-1.0 -1.0 0:-3.733228764485185 1:68.30910947894067 
-1.0 -1.0 0:-3.733228764485185 1:68.30910947894067 
-1.0 -1.0 0:-3.733228764485185 1:68.30910947894067 
-1.0 -1.0 0:-3.733228764485185 1:68.30910947894067 
-1.0 -1.0 0:-3.733228764485185 1:68.30910947894067 
-1.0 -1.0 0:-3.733228764485185 1:68.30910947894067 
-1.0 -1.0 0:-3.733228764485185 1:68.30910947894067 
-1.0 -1.0 0:-3.733228764485185 1:68.30910947894067 
-1.0 -1.0 0:-3.733228764485185 1:68.30910947894067 
-1.0 -1.0 0:-3.733228764485185 1:68.30910947894067 
-1.0 -1.0 0:-3.733228764485185 1:68.30910947894067 
-1.0 -1.0 0:-3.733228764485185 1:68.30910947894067 
-1.0 -1.0 0:-3.733228764485185 1:68.30910947894067 
-1.0 -1.0 0:-3.733228764485185 1:68.30910947894067 
-1.0 -1.0 0:-3.733228764485185 1:68.30910947894067 
-1.0 -1.0 0:-3.733228764485185 1:68.30910947894067 
-1.0 -1.0 0:-3.733228764485185 1:68.30910947894067 
-1.0 -1.0 0:-3.733228764485185 1:68.30910947894067 
-1.0 -1.0 0:-3.733228764485185 1:68.30910947894067 
-1.0 -1.0 0:-3.733228764485185 1:68.30910947894067 
-0.0 -1.0 0:-17.624811198848388 1:-414.8647995648616 
-1.0 -1.0 0:-3.733228764485185 1:68.30910947894067 
-1.0 -1.0 0:-3.733228764485185 1:68.30910947894067 
-1.0 -1.0 0:-3.733228764485185 1:68.30910947894067 
-1.0 -1.0 0:-3.733228764485185 1:68.30910947894067 
-1.0 -1.0 0:-3.733228764485185 1:68.30910947894067 
-1.0 -1.0 0:-3.733228764485185 1:68.30910947894067 
-1.0 -1.0 0:-3.733228764485185 1:68.30910947894067 
-1.0 -1.0 0:-3.733228764485185 1:68.30910947894067 
-1.0 -1.0 0:-3.733228764485185 1:68.30910947894067 
-1.0 -1.0 0:-3.733228764485185 1:68.30910947894067 
-1.0 -1.0 0:-3.733228764485185 1:68.30910947894067 
-1.0 -1.0 0:-3.733228764485185 1:68.30910947894067 
-1.0 -1.0 0:-3.733228764485185 1:68.30910947894067 
-1.0 -1.0 0:-3.733228764485185 1:68.30910947894067 
-1.0 -1.0 0:-3.733228764485185 1:68.30910947894067 
-1.0 -1.0 0:-3.733228764485185 1:68.30910947894067 
-1.0 -1.0 0:-3.733228764485185 1:68.30910947894067 
-1.0 -1.0 0:-3.733228764485185 1:68.30910947894067 
-1.0 -1.0 0:-3.733228764485185 1:68.30910947894067 
-1.0 -1.0 0:-3.733228764485185 1:68.30910947894067 
-1.0 -1.0 0:-3.733228764485185 1:68.30910947894067 
-1.0 -1.0 0:-3.733228764485185 1:68.30910947894067 
-1.0 -0.0 0:109.47267122686056 1:-264.47283132595953 
-1.0 -1.0 0:-3.733228764485185 1:68.30910947894067 
-1.0 -1.0 0:-3.733228764485185 1:68.30910947894067 
-1.0 -1.0 0:-3.733228764485185 1:68.30910947894067 
-1.0 -1.0 0:-3.733228764485185 1:68.30910947894067 
-1.0 -1.0 0:-3.733228764485185 1:68.30910947894067 
-1.0 -1.0 0:-3.733228764485185 1:68.30910947894067 
-1.0 -1.0 0:-3.733228764485185 1:68.30910947894067 
-1.0 -1.0 0:-3.733228764485185 1:68.30910947894067 
-1.0 -1.0 0:-3.733228764485185 1:68.30910947894067 
-1.0 -1.0 0:-3.733228764485185 1:68.30910947894067 
-1.0 -1.0 0:-3.733228764485185 1:68.30910947894067 
-1.0 -1.0 0:-3.733228764485185 1:68.30910947894067 
-1.0 -1.0 0:-3.733228764485185 1:68.30910947894067 
-1.0 -1.0 0:-3.733228764485185 1:68.30910947894067 
-1.0 -1.0 0:-3.733228764485185 1:68.30910947894067 
-1.0 -1.0 0:-3.733228764485185 1:68.30910947894067 
-1.0 -1.0 0:-3.733228764485185 1:68.30910947894067 
-1.0 -1.0 0:-3.733228764485185 1:68.30910947894067 
-1.0 -1.0 0:-3.733228764485185 1:68.30910947894067 
-1.0 -1.0 0:-3.733228764485185 1:68.30910947894067 
-1.0 -1.0 0:-3.733228764485185 1:68.30910947894067 
-1.0 -1.0 0:-3.733228764485185 1:68.30910947894067 
-1.0 -1.0 0:-3.733228764485185 1:68.30910947894067 
-1.0 -1.0 0:-3.733228764485185 1:68.30910947894067 
-1.0 -1.0 0:-3.733228764485185 1:68.30910947894067 
-1.0 -1.0 0:-3.733228764485185 1:68.30910947894067 
-1.0 -1.0 0:-3.733228764485185 1:68.30910947894067 
-1.0 -1.0 0:-3.733228764485185 1:68.30910947894067 
-1.0 -1.0 0:-3.733228764485185 1:68.30910947894067 
-1.0 -1.0 0:-3.733228764485185 1:68.30910947894067 
-1.0 -1.0 0:-3.733228764485185 1:68.30910947894067 
-1.0 -1.0 0:-3.733228764485185 1:68.30910947894067 
-1.0 -1.0 0:-3.733228764485185 1:68.30910947894067 
-1.0 -1.0 0:-3.733228764485185 1:68.30910947894067 
-1.0 -1.0 0:-3.733228764485185 1:68.30910947894067 
-1.0 -1.0 0:-3.733228764485185 1:68.30910947894067 
-1.0 -1.0 0:-3.733228764485185 1:68.30910947894067 
-1.0 -1.0 0:-3.733228764485185 1:68.30910947894067 
-1.0 -1.0 0:-3.733228764485185 1:68.30910947894067 
-1.0 -1.0 0:-3.733228764485185 1:68.30910947894067 
-1.0 -1.0 0:-3.733228764485185 1:68.30910947894067 
-1.0 -1.0 0:-3.733228764485185 1:68.30910947894067 
-1.0 -1.0 0:-3.733228764485185 1:68.30910947894067 
-1.0 -1.0 0:-3.733228764485185 1:68.30910947894067 
-1.0 -1.0 0:-3.733228764485185 1:68.30910947894067 
-1.0 -1.0 0:-3.733228764485185 1:68.30910947894067 
-1.0 -1.0 0:-3.733228764485185 1:68.30910947894067 
-1.0 -1.0 0:-3.733228764485185 1:68.30910947894067 
-1.0 -1.0 0:-3.733228764485185 1:68.30910947894067 
-1.0 -1.0 0:-3.733228764485185 1:68.30910947894067 
-1.0 -1.0 0:-3.733228764485185 1:68.30910947894067 
-1.0 -1.0 0:-3.733228764485185 1:68.30910947894067 
-1.0 -1.0 0:-3.733228764485185 1:68.30910947894067 
-1.0 -1.0 0:-3.733228764485185 1:68.30910947894067 
-1.0 -1.0 0:-3.733228764485185 1:68.30910947894067 
-1.0 -1.0 0:-3.733228764485185 1:68.30910947894067 
-1.0 -1.0 0:-3.733228764485185 1:68.30910947894067 
-1.0 -1.0 0:-3.733228764485185 1:68.30910947894067 
-1.0 -1.0 0:-3.733228764485185 1:68.30910947894067 
-1.0 -1.0 0:-3.733228764485185 1:68.30910947894067 
-1.0 -1.0 0:-3.733228764485185 1:68.30910947894067 
-1.0 -1.0 0:-3.733228764485185 1:68.30910947894067 
-1.0 -1.0 0:-3.733228764485185 1:68.30910947894067 
-0.0 -1.0 0:-24.98884622682495 1:-419.00969390515303 
-1.0 -0.0 0:99.93163301361588 1:-282.61716962708766 
-1.0 -1.0 0:-3.733228764485185 1:68.30910947894067 
-1.0 -1.0 0:-3.733228764485185 1:68.30910947894067 
-1.0 -1.0 0:-3.733228764485185 1:68.30910947894067 
-1.0 -1.0 0:-3.733228764485185 1:68.30910947894067 
-1.0 -1.0 0:-3.733228764485185 1:68.30910947894067 
-1.0 -1.0 0:-3.733228764485185 1:68.30910947894067 
-1.0 -1.0 0:-3.733228764485185 1:68.30910947894067 
-1.0 -1.0 0:-3.733228764485185 1:68.30910947894067 
-1.0 -1.0 0:-3.733228764485185 1:68.30910947894067 
