svm_type c_svc
kernel_type linear
nr_class 3
total_sv 1339
rho 1.7056878041726053 -0.5424606406440063 -0.666061241471515
label 0 1 2
nr_sv 459 517 363
SV
1.0 0.0 0:-32.06286740426736 1:189.891145390592 
1.0 0.0 0:-3.7331661764084108 1:68.31096046077755 
1.0 0.0 0:-3.7331661764084108 1:68.31096046077755 
1.0 0.0 0:-3.7331661764084108 1:68.31096046077755 
1.0 0.0 0:-3.7331661764084108 1:68.31096046077755 
1.0 0.0 0:-3.7331661764084108 1:68.31096046077755 
1.0 0.0 0:-3.7331661764084108 1:68.31096046077755 
1.0 0.0 0:-3.7331661764084108 1:68.31096046077755 
1.0 0.0 0:-3.7331661764084108 1:68.31096046077755 
1.0 0.0 0:-30.304701063266876 1:215.14064251964155 
1.0 0.0 0:-3.7331661764084108 1:68.31096046077755 
1.0 0.0 0:-34.290032603372936 1:158.73072975613672 
1.0 0.0 0:-3.7331661764084108 1:68.31096046077755 
1.0 1.0 0:-13.89398428234337 1:70.5532040035336 
1.0 0.0 0:-3.7331661764084108 1:68.31096046077755 
1.0 0.0 0:-3.7331661764084108 1:68.31096046077755 
1.0 0.0 0:-3.7331661764084108 1:68.31096046077755 
1.0 0.0 0:-3.7331661764084108 1:68.31096046077755 
1.0 0.0 0:-3.7331661764084108 1:68.31096046077755 
1.0 0.0 0:-3.7331661764084108 1:68.31096046077755 
1.0 0.0 0:-3.7331661764084108 1:68.31096046077755 
1.0 0.0 0:-3.7331661764084108 1:68.31096046077755 
1.0 0.0 0:-3.7331661764084108 1:68.31096046077755 
1.0 0.0 0:-3.7331661764084108 1:68.31096046077755 
1.0 0.0 0:-3.7331661764084108 1:68.31096046077755 
1.0 0.0 0:-3.7331661764084108 1:68.31096046077755 
1.0 0.0 0:-3.7331661764084108 1:68.31096046077755 
1.0 0.0 0:-3.7331661764084108 1:68.31096046077755 
1.0 0.0 0:-3.7331661764084108 1:68.31096046077755 
1.0 0.0 0:-3.7331661764084108 1:68.31096046077755 
1.0 0.0 0:-3.7331661764084108 1:68.31096046077755 
1.0 1.0 0:-35.09924988545113 1:84.91086276808097 
1.0 0.0 0:-3.7331661764084108 1:68.31096046077755 
1.0 0.9269592917887118 0:-3.7331661764084108 1:68.31096046077755 
1.0 1.0 0:-3.7331661764084108 1:68.31096046077755 
1.0 1.0 0:25.957155691682384 1:30.57364064186982 
1.0 1.0 0:-3.7331661764084108 1:68.31096046077755 
1.0 1.0 0:-30.11359601219894 1:67.87314960659751 
1.0 1.0 0:-3.7331661764084108 1:68.31096046077755 
1.0 1.0 0:-3.7331661764084108 1:68.31096046077755 
1.0 1.0 0:-3.7331661764084108 1:68.31096046077755 
1.0 0.0 0:32.355795525928116 1:59.04156981648806 
1.0 1.0 0:-3.7331661764084108 1:68.31096046077755 
1.0 1.0 0:-3.7331661764084108 1:68.31096046077755 
1.0 1.0 0:-3.7331661764084108 1:68.31096046077755 
1.0 0.0 0:8.9267009126352 1:139.51381518310126 
1.0 1.0 0:-3.7331661764084108 1:68.31096046077755 
1.0 0.0 0:-22.55052537616565 1:89.79742981421192 
1.0 0.0 0:-20.681645015297793 1:233.74735968658993 
1.0 1.0 0:-3.7331661764084108 1:68.31096046077755 
1.0 0.0 0:6.495537623129509 1:94.93113330648994 
1.0 0.0 0:-15.660159014516205 1:121.13509388602704 
1.0 1.0 0:-3.7331661764084108 1:68.31096046077755 
1.0 1.0 0:-3.7331661764084108 1:68.31096046077755 
1.0 0.0 0:-29.522106106438606 1:89.40865221314597 
1.0 1.0 0:-3.7331661764084108 1:68.31096046077755 
1.0 0.0 0:-4.586278569715346 1:187.39340957437665 
1.0 1.0 0:-3.7331661764084108 1:68.31096046077755 
1.0 1.0 0:-3.7331661764084108 1:68.31096046077755 
1.0 1.0 0:-14.518652687230777 1:-2.368819690124154 
1.0 1.0 0:-3.7331661764084108 1:68.31096046077755 
1.0 1.0 0:-3.7331661764084108 1:68.31096046077755 
1.0 1.0 0:-3.7331661764084108 1:68.31096046077755 
1.0 1.0 0:-3.7331661764084108 1:68.31096046077755 
1.0 1.0 0:-3.7331661764084108 1:68.31096046077755 
1.0 1.0 0:-3.7331661764084108 1:68.31096046077755 
1.0 1.0 0:-3.7331661764084108 1:68.31096046077755 
1.0 1.0 0:-3.7331661764084108 1:68.31096046077755 
1.0 1.0 0:-3.7331661764084108 1:68.31096046077755 
1.0 0.0 0:-19.638049718375374 1:151.97437994313805 
1.0 1.0 0:-3.7331661764084108 1:68.31096046077755 
1.0 1.0 0:-3.7331661764084108 1:68.31096046077755 
1.0 1.0 0:-3.7331661764084108 1:68.31096046077755 
1.0 1.0 0:-3.7331661764084108 1:68.31096046077755 
1.0 1.0 0:-3.7331661764084108 1:68.31096046077755 
1.0 1.0 0:-3.7331661764084108 1:68.31096046077755 
0.0 1.0 0:106.67174657168891 1:-58.852313509949894 
1.0 0.0 0:-7.652419533001784 1:155.32133658371816 
1.0 1.0 0:-3.7331661764084108 1:68.31096046077755 
1.0 0.0 0:12.788591380601225 1:76.87830502673098 
1.0 1.0 0:-3.7331661764084108 1:68.31096046077755 
1.0 1.0 0:-11.452101091214562 1:73.42436355070608 
1.0 0.0 0:43.643729636171955 1:40.455579939002256 
1.0 1.0 0:-3.7331661764084108 1:68.31096046077755 
1.0 0.0 0:-20.427953622677204 1:158.44643547973476 
1.0 1.0 0:56.36106032049218 1:8.13506329353967 
1.0 1.0 0:-3.7331661764084108 1:68.31096046077755 
1.0 1.0 0:-3.7331661764084108 1:68.31096046077755 
1.0 1.0 0:-3.7331661764084108 1:68.31096046077755 
1.0 1.0 0:-3.7331661764084108 1:68.31096046077755 
1.0 1.0 0:-3.7331661764084108 1:68.31096046077755 
1.0 0.0 0:-61.95148310417781 1:142.47713992298847 
1.0 1.0 0:-3.7331661764084108 1:68.31096046077755 
1.0 0.0 0:20.77181595355646 1:113.58705960394751 
1.0 1.0 0:-3.7331661764084108 1:68.31096046077755 
1.0 1.0 0:-3.7331661764084108 1:68.31096046077755 
1.0 1.0 0:7.888455318738246 1:10.569364659278643 
1.0 1.0 0:-3.7331661764084108 1:68.31096046077755 
1.0 1.0 0:-3.7331661764084108 1:68.31096046077755 
1.0 1.0 0:-3.7331661764084108 1:68.31096046077755 
1.0 1.0 0:-3.7331661764084108 1:68.31096046077755 
1.0 1.0 0:-3.7331661764084108 1:68.31096046077755 
1.0 1.0 0:-3.7331661764084108 1:68.31096046077755 
1.0 0.0 0:-17.335700915692406 1:136.02944108127255 
1.0 1.0 0:-3.7331661764084108 1:68.31096046077755 
1.0 1.0 0:-3.7331661764084108 1:68.31096046077755 
1.0 1.0 0:-3.7331661764084108 1:68.31096046077755 
1.0 0.0 0:20.64492540139833 1:84.49450620897538 
1.0 0.0 0:27.34065684863986 1:86.15336242643953 
1.0 1.0 0:-3.7331661764084108 1:68.31096046077755 
1.0 1.0 0:-3.7331661764084108 1:68.31096046077755 
1.0 0.0 0:4.772259893867162 1:155.63906721375764 
1.0 1.0 0:-3.7331661764084108 1:68.31096046077755 
1.0 1.0 0:-3.7331661764084108 1:68.31096046077755 
1.0 1.0 0:-3.7331661764084108 1:68.31096046077755 
1.0 1.0 0:-3.7331661764084108 1:68.31096046077755 
1.0 1.0 0:-3.7331661764084108 1:68.31096046077755 
1.0 1.0 0:-17.876995008307368 1:-329.8233618406777 
1.0 1.0 0:-3.7331661764084108 1:68.31096046077755 
1.0 1.0 0:-3.7331661764084108 1:68.31096046077755 
1.0 1.0 0:-3.7331661764084108 1:68.31096046077755 
1.0 1.0 0:-3.7331661764084108 1:68.31096046077755 
1.0 1.0 0:-3.7331661764084108 1:68.31096046077755 
1.0 1.0 0:-3.7331661764084108 1:68.31096046077755 
1.0 1.0 0:-3.7331661764084108 1:68.31096046077755 
1.0 1.0 0:-3.7331661764084108 1:68.31096046077755 
1.0 1.0 0:-3.7331661764084108 1:68.31096046077755 
1.0 0.0 0:17.21632033988834 1:99.66237784437064 
1.0 1.0 0:-3.7331661764084108 1:68.31096046077755 
1.0 0.0 0:7.200898853137119 1:154.46220784925774 
1.0 1.0 0:-3.7331661764084108 1:68.31096046077755 
1.0 1.0 0:-3.7331661764084108 1:68.31096046077755 
1.0 0.0 0:-16.04934711630161 1:224.7586182501103 
1.0 1.0 0:-3.7331661764084108 1:68.31096046077755 
1.0 1.0 0:-3.7331661764084108 1:68.31096046077755 
1.0 1.0 0:-3.7331661764084108 1:68.31096046077755 
1.0 1.0 0:-3.7331661764084108 1:68.31096046077755 
1.0 0.0 0:17.232313745740928 1:124.31079344052249 
1.0 1.0 0:28.305172792648804 1:-5.574079091858084 
1.0 1.0 0:-3.7331661764084108 1:68.31096046077755 
1.0 1.0 0:-3.7331661764084108 1:68.31096046077755 
1.0 1.0 0:-3.7331661764084108 1:68.31096046077755 
1.0 1.0 0:-3.7331661764084108 1:68.31096046077755 
1.0 1.0 0:-3.7331661764084108 1:68.31096046077755 
1.0 1.0 0:-3.7331661764084108 1:68.31096046077755 
1.0 1.0 0:-3.7331661764084108 1:68.31096046077755 
1.0 1.0 0:-3.7331661764084108 1:68.31096046077755 
1.0 0.0 0:-9.634370253325992 1:170.55691498841844 
1.0 1.0 0:-3.7331661764084108 1:68.31096046077755 
1.0 1.0 0:-3.7331661764084108 1:68.31096046077755 
1.0 1.0 0:-3.7331661764084108 1:68.31096046077755 
1.0 1.0 0:-3.7331661764084108 1:68.31096046077755 
1.0 1.0 0:-3.7331661764084108 1:68.31096046077755 
1.0 1.0 0:-3.7331661764084108 1:68.31096046077755 
1.0 1.0 0:-3.7331661764084108 1:68.31096046077755 
1.0 1.0 0:-3.7331661764084108 1:68.31096046077755 
1.0 1.0 0:-3.7331661764084108 1:68.31096046077755 
1.0 1.0 0:-3.7331661764084108 1:68.31096046077755 
1.0 1.0 0:-3.7331661764084108 1:68.31096046077755 
1.0 1.0 0:-3.7331661764084108 1:68.31096046077755 
1.0 1.0 0:-3.7331661764084108 1:68.31096046077755 
1.0 1.0 0:-3.7331661764084108 1:68.31096046077755 
1.0 1.0 0:-3.7331661764084108 1:68.31096046077755 
1.0 1.0 0:-3.7331661764084108 1:68.31096046077755 
1.0 1.0 0:-3.7331661764084108 1:68.31096046077755 
1.0 0.0 0:-30.821568978770703 1:258.6374233907958 
1.0 1.0 0:-3.7331661764084108 1:68.31096046077755 
1.0 1.0 0:-3.7331661764084108 1:68.31096046077755 
1.0 1.0 0:-3.7331661764084108 1:68.31096046077755 
1.0 1.0 0:-3.7331661764084108 1:68.31096046077755 
1.0 1.0 0:-3.7331661764084108 1:68.31096046077755 
1.0 1.0 0:-3.7331661764084108 1:68.31096046077755 
1.0 1.0 0:-3.7331661764084108 1:68.31096046077755 
1.0 1.0 0:-3.7331661764084108 1:68.31096046077755 
1.0 1.0 0:-3.7331661764084108 1:68.31096046077755 
1.0 1.0 0:-3.7331661764084108 1:68.31096046077755 
1.0 0.0 0:-19.89671544618859 1:137.899647549056 
1.0 1.0 0:-3.7331661764084108 1:68.31096046077755 
1.0 1.0 0:-3.7331661764084108 1:68.31096046077755 
1.0 1.0 0:-3.7331661764084108 1:68.31096046077755 
1.0 1.0 0:-3.7331661764084108 1:68.31096046077755 
1.0 1.0 0:-3.7331661764084108 1:68.31096046077755 
1.0 1.0 0:-3.7331661764084108 1:68.31096046077755 
1.0 1.0 0:-3.7331661764084108 1:68.31096046077755 
1.0 0.0 0:-52.25957742023556 1:255.13463891765045 
1.0 0.0 0:-23.86955703123232 1:101.03866520306215 
1.0 1.0 0:-3.7331661764084108 1:68.31096046077755 
1.0 1.0 0:-3.7331661764084108 1:68.31096046077755 
1.0 1.0 0:-3.7331661764084108 1:68.31096046077755 
1.0 1.0 0:2.659517892167679 1:44.510539955787486 
1.0 1.0 0:-3.7331661764084108 1:68.31096046077755 
1.0 1.0 0:-3.7331661764084108 1:68.31096046077755 
1.0 1.0 0:-3.7331661764084108 1:68.31096046077755 
1.0 1.0 0:-3.7331661764084108 1:68.31096046077755 
1.0 1.0 0:-3.7331661764084108 1:68.31096046077755 
1.0 1.0 0:-3.7331661764084108 1:68.31096046077755 
1.0 1.0 0:-3.7331661764084108 1:68.31096046077755 
1.0 1.0 0:-3.7331661764084108 1:68.31096046077755 
1.0 1.0 0:-3.7331661764084108 1:68.31096046077755 
1.0 1.0 0:-3.7331661764084108 1:68.31096046077755 
1.0 1.0 0:-3.7331661764084108 1:68.31096046077755 
1.0 1.0 0:-3.7331661764084108 1:68.31096046077755 
1.0 1.0 0:-3.7331661764084108 1:68.31096046077755 
1.0 1.0 0:-3.7331661764084108 1:68.31096046077755 
1.0 0.0 0:7.331363861118025 1:92.24378064033884 
1.0 1.0 0:-3.7331661764084108 1:68.31096046077755 
1.0 1.0 0:-3.7331661764084108 1:68.31096046077755 
1.0 1.0 0:-3.7331661764084108 1:68.31096046077755 
1.0 1.0 0:-3.7331661764084108 1:68.31096046077755 
1.0 1.0 0:-17.259971629565605 1:46.00624694318838 
1.0 1.0 0:-3.7331661764084108 1:68.31096046077755 
1.0 1.0 0:-3.7331661764084108 1:68.31096046077755 
1.0 1.0 0:-3.7331661764084108 1:68.31096046077755 
1.0 0.0 0:-2.5190904618027923 1:147.20483326041054 
1.0 1.0 0:-3.7331661764084108 1:68.31096046077755 
1.0 1.0 0:-3.7331661764084108 1:68.31096046077755 
1.0 1.0 0:-3.7331661764084108 1:68.31096046077755 
1.0 1.0 0:-3.7331661764084108 1:68.31096046077755 
1.0 1.0 0:-3.7331661764084108 1:68.31096046077755 
1.0 0.0 0:-51.71103890295778 1:153.23274028871805 
1.0 1.0 0:-3.7331661764084108 1:68.31096046077755 
1.0 0.0 0:39.118439814511945 1:48.823581326030244 
1.0 1.0 0:-3.7331661764084108 1:68.31096046077755 
1.0 1.0 0:-3.7331661764084108 1:68.31096046077755 
1.0 0.0 0:-11.139899364506311 1:205.21768780366187 
1.0 1.0 0:-6.299488809823201 1:25.819694765221264 
1.0 1.0 0:-3.7331661764084108 1:68.31096046077755 
1.0 1.0 0:-3.7331661764084108 1:68.31096046077755 
1.0 1.0 0:-3.7331661764084108 1:68.31096046077755 
1.0 1.0 0:11.22070049965078 1:-42.62602247542082 
1.0 1.0 0:-3.7331661764084108 1:68.31096046077755 
1.0 1.0 0:-3.7331661764084108 1:68.31096046077755 
1.0 1.0 0:-3.7331661764084108 1:68.31096046077755 
1.0 1.0 0:-3.7331661764084108 1:68.31096046077755 
1.0 0.0 0:-10.039132327376382 1:87.61484493923525 
1.0 1.0 0:-3.7331661764084108 1:68.31096046077755 
1.0 1.0 0:-3.7331661764084108 1:68.31096046077755 
1.0 1.0 0:-46.02039739587825 1:93.6072292162514 
1.0 1.0 0:25.527223190161305 1:31.640591809596923 
1.0 1.0 0:-3.7331661764084108 1:68.31096046077755 
1.0 1.0 0:33.864446643971576 1:7.688046861639864 
1.0 1.0 0:30.6194982194235 1:38.516185973013684 
1.0 0.0 0:1.2387928432735165 1:75.85319217752927 
1.0 1.0 0:-3.7331661764084108 1:68.31096046077755 
1.0 0.0 0:-31.76009833024385 1:142.82372633317544 
1.0 1.0 0:-3.7331661764084108 1:68.31096046077755 
1.0 0.0 0:4.950071185984991 1:132.84542873193405 
1.0 1.0 0:-3.7331661764084108 1:68.31096046077755 
1.0 1.0 0:-3.7331661764084108 1:68.31096046077755 
1.0 1.0 0:-3.7331661764084108 1:68.31096046077755 
1.0 1.0 0:-3.7331661764084108 1:68.31096046077755 
1.0 1.0 0:-3.7331661764084108 1:68.31096046077755 
1.0 0.0 0:-9.62889433718227 1:158.73346479591885 
1.0 1.0 0:-3.7331661764084108 1:68.31096046077755 
1.0 1.0 0:-3.7331661764084108 1:68.31096046077755 
1.0 1.0 0:-3.7331661764084108 1:68.31096046077755 
1.0 1.0 0:-3.7331661764084108 1:68.31096046077755 
1.0 1.0 0:-3.7331661764084108 1:68.31096046077755 
1.0 1.0 0:-3.7331661764084108 1:68.31096046077755 
1.0 0.0 0:-15.1187306404247 1:142.9626916244395 
1.0 1.0 0:-3.7331661764084108 1:68.31096046077755 
1.0 1.0 0:-3.7331661764084108 1:68.31096046077755 
0.4392994612092019 0.0 0:-43.077229432821234 1:308.21191344022924 
1.0 1.0 0:-3.7331661764084108 1:68.31096046077755 
1.0 0.0 0:-61.0143396351625 1:170.10262169875162 
1.0 1.0 0:-3.7331661764084108 1:68.31096046077755 
1.0 1.0 0:-3.7331661764084108 1:68.31096046077755 
1.0 1.0 0:-3.7331661764084108 1:68.31096046077755 
1.0 1.0 0:-3.7331661764084108 1:68.31096046077755 
1.0 1.0 0:-3.7331661764084108 1:68.31096046077755 
1.0 0.0 0:-4.475600009883382 1:107.03539913325021 
1.0 1.0 0:-3.7331661764084108 1:68.31096046077755 
1.0 1.0 0:-3.7331661764084108 1:68.31096046077755 
1.0 1.0 0:-3.7331661764084108 1:68.31096046077755 
1.0 1.0 0:-3.7331661764084108 1:68.31096046077755 
1.0 1.0 0:-3.7331661764084108 1:68.31096046077755 
1.0 1.0 0:-3.7331661764084108 1:68.31096046077755 
1.0 1.0 0:-3.7331661764084108 1:68.31096046077755 
1.0 1.0 0:-3.7331661764084108 1:68.31096046077755 
1.0 0.0 0:5.102834430820128 1:158.51485468070908 
1.0 0.0 0:8.514170619533672 1:63.55947235094152 
1.0 1.0 0:-3.7331661764084108 1:68.31096046077755 
1.0 1.0 0:-3.7331661764084108 1:68.31096046077755 
1.0 0.0 0:2.5725724159500687 1:105.14204231755659 
1.0 1.0 0:-3.7331661764084108 1:68.31096046077755 
1.0 1.0 0:-3.7331661764084108 1:68.31096046077755 
1.0 1.0 0:-3.7331661764084108 1:68.31096046077755 
1.0 1.0 0:-3.7331661764084108 1:68.31096046077755 
1.0 1.0 0:-3.7331661764084108 1:68.31096046077755 
1.0 1.0 0:49.12709467448481 1:-10.076053719831528 
1.0 1.0 0:-3.7331661764084108 1:68.31096046077755 
1.0 0.0 0:0.23068899078139785 1:152.93997551940757 
1.0 1.0 0:24.31581861621547 1:43.31122880289105 
1.0 1.0 0:-3.7331661764084108 1:68.31096046077755 
1.0 1.0 0:-3.7331661764084108 1:68.31096046077755 
1.0 1.0 0:-3.7331661764084108 1:68.31096046077755 
1.0 1.0 0:-3.7331661764084108 1:68.31096046077755 
1.0 1.0 0:-3.7331661764084108 1:68.31096046077755 
1.0 1.0 0:-3.7331661764084108 1:68.31096046077755 
1.0 0.0 0:6.150873300659022 1:109.4367435641502 
1.0 1.0 0:-16.919223665556228 1:72.22493341007062 
1.0 1.0 0:-3.7331661764084108 1:68.31096046077755 
1.0 0.0 0:-4.14262609527112 1:177.5211437525105 
1.0 1.0 0:-3.7331661764084108 1:68.31096046077755 
1.0 1.0 0:-3.7331661764084108 1:68.31096046077755 
1.0 0.0 0:7.110501757991815 1:115.06485806910322 
1.0 1.0 0:-3.7331661764084108 1:68.31096046077755 
1.0 1.0 0:-3.7331661764084108 1:68.31096046077755 
1.0 0.0 0:1.0954500953247324 1:99.83508011604486 
1.0 1.0 0:-3.7331661764084108 1:68.31096046077755 
1.0 1.0 0:-3.7331661764084108 1:68.31096046077755 
1.0 1.0 0:45.63541718396129 1:-43.727759694213006 
1.0 1.0 0:-3.7331661764084108 1:68.31096046077755 
1.0 1.0 0:-3.7331661764084108 1:68.31096046077755 
1.0 1.0 0:-3.7331661764084108 1:68.31096046077755 
1.0 0.0 0:8.991031671504679 1:141.09481257109172 
1.0 1.0 0:-3.7331661764084108 1:68.31096046077755 
1.0 1.0 0:-3.7331661764084108 1:68.31096046077755 
1.0 1.0 0:-3.7331661764084108 1:68.31096046077755 
1.0 1.0 0:-3.7331661764084108 1:68.31096046077755 
1.0 0.0 0:24.304224528608277 1:104.53339952305363 
1.0 1.0 0:-3.7331661764084108 1:68.31096046077755 
1.0 1.0 0:-3.7331661764084108 1:68.31096046077755 
1.0 1.0 0:-3.7331661764084108 1:68.31096046077755 
1.0 1.0 0:-3.7331661764084108 1:68.31096046077755 
1.0 1.0 0:-3.7331661764084108 1:68.31096046077755 
1.0 1.0 0:-3.7331661764084108 1:68.31096046077755 
1.0 1.0 0:-3.7331661764084108 1:68.31096046077755 
1.0 1.0 0:-3.7331661764084108 1:68.31096046077755 
1.0 0.2451348783966313 0:17.011511473193178 1:53.042112363470864 
1.0 1.0 0:-3.7331661764084108 1:68.31096046077755 
1.0 1.0 0:-3.7331661764084108 1:68.31096046077755 
1.0 1.0 0:-3.7331661764084108 1:68.31096046077755 
1.0 0.0 0:5.100275951169704 1:151.22273104314866 
1.0 1.0 0:-3.7331661764084108 1:68.31096046077755 
1.0 0.0 0:-2.698115085616319 1:121.68523545765598 
1.0 1.0 0:-3.7331661764084108 1:68.31096046077755 
1.0 1.0 0:-3.7331661764084108 1:68.31096046077755 
1.0 1.0 0:-3.7331661764084108 1:68.31096046077755 
1.0 1.0 0:-3.7331661764084108 1:68.31096046077755 
1.0 1.0 0:-3.7331661764084108 1:68.31096046077755 
1.0 1.0 0:-3.7331661764084108 1:68.31096046077755 
1.0 1.0 0:-3.7331661764084108 1:68.31096046077755 
1.0 1.0 0:-3.7331661764084108 1:68.31096046077755 
1.0 1.0 0:-3.7331661764084108 1:68.31096046077755 
1.0 1.0 0:-3.7331661764084108 1:68.31096046077755 
1.0 1.0 0:-3.7331661764084108 1:68.31096046077755 
1.0 1.0 0:-3.7331661764084108 1:68.31096046077755 
1.0 1.0 0:-3.7331661764084108 1:68.31096046077755 
1.0 1.0 0:-3.7331661764084108 1:68.31096046077755 
1.0 0.0 0:44.41608250657488 1:40.380242627900856 
1.0 1.0 0:-3.7331661764084108 1:68.31096046077755 
1.0 1.0 0:-3.7331661764084108 1:68.31096046077755 
1.0 1.0 0:-3.7331661764084108 1:68.31096046077755 
1.0 1.0 0:-3.7331661764084108 1:68.31096046077755 
1.0 1.0 0:-3.7331661764084108 1:68.31096046077755 
1.0 1.0 0:-3.7331661764084108 1:68.31096046077755 
1.0 0.0 0:-11.677505074387346 1:204.83637858724373 
1.0 0.0 0:-16.581085328342763 1:152.14542207996482 
1.0 0.0 0:0.6126685966287037 1:156.7283769386302 
1.0 0.0 0:16.54320378642304 1:73.86459995957199 
1.0 1.0 0:-2.179791431849973 1:17.554866801011215 
1.0 1.0 0:-3.7331661764084108 1:68.31096046077755 
1.0 1.0 0:-3.7331661764084108 1:68.31096046077755 
1.0 0.0 0:-61.18200760461322 1:230.27058162638573 
1.0 1.0 0:43.41188954786917 1:29.823338386837843 
1.0 1.0 0:-3.7331661764084108 1:68.31096046077755 
1.0 1.0 0:-3.7331661764084108 1:68.31096046077755 
1.0 1.0 0:-3.7331661764084108 1:68.31096046077755 
1.0 1.0 0:-3.7331661764084108 1:68.31096046077755 
1.0 0.0 0:5.433869211238187 1:131.12988702036594 
1.0 1.0 0:-3.7331661764084108 1:68.31096046077755 
1.0 1.0 0:-3.7331661764084108 1:68.31096046077755 
1.0 0.0 0:45.66544472831338 1:40.791772010396485 
1.0 0.0 0:23.634773005258538 1:61.713504951225985 
1.0 1.0 0:-3.7331661764084108 1:68.31096046077755 
1.0 1.0 0:-3.7331661764084108 1:68.31096046077755 
1.0 1.0 0:-3.7331661764084108 1:68.31096046077755 
1.0 1.0 0:-3.7331661764084108 1:68.31096046077755 
1.0 1.0 0:-3.7331661764084108 1:68.31096046077755 
1.0 1.0 0:-3.7331661764084108 1:68.31096046077755 
1.0 0.0 0:-12.733551784573562 1:218.3426063574999 
1.0 1.0 0:-3.7331661764084108 1:68.31096046077755 
1.0 1.0 0:-3.7331661764084108 1:68.31096046077755 
1.0 1.0 0:-3.7331661764084108 1:68.31096046077755 
1.0 1.0 0:-3.7331661764084108 1:68.31096046077755 
1.0 1.0 0:-3.7331661764084108 1:68.31096046077755 
1.0 1.0 0:-3.7331661764084108 1:68.31096046077755 
1.0 1.0 0:-3.7331661764084108 1:68.31096046077755 
1.0 1.0 0:-3.7331661764084108 1:68.31096046077755 
1.0 1.0 0:-3.7331661764084108 1:68.31096046077755 
0.9552253234201995 0.0 0:47.500846358784656 1:43.49754469771538 
1.0 0.0 0:-32.62283079602697 1:137.16403699554036 
1.0 1.0 0:-3.7331661764084108 1:68.31096046077755 
1.0 1.0 0:-3.7331661764084108 1:68.31096046077755 
1.0 1.0 0:-3.7331661764084108 1:68.31096046077755 
1.0 1.0 0:-3.7331661764084108 1:68.31096046077755 
1.0 1.0 0:-3.7331661764084108 1:68.31096046077755 
1.0 1.0 0:-3.7331661764084108 1:68.31096046077755 
1.0 0.0 0:-14.599801237449899 1:222.35869190702593 
1.0 1.0 0:31.615841241788 1:37.03425683894494 
1.0 1.0 0:-3.7331661764084108 1:68.31096046077755 
1.0 1.0 0:-3.7331661764084108 1:68.31096046077755 
1.0 1.0 0:-3.7331661764084108 1:68.31096046077755 
1.0 0.0 0:23.545415948863276 1:93.98652396927058 
1.0 0.0 0:-7.922900058162276 1:203.9502242422781 
1.0 1.0 0:-3.7331661764084108 1:68.31096046077755 
1.0 1.0 0:-3.7331661764084108 1:68.31096046077755 
1.0 0.0 0:4.397083085742222 1:137.85624921259523 
1.0 0.0 0:-24.762721931164112 1:174.30528622314884 
1.0 1.0 0:-3.7331661764084108 1:68.31096046077755 
1.0 1.0 0:-3.7331661764084108 1:68.31096046077755 
1.0 1.0 0:-3.7331661764084108 1:68.31096046077755 
1.0 1.0 0:-3.7331661764084108 1:68.31096046077755 
1.0 1.0 0:-3.7331661764084108 1:68.31096046077755 
1.0 1.0 0:-3.7331661764084108 1:68.31096046077755 
1.0 1.0 0:-3.7331661764084108 1:68.31096046077755 
1.0 1.0 0:-3.7331661764084108 1:68.31096046077755 
1.0 1.0 0:-3.7331661764084108 1:68.31096046077755 
1.0 1.0 0:-3.7331661764084108 1:68.31096046077755 
1.0 1.0 0:-3.7331661764084108 1:68.31096046077755 
1.0 1.0 0:-3.7331661764084108 1:68.31096046077755 
1.0 1.0 0:-3.7331661764084108 1:68.31096046077755 
1.0 1.0 0:-3.7331661764084108 1:68.31096046077755 
1.0 1.0 0:-3.7331661764084108 1:68.31096046077755 
1.0 1.0 0:-3.7331661764084108 1:68.31096046077755 
1.0 1.0 0:-3.7331661764084108 1:68.31096046077755 
1.0 1.0 0:-3.7331661764084108 1:68.31096046077755 
1.0 1.0 0:-3.7331661764084108 1:68.31096046077755 
1.0 1.0 0:-3.7331661764084108 1:68.31096046077755 
1.0 1.0 0:-3.7331661764084108 1:68.31096046077755 
1.0 1.0 0:-3.7331661764084108 1:68.31096046077755 
1.0 1.0 0:-3.7331661764084108 1:68.31096046077755 
1.0 1.0 0:-3.7331661764084108 1:68.31096046077755 
1.0 1.0 0:-3.7331661764084108 1:68.31096046077755 
1.0 1.0 0:-3.7331661764084108 1:68.31096046077755 
1.0 1.0 0:-3.7331661764084108 1:68.31096046077755 
1.0 1.0 0:-3.7331661764084108 1:68.31096046077755 
1.0 0.0 0:27.66955230377572 1:83.17706079802815 
1.0 1.0 0:-3.7331661764084108 1:68.31096046077755 
1.0 1.0 0:-3.7331661764084108 1:68.31096046077755 
1.0 1.0 0:-3.7331661764084108 1:68.31096046077755 
1.0 1.0 0:-3.7331661764084108 1:68.31096046077755 
1.0 1.0 0:-3.7331661764084108 1:68.31096046077755 
1.0 1.0 0:-3.7331661764084108 1:68.31096046077755 
1.0 1.0 0:-3.7331661764084108 1:68.31096046077755 
1.0 1.0 0:-3.7331661764084108 1:68.31096046077755 
1.0 0.0 0:0.5681387210121223 1:175.30308936062687 
1.0 1.0 0:-3.7331661764084108 1:68.31096046077755 
1.0 1.0 0:-3.7331661764084108 1:68.31096046077755 
1.0 1.0 0:-3.7331661764084108 1:68.31096046077755 
1.0 1.0 0:-3.7331661764084108 1:68.31096046077755 
1.0 1.0 0:-3.7331661764084108 1:68.31096046077755 
1.0 1.0 0:-3.7331661764084108 1:68.31096046077755 
1.0 1.0 0:-3.7331661764084108 1:68.31096046077755 
1.0 1.0 0:-3.7331661764084108 1:68.31096046077755 
1.0 1.0 0:-3.7331661764084108 1:68.31096046077755 
1.0 1.0 0:-3.7331661764084108 1:68.31096046077755 
1.0 1.0 0:-3.7331661764084108 1:68.31096046077755 
-0.0 1.0 0:-30.456435296988513 1:-46.07784396458817 
-1.0 0.0 0:-3.7331661764084108 1:68.31096046077755 
-1.0 0.0 0:-3.7331661764084108 1:68.31096046077755 
-1.0 0.0 0:-3.7331661764084108 1:68.31096046077755 
-0.0 1.0 0:-23.88742433593818 1:-4.823960845731416 
-1.0 0.0 0:-3.7331661764084108 1:68.31096046077755 
-1.0 0.0 0:-3.7331661764084108 1:68.31096046077755 
-1.0 0.0 0:-3.7331661764084108 1:68.31096046077755 
-1.0 0.0 0:-10.179121128577926 1:178.85375931853605 
-1.0 0.0 0:-3.7331661764084108 1:68.31096046077755 
-1.0 0.0 0:-3.7331661764084108 1:68.31096046077755 
-1.0 0.0 0:-3.7331661764084108 1:68.31096046077755 
-1.0 0.0 0:-3.7331661764084108 1:68.31096046077755 
-1.0 0.0 0:-3.7331661764084108 1:68.31096046077755 
-1.0 0.0 0:-3.7331661764084108 1:68.31096046077755 
-1.0 0.0 0:-3.7331661764084108 1:68.31096046077755 
-1.0 0.0 0:17.57469385023984 1:146.34293097421846 
-1.0 1.0 0:19.459031461252145 1:58.44958841541474 
-1.0 0.0 0:-3.7331661764084108 1:68.31096046077755 
-1.0 0.0 0:2.4641819036467703 1:168.59835555127577 
-1.0 0.0 0:-3.7331661764084108 1:68.31096046077755 
-1.0 0.0 0:-3.7331661764084108 1:68.31096046077755 
-1.0 1.0 0:-1.562178360790358 1:61.11216544111923 
-1.0 0.0 0:-3.7331661764084108 1:68.31096046077755 
-1.0 0.0 0:0.15589563346153734 1:170.13425910493655 
-1.0 0.0 0:-3.7331661764084108 1:68.31096046077755 
-1.0 0.0 0:-3.7331661764084108 1:68.31096046077755 
-1.0 0.0 0:-3.7331661764084108 1:68.31096046077755 
-1.0 0.0 0:-3.7331661764084108 1:68.31096046077755 
-1.0 1.0 0:14.034298551636041 1:70.3464075451163 
-1.0 0.0 0:-3.7331661764084108 1:68.31096046077755 
-1.0 0.0 0:-3.7331661764084108 1:68.31096046077755 
-1.0 0.0 0:-3.7331661764084108 1:68.31096046077755 
-1.0 0.0 0:-3.7331661764084108 1:68.31096046077755 
-1.0 0.0 0:-3.7331661764084108 1:68.31096046077755 
-1.0 0.0 0:-3.7331661764084108 1:68.31096046077755 
-1.0 0.0 0:-3.7331661764084108 1:68.31096046077755 
-1.0 0.0 0:-3.7331661764084108 1:68.31096046077755 
-1.0 0.0 0:-3.7331661764084108 1:68.31096046077755 
-0.0 1.0 0:-24.411449727279813 1:5.60321713860087 
-1.0 0.0 0:-3.7331661764084108 1:68.31096046077755 
-1.0 0.0 0:-3.7331661764084108 1:68.31096046077755 
-1.0 0.0 0:-1.7436592585547555 1:102.69097458882652 
-1.0 0.0 0:-3.7331661764084108 1:68.31096046077755 
-1.0 0.0 0:-6.953748043179924 1:132.44946996086074 
-0.0 1.0 0:-44.92820216406187 1:-1.4921739295023908 
-1.0 0.0 0:-3.7331661764084108 1:68.31096046077755 
-1.0 0.0 0:-3.7331661764084108 1:68.31096046077755 
-1.0 0.0 0:-3.7331661764084108 1:68.31096046077755 
-1.0 0.0 0:-3.7331661764084108 1:68.31096046077755 
-1.0 0.0 0:-3.7331661764084108 1:68.31096046077755 
-1.0 0.0 0:0.8312621637480997 1:96.6097791130247 
-1.0 0.0 0:-3.7331661764084108 1:68.31096046077755 
-1.0 0.0 0:-3.7331661764084108 1:68.31096046077755 
-1.0 0.0 0:-3.7331661764084108 1:68.31096046077755 
-1.0 0.0 0:16.596993319519775 1:197.44198902881797 
-1.0 1.0 0:8.895548522744997 1:82.02470155367233 
-1.0 0.0 0:-3.7331661764084108 1:68.31096046077755 
-1.0 0.0 0:-3.7331661764084108 1:68.31096046077755 
-1.0 0.0 0:-3.7331661764084108 1:68.31096046077755 
-1.0 0.0 0:-3.7331661764084108 1:68.31096046077755 
-1.0 0.0 0:-3.7331661764084108 1:68.31096046077755 
-1.0 0.0 0:-3.7331661764084108 1:68.31096046077755 
-1.0 0.0 0:-3.7331661764084108 1:68.31096046077755 
-1.0 0.0 0:-3.7331661764084108 1:68.31096046077755 
-1.0 0.0 0:-3.7331661764084108 1:68.31096046077755 
-1.0 0.0 0:-3.7331661764084108 1:68.31096046077755 
-0.0 1.0 0:-6.126733940981661 1:42.195607858122074 
-1.0 0.0 0:2.1575185702730115 1:123.71868837792194 
-0.0 1.0 0:1.145554460783796 1:33.13399028574185 
-1.0 1.0 0:50.240777888808786 1:-3.0498195622202893 
-1.0 0.0 0:-3.7331661764084108 1:68.31096046077755 
-1.0 1.0 0:6.93986733380717 1:33.43817708938838 
-0.0 1.0 0:-32.29903052659211 1:-37.60687296320308 
-1.0 1.0 0:39.4825780164955 1:121.16613592102206 
-0.0 1.0 0:-23.10252196424041 1:37.08771792772788 
-1.0 0.0 0:-3.7331661764084108 1:68.31096046077755 
-1.0 0.0 0:-3.7331661764084108 1:68.31096046077755 
-1.0 1.0 0:30.302712343279303 1:61.832470351073 
-1.0 0.0 0:-3.7331661764084108 1:68.31096046077755 
-1.0 0.0 0:-3.7331661764084108 1:68.31096046077755 
-1.0 0.0 0:-3.7331661764084108 1:68.31096046077755 
-1.0 0.0 0:-3.7331661764084108 1:68.31096046077755 
-0.0 0.6701813886746937 0:-40.49138930687404 1:13.313993330392002 
-1.0 0.0 0:-3.7331661764084108 1:68.31096046077755 
-1.0 0.0 0:-3.7331661764084108 1:68.31096046077755 
-0.0 1.0 0:-3.6515151730257687 1:21.266946742078343 
-1.0 0.0 0:-3.7331661764084108 1:68.31096046077755 
-1.0 0.0 0:-3.7331661764084108 1:68.31096046077755 
-1.0 0.0 0:-3.7331661764084108 1:68.31096046077755 
-1.0 0.0 0:-3.7331661764084108 1:68.31096046077755 
-0.0 1.0 0:-35.166889714902744 1:3.711420576634838 
-1.0 0.0 0:-3.7331661764084108 1:68.31096046077755 
-1.0 0.0 0:-29.173710358421374 1:136.61385094829456 
-1.0 0.0 0:-3.7331661764084108 1:68.31096046077755 
-1.0 0.0 0:-3.7331661764084108 1:68.31096046077755 
-1.0 0.0 0:-3.7331661764084108 1:68.31096046077755 
-1.0 0.0 0:-3.7331661764084108 1:68.31096046077755 
-1.0 0.0 0:-3.7331661764084108 1:68.31096046077755 
-0.0 1.0 0:-11.951791493017573 1:58.151411375860185 
-1.0 0.0 0:-3.7331661764084108 1:68.31096046077755 
-1.0 0.0 0:-3.7331661764084108 1:68.31096046077755 
-1.0 0.0 0:-3.7331661764084108 1:68.31096046077755 
-1.0 0.0 0:-3.7331661764084108 1:68.31096046077755 
-1.0 0.0 0:-3.7331661764084108 1:68.31096046077755 
-1.0 0.0 0:1.5098788553228177 1:128.5607298225357 
-1.0 0.0 0:-3.7331661764084108 1:68.31096046077755 
-1.0 0.0 0:-3.7331661764084108 1:68.31096046077755 
-1.0 0.0 0:-3.7331661764084108 1:68.31096046077755 
-1.0 0.0 0:-3.7331661764084108 1:68.31096046077755 
-1.0 0.0 0:-3.7331661764084108 1:68.31096046077755 
-1.0 0.0 0:-3.7331661764084108 1:68.31096046077755 
-1.0 0.0 0:-3.7331661764084108 1:68.31096046077755 
-1.0 0.0 0:-3.7331661764084108 1:68.31096046077755 
-0.0 1.0 0:-32.579650477791496 1:18.78152768153116 
-1.0 0.0 0:-3.7331661764084108 1:68.31096046077755 
-1.0 0.0 0:-3.7331661764084108 1:68.31096046077755 
-1.0 0.0 0:-3.7331661764084108 1:68.31096046077755 
-1.0 0.0 0:-33.546848278374796 1:188.91651383579784 
-1.0 0.0 0:-3.7331661764084108 1:68.31096046077755 
-1.0 0.0 0:-3.7331661764084108 1:68.31096046077755 
-1.0 0.0 0:-3.7331661764084108 1:68.31096046077755 
-1.0 0.0 0:-3.7331661764084108 1:68.31096046077755 
-1.0 0.0 0:-3.7331661764084108 1:68.31096046077755 
-1.0 0.0 0:-3.7331661764084108 1:68.31096046077755 
-1.0 0.0 0:-26.731537210236965 1:207.11176924173506 
-1.0 0.0 0:-3.7331661764084108 1:68.31096046077755 
-1.0 0.0 0:-29.192430437057602 1:173.18827120189658 
-1.0 0.0 0:-3.7331661764084108 1:68.31096046077755 
-0.0 1.0 0:-15.168236522911624 1:47.11041092657666 
-1.0 0.0 0:-3.7331661764084108 1:68.31096046077755 
-1.0 0.0 0:-3.7331661764084108 1:68.31096046077755 
-0.0 1.0 0:-17.10356987300077 1:31.53040022743066 
-1.0 0.0 0:-3.7331661764084108 1:68.31096046077755 
-1.0 0.0 0:-3.7331661764084108 1:68.31096046077755 
-1.0 1.0 0:44.27931248163681 1:119.48752740038918 
-1.0 1.0 0:8.131616517185275 1:80.96995394979677 
-1.0 0.0 0:-3.7331661764084108 1:68.31096046077755 
-1.0 0.4918838500407363 0:-3.7331661764084108 1:68.31096046077755 
-1.0 1.0 0:-3.7331661764084108 1:68.31096046077755 
-1.0 1.0 0:-3.7331661764084108 1:68.31096046077755 
-1.0 1.0 0:-3.7331661764084108 1:68.31096046077755 
-1.0 1.0 0:-3.7331661764084108 1:68.31096046077755 
-1.0 1.0 0:-3.7331661764084108 1:68.31096046077755 
-0.0 1.0 0:-15.730006194069885 1:32.29378469912351 
-1.0 1.0 0:-2.6030530122098616 1:58.15652310166693 
-1.0 1.0 0:-3.7331661764084108 1:68.31096046077755 
-1.0 1.0 0:51.95132078718978 1:3.9926189747368417 
-1.0 1.0 0:-3.7331661764084108 1:68.31096046077755 
-1.0 1.0 0:-3.7331661764084108 1:68.31096046077755 
-1.0 1.0 0:-3.7331661764084108 1:68.31096046077755 
-1.0 1.0 0:-3.7331661764084108 1:68.31096046077755 
-1.0 1.0 0:-3.7331661764084108 1:68.31096046077755 
-1.0 1.0 0:-3.7331661764084108 1:68.31096046077755 
-0.0 1.0 0:-38.48318174384933 1:-15.804822364538603 
-1.0 1.0 0:-3.7331661764084108 1:68.31096046077755 
-1.0 1.0 0:32.11326228654044 1:26.23515573691191 
-1.0 1.0 0:-3.7331661764084108 1:68.31096046077755 
-0.0 1.0 0:-37.601454763066705 1:6.200934093950261 
-1.0 1.0 0:-3.7331661764084108 1:68.31096046077755 
-1.0 1.0 0:-3.7331661764084108 1:68.31096046077755 
-1.0 1.0 0:-3.7331661764084108 1:68.31096046077755 
-1.0 1.0 0:-3.7331661764084108 1:68.31096046077755 
-1.0 1.0 0:-3.7331661764084108 1:68.31096046077755 
-0.0 1.0 0:-20.823515861956107 1:39.35130429422545 
-1.0 0.0 0:-12.095594176646898 1:103.22451386289629 
-1.0 1.0 0:-3.7331661764084108 1:68.31096046077755 
-1.0 1.0 0:-3.7331661764084108 1:68.31096046077755 
-1.0 1.0 0:-3.7331661764084108 1:68.31096046077755 
-1.0 1.0 0:-3.7331661764084108 1:68.31096046077755 
-1.0 1.0 0:-3.7331661764084108 1:68.31096046077755 
-1.0 1.0 0:-3.7331661764084108 1:68.31096046077755 
-1.0 0.0 0:-7.248551459602688 1:101.76261135613497 
-1.0 1.0 0:-3.7331661764084108 1:68.31096046077755 
-1.0 1.0 0:-3.7331661764084108 1:68.31096046077755 
-1.0 1.0 0:-3.7331661764084108 1:68.31096046077755 
-1.0 1.0 0:-3.7331661764084108 1:68.31096046077755 
-1.0 1.0 0:-3.7331661764084108 1:68.31096046077755 
-1.0 1.0 0:-3.7331661764084108 1:68.31096046077755 
-0.0 1.0 0:-11.970711485828517 1:2.8029251600020064 
-1.0 1.0 0:-3.7331661764084108 1:68.31096046077755 
-1.0 1.0 0:-3.7331661764084108 1:68.31096046077755 
-1.0 1.0 0:-3.7331661764084108 1:68.31096046077755 
-1.0 1.0 0:-3.7331661764084108 1:68.31096046077755 
-0.0 1.0 0:-26.22358693426078 1:-36.04175155463536 
-1.0 1.0 0:-3.7331661764084108 1:68.31096046077755 
-1.0 1.0 0:-3.7331661764084108 1:68.31096046077755 
-1.0 1.0 0:-3.7331661764084108 1:68.31096046077755 
-1.0 1.0 0:-3.7331661764084108 1:68.31096046077755 
-1.0 1.0 0:-3.7331661764084108 1:68.31096046077755 
-1.0 0.0 0:-8.465529350954863 1:163.6344781742796 
-1.0 1.0 0:-3.7331661764084108 1:68.31096046077755 
-1.0 1.0 0:-3.7331661764084108 1:68.31096046077755 
-0.0 1.0 0:7.502881676051446 1:10.921010864461133 
-1.0 1.0 0:-3.7331661764084108 1:68.31096046077755 
-1.0 1.0 0:7.8438353384308215 1:84.3025665125158 
-1.0 1.0 0:-3.7331661764084108 1:68.31096046077755 
-1.0 1.0 0:-3.7331661764084108 1:68.31096046077755 
-1.0 1.0 0:-3.7331661764084108 1:68.31096046077755 
-1.0 1.0 0:-3.7331661764084108 1:68.31096046077755 
-0.0 1.0 0:-28.634057691184868 1:25.23257397829896 
-0.0 1.0 0:-39.627993697739974 1:8.650407076187674 
-1.0 1.0 0:-3.7331661764084108 1:68.31096046077755 
-1.0 1.0 0:-3.7331661764084108 1:68.31096046077755 
-1.0 1.0 0:-3.7331661764084108 1:68.31096046077755 
-1.0 0.0 0:-5.070460658274558 1:85.34951095651081 
-1.0 1.0 0:-3.7331661764084108 1:68.31096046077755 
-1.0 1.0 0:-3.7331661764084108 1:68.31096046077755 
-1.0 1.0 0:-3.7331661764084108 1:68.31096046077755 
-1.0 1.0 0:-3.7331661764084108 1:68.31096046077755 
-0.0 1.0 0:-3.551751036055093 1:38.11849925128603 
-1.0 1.0 0:-3.7331661764084108 1:68.31096046077755 
-1.0 0.0 0:-17.387345920603032 1:172.79047547276792 
-1.0 1.0 0:-3.7331661764084108 1:68.31096046077755 
-1.0 1.0 0:-3.7331661764084108 1:68.31096046077755 
-1.0 1.0 0:14.842430967735131 1:60.82866425542514 
-1.0 1.0 0:-3.7331661764084108 1:68.31096046077755 
-1.0 0.0 0:5.925261159007875 1:119.15624558939415 
-1.0 1.0 0:-3.7331661764084108 1:68.31096046077755 
-1.0 1.0 0:-3.7331661764084108 1:68.31096046077755 
-1.0 1.0 0:-3.7331661764084108 1:68.31096046077755 
-1.0 1.0 0:-3.7331661764084108 1:68.31096046077755 
-1.0 1.0 0:-3.7331661764084108 1:68.31096046077755 
-1.0 1.0 0:-3.7331661764084108 1:68.31096046077755 
-1.0 1.0 0:-3.7331661764084108 1:68.31096046077755 
-1.0 1.0 0:-3.7331661764084108 1:68.31096046077755 
-1.0 1.0 0:-3.7331661764084108 1:68.31096046077755 
-1.0 1.0 0:43.00260105510926 1:132.17241064599364 
-1.0 1.0 0:-3.7331661764084108 1:68.31096046077755 
-1.0 1.0 0:13.985940507739413 1:61.776381651017964 
-1.0 1.0 0:-3.7331661764084108 1:68.31096046077755 
-1.0 1.0 0:-3.7331661764084108 1:68.31096046077755 
-1.0 1.0 0:-3.7331661764084108 1:68.31096046077755 
-1.0 1.0 0:-3.7331661764084108 1:68.31096046077755 
-1.0 1.0 0:-3.7331661764084108 1:68.31096046077755 
-0.0 1.0 0:-18.57792988011307 1:7.9497932405971286 
-1.0 1.0 0:-3.7331661764084108 1:68.31096046077755 
-1.0 1.0 0:-3.7331661764084108 1:68.31096046077755 
-1.0 0.0 0:-26.736806317996756 1:160.9467000543326 
-1.0 1.0 0:-3.7331661764084108 1:68.31096046077755 
-1.0 1.0 0:-3.7331661764084108 1:68.31096046077755 
-0.0 1.0 0:-1.1869967807780106 1:34.934886932122744 
-1.0 1.0 0:-3.7331661764084108 1:68.31096046077755 
-1.0 1.0 0:-3.7331661764084108 1:68.31096046077755 
-1.0 0.0 0:8.138338478896761 1:93.19944659205505 
-1.0 1.0 0:-3.7331661764084108 1:68.31096046077755 
-1.0 1.0 0:-3.7331661764084108 1:68.31096046077755 
-1.0 1.0 0:-3.7331661764084108 1:68.31096046077755 
-1.0 0.0 0:-35.9080777450148 1:164.00420576357982 
-1.0 1.0 0:-3.7331661764084108 1:68.31096046077755 
-1.0 1.0 0:-3.7331661764084108 1:68.31096046077755 
-0.0 1.0 0:-7.568430061181336 1:61.635235842401386 
-0.0 1.0 0:-28.956977278357996 1:32.87342250306357 
-1.0 1.0 0:-3.7331661764084108 1:68.31096046077755 
-1.0 1.0 0:-3.7331661764084108 1:68.31096046077755 
-1.0 1.0 0:-3.7331661764084108 1:68.31096046077755 
-1.0 1.0 0:-3.7331661764084108 1:68.31096046077755 
-1.0 1.0 0:-3.7331661764084108 1:68.31096046077755 
-1.0 1.0 0:-3.7331661764084108 1:68.31096046077755 
-1.0 1.0 0:-3.7331661764084108 1:68.31096046077755 
-1.0 0.0 0:-22.00448808582332 1:125.85852797284751 
-1.0 0.0 0:-32.293686191800255 1:168.1962192578652 
-1.0 1.0 0:-3.7331661764084108 1:68.31096046077755 
-1.0 1.0 0:18.062856848997 1:5.601909874412464 
-1.0 1.0 0:-3.588858002226947 1:71.44383506618084 
-1.0 1.0 0:-3.7331661764084108 1:68.31096046077755 
-0.0 1.0 0:-3.578245166759963 1:42.51520672912816 
-1.0 1.0 0:-3.7331661764084108 1:68.31096046077755 
-1.0 1.0 0:-3.7331661764084108 1:68.31096046077755 
-1.0 1.0 0:-3.7331661764084108 1:68.31096046077755 
-1.0 0.0 0:10.608228961942059 1:146.46111420470683 
-1.0 0.0 0:-19.08873667186414 1:128.65210734662455 
-1.0 1.0 0:-3.7331661764084108 1:68.31096046077755 
-1.0 1.0 0:-3.7331661764084108 1:68.31096046077755 
-1.0 1.0 0:-3.7331661764084108 1:68.31096046077755 
-1.0 0.0 0:-29.423717216268678 1:136.22040461802587 
-1.0 1.0 0:-3.7331661764084108 1:68.31096046077755 
-1.0 0.0 0:6.162239902311776 1:190.04247117084765 
-1.0 1.0 0:-3.7331661764084108 1:68.31096046077755 
-1.0 1.0 0:-3.7331661764084108 1:68.31096046077755 
-0.0 1.0 0:-54.733582412292314 1:-12.311660817076193 
-1.0 1.0 0:-3.7331661764084108 1:68.31096046077755 
-1.0 1.0 0:-3.7331661764084108 1:68.31096046077755 
-1.0 0.0 0:-17.324911505333912 1:102.27168047413063 
-1.0 1.0 0:-3.7331661764084108 1:68.31096046077755 
-1.0 1.0 0:-3.7331661764084108 1:68.31096046077755 
-0.0 1.0 0:-2.6234011220437665 1:44.089000626460255 
-1.0 1.0 0:-3.7331661764084108 1:68.31096046077755 
-0.0 1.0 0:-15.225503684942389 1:-52.76098373091326 
-1.0 1.0 0:-3.7331661764084108 1:68.31096046077755 
-1.0 1.0 0:-3.7331661764084108 1:68.31096046077755 
-1.0 1.0 0:-3.7331661764084108 1:68.31096046077755 
-1.0 1.0 0:-3.7331661764084108 1:68.31096046077755 
-1.0 1.0 0:-3.7331661764084108 1:68.31096046077755 
-1.0 1.0 0:-3.7331661764084108 1:68.31096046077755 
-1.0 1.0 0:-3.7331661764084108 1:68.31096046077755 
-1.0 1.0 0:-3.7331661764084108 1:68.31096046077755 
-1.0 1.0 0:-3.7331661764084108 1:68.31096046077755 
-1.0 1.0 0:-3.7331661764084108 1:68.31096046077755 
-1.0 0.0 0:21.1130478182486 1:158.0302877167167 
-1.0 1.0 0:-3.7331661764084108 1:68.31096046077755 
-1.0 1.0 0:-3.7331661764084108 1:68.31096046077755 
-1.0 1.0 0:-3.7331661764084108 1:68.31096046077755 
-1.0 1.0 0:-3.7331661764084108 1:68.31096046077755 
-1.0 1.0 0:-3.7331661764084108 1:68.31096046077755 
-1.0 1.0 0:-3.7331661764084108 1:68.31096046077755 
-1.0 1.0 0:-3.7331661764084108 1:68.31096046077755 
-1.0 1.0 0:-3.7331661764084108 1:68.31096046077755 
-1.0 1.0 0:12.535639203836825 1:52.5001979571461 
-0.0 1.0 0:-6.781388656991467 1:51.18932795187603 
-1.0 1.0 0:-3.7331661764084108 1:68.31096046077755 
-1.0 1.0 0:-3.7331661764084108 1:68.31096046077755 
-0.0 0.6231676178094174 0:-94.65682583575826 1:-72.61932179082373 
-1.0 1.0 0:23.922239905020465 1:77.23849303033401 
-1.0 1.0 0:-3.7331661764084108 1:68.31096046077755 
-0.0 1.0 0:-15.710911880006597 1:39.544599622961805 
-0.0 1.0 0:-4.561670816273051 1:-27.956123419266497 
-1.0 1.0 0:-3.7331661764084108 1:68.31096046077755 
-1.0 1.0 0:-3.7331661764084108 1:68.31096046077755 
-1.0 1.0 0:-3.7331661764084108 1:68.31096046077755 
-1.0 1.0 0:-3.7331661764084108 1:68.31096046077755 
-1.0 1.0 0:-3.7331661764084108 1:68.31096046077755 
-1.0 1.0 0:-3.7331661764084108 1:68.31096046077755 
-1.0 0.0 0:-20.959499663367414 1:192.17845939064708 
-1.0 1.0 0:-3.7331661764084108 1:68.31096046077755 
-1.0 1.0 0:-3.7331661764084108 1:68.31096046077755 
-1.0 1.0 0:-0.5826210972446748 1:67.68083929127104 
-1.0 1.0 0:-3.7331661764084108 1:68.31096046077755 
-1.0 1.0 0:-3.7331661764084108 1:68.31096046077755 
-0.0 1.0 0:1.3595868839546599 1:-24.570652805545986 
-1.0 1.0 0:-3.7331661764084108 1:68.31096046077755 
-1.0 1.0 0:-3.7331661764084108 1:68.31096046077755 
-1.0 1.0 0:-3.7331661764084108 1:68.31096046077755 
-1.0 1.0 0:-3.7331661764084108 1:68.31096046077755 
-1.0 1.0 0:-3.7331661764084108 1:68.31096046077755 
-1.0 0.0 0:-10.405443643068747 1:117.09323395466464 
-1.0 0.0 0:-17.78522490636865 1:156.71400848529126 
-1.0 1.0 0:-3.7331661764084108 1:68.31096046077755 
-1.0 0.0 0:-33.15683435957822 1:149.33629740873633 
-1.0 1.0 0:-3.7331661764084108 1:68.31096046077755 
-1.0 1.0 0:-3.7331661764084108 1:68.31096046077755 
-1.0 1.0 0:-3.7331661764084108 1:68.31096046077755 
-1.0 1.0 0:-3.7331661764084108 1:68.31096046077755 
-1.0 0.0 0:-7.940936706881144 1:80.39508800398964 
-1.0 1.0 0:-3.7331661764084108 1:68.31096046077755 
-1.0 1.0 0:-3.7331661764084108 1:68.31096046077755 
-1.0 1.0 0:-3.7331661764084108 1:68.31096046077755 
-1.0 1.0 0:-3.7331661764084108 1:68.31096046077755 
-1.0 1.0 0:-3.7331661764084108 1:68.31096046077755 
-1.0 1.0 0:48.67010616792812 1:125.5010621531985 
-1.0 1.0 0:-3.7331661764084108 1:68.31096046077755 
-1.0 1.0 0:-3.7331661764084108 1:68.31096046077755 
-1.0 1.0 0:-3.7331661764084108 1:68.31096046077755 
-1.0 1.0 0:-1.1348609966956322 1:68.61486102692972 
-1.0 1.0 0:-3.7331661764084108 1:68.31096046077755 
-1.0 1.0 0:-3.7331661764084108 1:68.31096046077755 
-1.0 1.0 0:-3.7331661764084108 1:68.31096046077755 
-1.0 1.0 0:-3.7331661764084108 1:68.31096046077755 
-1.0 1.0 0:-3.7331661764084108 1:68.31096046077755 
-1.0 1.0 0:-3.7331661764084108 1:68.31096046077755 
-1.0 1.0 0:-3.7331661764084108 1:68.31096046077755 
-1.0 1.0 0:-3.7331661764084108 1:68.31096046077755 
-1.0 1.0 0:-3.7331661764084108 1:68.31096046077755 
-1.0 1.0 0:-3.7331661764084108 1:68.31096046077755 
-1.0 1.0 0:-3.7331661764084108 1:68.31096046077755 
-1.0 0.0 0:-1.8642841482334742 1:128.2567430571963 
-0.0 1.0 0:-16.985743890697428 1:-94.41370639666386 
-1.0 1.0 0:-3.7331661764084108 1:68.31096046077755 
-1.0 1.0 0:-3.7331661764084108 1:68.31096046077755 
-1.0 0.0 0:-23.535498949986483 1:124.727052029999 
-0.0 1.0 0:-37.15186087617991 1:-27.322521224591956 
-1.0 1.0 0:-3.7331661764084108 1:68.31096046077755 
-1.0 1.0 0:-3.7331661764084108 1:68.31096046077755 
-1.0 1.0 0:-3.7331661764084108 1:68.31096046077755 
-1.0 1.0 0:-3.7331661764084108 1:68.31096046077755 
-1.0 0.0 0:-12.186518068121163 1:89.51187917176932 
-1.0 1.0 0:-3.7331661764084108 1:68.31096046077755 
-1.0 1.0 0:-3.7331661764084108 1:68.31096046077755 
-1.0 1.0 0:-3.7331661764084108 1:68.31096046077755 
-1.0 1.0 0:-3.7331661764084108 1:68.31096046077755 
-1.0 1.0 0:-3.7331661764084108 1:68.31096046077755 
-0.0 1.0 0:-21.203091184130702 1:-8.530912838556144 
-1.0 1.0 0:-3.7331661764084108 1:68.31096046077755 
-1.0 1.0 0:-3.7331661764084108 1:68.31096046077755 
-1.0 0.0 0:-16.48711422684766 1:108.7129225542344 
-1.0 1.0 0:-3.7331661764084108 1:68.31096046077755 
-1.0 1.0 0:-3.7331661764084108 1:68.31096046077755 
-1.0 1.0 0:-3.7331661764084108 1:68.31096046077755 
-1.0 1.0 0:-3.7331661764084108 1:68.31096046077755 
-1.0 1.0 0:23.325722074983688 1:65.9987639459988 
-1.0 1.0 0:-3.7331661764084108 1:68.31096046077755 
-1.0 1.0 0:-3.7331661764084108 1:68.31096046077755 
-1.0 1.0 0:-3.7331661764084108 1:68.31096046077755 
-1.0 1.0 0:-3.7331661764084108 1:68.31096046077755 
-1.0 1.0 0:-3.7331661764084108 1:68.31096046077755 
-1.0 1.0 0:-3.7331661764084108 1:68.31096046077755 
-1.0 1.0 0:-3.7331661764084108 1:68.31096046077755 
-1.0 1.0 0:-3.7331661764084108 1:68.31096046077755 
-0.0 1.0 0:-4.919037003637835 1:-0.3327702510590561 
-0.0 1.0 0:14.938354888354574 1:-25.157980130760333 
-1.0 1.0 0:-3.7331661764084108 1:68.31096046077755 
-1.0 1.0 0:-3.7331661764084108 1:68.31096046077755 
-1.0 1.0 0:-3.7331661764084108 1:68.31096046077755 
-1.0 1.0 0:-3.7331661764084108 1:68.31096046077755 
-1.0 1.0 0:-3.7331661764084108 1:68.31096046077755 
-1.0 0.0 0:-29.580585722445097 1:148.1027461033989 
-1.0 1.0 0:-3.7331661764084108 1:68.31096046077755 
-1.0 1.0 0:-3.7331661764084108 1:68.31096046077755 
-1.0 1.0 0:23.661568149865577 1:-1.7878190291823257 
-1.0 1.0 0:-3.7331661764084108 1:68.31096046077755 
-1.0 1.0 0:-3.7331661764084108 1:68.31096046077755 
-1.0 0.0 0:-24.826623642396505 1:166.76406765977592 
-0.0 1.0 0:-61.188256746693305 1:-24.884090898316735 
-1.0 0.0 0:-8.499631194617276 1:106.63177945203712 
-1.0 1.0 0:-3.7331661764084108 1:68.31096046077755 
-1.0 1.0 0:-3.7331661764084108 1:68.31096046077755 
-0.0 1.0 0:-1.0678912970917391 1:46.47742577457592 
-1.0 1.0 0:14.40256995050628 1:95.1966535760493 
-1.0 0.0 0:-8.909894331340535 1:117.1013908239313 
-1.0 1.0 0:-3.7331661764084108 1:68.31096046077755 
-1.0 1.0 0:34.18803247618401 1:43.5099076117849 
-1.0 1.0 0:-3.7331661764084108 1:68.31096046077755 
-1.0 1.0 0:-3.7331661764084108 1:68.31096046077755 
-1.0 1.0 0:-3.7331661764084108 1:68.31096046077755 
-1.0 1.0 0:-3.7331661764084108 1:68.31096046077755 
-1.0 1.0 0:-3.7331661764084108 1:68.31096046077755 
-1.0 0.0 0:-39.81451915669115 1:184.15011635311117 
-1.0 1.0 0:-3.7331661764084108 1:68.31096046077755 
-1.0 1.0 0:-3.7331661764084108 1:68.31096046077755 
-1.0 1.0 0:-3.7331661764084108 1:68.31096046077755 
-1.0 0.0 0:-19.95906922432001 1:119.81947570704148 
-1.0 1.0 0:-3.7331661764084108 1:68.31096046077755 
-1.0 0.0 0:-28.30515709041241 1:189.81220819031532 
-0.3945247846293845 0.0 0:-28.865437048873897 1:132.51357765774878 
-1.0 0.0 0:-4.638380655495513 1:175.22795797231123 
-1.0 1.0 0:-3.7331661764084108 1:68.31096046077755 
-1.0 1.0 0:61.20333547361059 1:-55.286726038110785 
-1.0 0.0 0:15.572439799590459 1:180.09965661802946 
-1.0 1.0 0:-3.7331661764084108 1:68.31096046077755 
-1.0 1.0 0:-3.7331661764084108 1:68.31096046077755 
-1.0 1.0 0:-3.7331661764084108 1:68.31096046077755 
-1.0 1.0 0:-3.7331661764084108 1:68.31096046077755 
-1.0 1.0 0:-3.7331661764084108 1:68.31096046077755 
-1.0 1.0 0:-3.7331661764084108 1:68.31096046077755 
-1.0 1.0 0:-3.7331661764084108 1:68.31096046077755 
-1.0 1.0 0:-3.7331661764084108 1:68.31096046077755 
-1.0 1.0 0:-3.7331661764084108 1:68.31096046077755 
-1.0 1.0 0:-3.7331661764084108 1:68.31096046077755 
-1.0 1.0 0:13.967435386733422 1:84.20689495566506 
-1.0 1.0 0:-3.7331661764084108 1:68.31096046077755 
-1.0 1.0 0:-3.7331661764084108 1:68.31096046077755 
-1.0 1.0 0:-3.7331661764084108 1:68.31096046077755 
-0.0 1.0 0:7.254637641118906 1:-53.24079424819137 
-1.0 1.0 0:-3.7331661764084108 1:68.31096046077755 
-1.0 1.0 0:-3.7331661764084108 1:68.31096046077755 
-1.0 0.0 0:-9.127606060929429 1:140.32082272452755 
-0.0 1.0 0:-10.898072891725754 1:34.71897188374595 
-1.0 1.0 0:-3.7331661764084108 1:68.31096046077755 
-1.0 1.0 0:-3.7331661764084108 1:68.31096046077755 
-1.0 1.0 0:-3.7331661764084108 1:68.31096046077755 
-1.0 1.0 0:-3.7331661764084108 1:68.31096046077755 
-1.0 1.0 0:-3.7331661764084108 1:68.31096046077755 
-1.0 1.0 0:-3.7331661764084108 1:68.31096046077755 
-0.0 1.0 0:-6.643644006406249 1:-72.77950418175757 
-1.0 1.0 0:-3.7331661764084108 1:68.31096046077755 
-1.0 1.0 0:-3.7331661764084108 1:68.31096046077755 
-1.0 1.0 0:-3.7331661764084108 1:68.31096046077755 
-1.0 1.0 0:-3.7331661764084108 1:68.31096046077755 
-1.0 1.0 0:-3.7331661764084108 1:68.31096046077755 
-1.0 1.0 0:-3.7331661764084108 1:68.31096046077755 
-1.0 1.0 0:-3.7331661764084108 1:68.31096046077755 
-1.0 0.0 0:-10.59877964957558 1:106.63035663629176 
-1.0 1.0 0:-3.7331661764084108 1:68.31096046077755 
-0.0 1.0 0:-16.60030923906433 1:25.9987792593369 
-1.0 0.0 0:-1.0448332904598956 1:93.2236624067582 
-1.0 1.0 0:-3.7331661764084108 1:68.31096046077755 
-1.0 1.0 0:-3.7331661764084108 1:68.31096046077755 
-1.0 1.0 0:-3.7331661764084108 1:68.31096046077755 
-1.0 0.0 0:-48.758657640575066 1:194.66078536694454 
-1.0 1.0 0:-3.7331661764084108 1:68.31096046077755 
-0.0 1.0 0:-57.605133434040496 1:-33.51568272913872 
-1.0 1.0 0:-3.7331661764084108 1:68.31096046077755 
-1.0 1.0 0:-3.7331661764084108 1:68.31096046077755 
-1.0 0.0 0:-22.456414890671436 1:193.92463764679385 
-1.0 1.0 0:-3.7331661764084108 1:68.31096046077755 
-1.0 1.0 0:-3.7331661764084108 1:68.31096046077755 
-1.0 1.0 0:-3.7331661764084108 1:68.31096046077755 
-1.0 1.0 0:-3.7331661764084108 1:68.31096046077755 
-0.0 1.0 0:-37.20442967052505 1:-93.28334363939962 
-1.0 1.0 0:-3.7331661764084108 1:68.31096046077755 
-1.0 1.0 0:-3.7331661764084108 1:68.31096046077755 
-1.0 1.0 0:-3.7331661764084108 1:68.31096046077755 
-0.0 1.0 0:-24.317835916333703 1:4.20690754036645 
-1.0 1.0 0:-3.7331661764084108 1:68.31096046077755 
-0.0 1.0 0:-12.312556978440359 1:-14.649419210176704 
-1.0 1.0 0:-3.7331661764084108 1:68.31096046077755 
-1.0 1.0 0:-3.7331661764084108 1:68.31096046077755 
-0.0 1.0 0:-40.10636613376913 1:-60.31553234699123 
-1.0 1.0 0:-3.7331661764084108 1:68.31096046077755 
-1.0 1.0 0:-3.7331661764084108 1:68.31096046077755 
-1.0 1.0 0:-3.7331661764084108 1:68.31096046077755 
-0.0 1.0 0:-42.43378595112709 1:-2.630003559638167 
-0.0 1.0 0:-6.867974848116829 1:16.247179393686398 
-1.0 1.0 0:-3.7331661764084108 1:68.31096046077755 
-0.0 1.0 0:-28.359730611753992 1:32.437232703513864 
-1.0 1.0 0:-3.7331661764084108 1:68.31096046077755 
-1.0 1.0 0:-3.7331661764084108 1:68.31096046077755 
-0.0 1.0 0:-10.843087626181136 1:-70.61464620661238 
-1.0 1.0 0:-3.7331661764084108 1:68.31096046077755 
-1.0 1.0 0:-3.7331661764084108 1:68.31096046077755 
-1.0 1.0 0:-3.7331661764084108 1:68.31096046077755 
-1.0 1.0 0:-3.7331661764084108 1:68.31096046077755 
-1.0 0.07485269589675848 0:-3.7331661764084108 1:68.31096046077755 
-1.0 0.0 0:-3.7331661764084108 1:68.31096046077755 
-1.0 0.0 0:-3.7331661764084108 1:68.31096046077755 
-0.0 1.0 0:4.701871915380221 1:-55.18916198044561 
-1.0 1.0 0:10.202358404782206 1:46.40962082539386 
-1.0 -1.0 0:-3.7331661764084108 1:68.31096046077755 
-1.0 -1.0 0:-3.7331661764084108 1:68.31096046077755 
-1.0 -1.0 0:-3.7331661764084108 1:68.31096046077755 
-1.0 -1.0 0:-3.7331661764084108 1:68.31096046077755 
-1.0 -1.0 0:-3.7331661764084108 1:68.31096046077755 
-1.0 -1.0 0:-3.7331661764084108 1:68.31096046077755 
-1.0 -1.0 0:-3.7331661764084108 1:68.31096046077755 
-1.0 -1.0 0:-3.7331661764084108 1:68.31096046077755 
-1.0 -1.0 0:-3.7331661764084108 1:68.31096046077755 
-1.0 -1.0 0:-3.7331661764084108 1:68.31096046077755 
-1.0 -1.0 0:-3.7331661764084108 1:68.31096046077755 
-1.0 -1.0 0:-3.7331661764084108 1:68.31096046077755 
-1.0 -1.0 0:-3.7331661764084108 1:68.31096046077755 
-1.0 -1.0 0:-3.7331661764084108 1:68.31096046077755 
-1.0 -1.0 0:-3.7331661764084108 1:68.31096046077755 
-1.0 -1.0 0:-3.7331661764084108 1:68.31096046077755 
-1.0 -1.0 0:-3.7331661764084108 1:68.31096046077755 
-1.0 -1.0 0:-3.7331661764084108 1:68.31096046077755 
-1.0 -1.0 0:-3.7331661764084108 1:68.31096046077755 
-1.0 -1.0 0:-3.7331661764084108 1:68.31096046077755 
-1.0 -1.0 0:-3.7331661764084108 1:68.31096046077755 
-1.0 -0.0 0:84.65009690909537 1:-286.6164566155109 
-1.0 -1.0 0:-3.7331661764084108 1:68.31096046077755 
-1.0 -1.0 0:-3.7331661764084108 1:68.31096046077755 
-1.0 -1.0 0:-3.7331661764084108 1:68.31096046077755 
-1.0 -1.0 0:-3.7331661764084108 1:68.31096046077755 
-1.0 -1.0 0:-3.7331661764084108 1:68.31096046077755 
-1.0 -1.0 0:-3.7331661764084108 1:68.31096046077755 
-1.0 -1.0 0:-3.7331661764084108 1:68.31096046077755 
-1.0 -1.0 0:-3.7331661764084108 1:68.31096046077755 
-1.0 -1.0 0:-3.7331661764084108 1:68.31096046077755 
-1.0 -1.0 0:-3.7331661764084108 1:68.31096046077755 
-1.0 -1.0 0:-3.7331661764084108 1:68.31096046077755 
-1.0 -1.0 0:-3.7331661764084108 1:68.31096046077755 
-1.0 -1.0 0:-3.7331661764084108 1:68.31096046077755 
-1.0 -1.0 0:-3.7331661764084108 1:68.31096046077755 
-1.0 -1.0 0:-3.7331661764084108 1:68.31096046077755 
-1.0 -1.0 0:-3.7331661764084108 1:68.31096046077755 
-1.0 -1.0 0:-3.7331661764084108 1:68.31096046077755 
-1.0 -1.0 0:-3.7331661764084108 1:68.31096046077755 
-1.0 -1.0 0:-3.7331661764084108 1:68.31096046077755 
-1.0 -1.0 0:-3.7331661764084108 1:68.31096046077755 
-1.0 -1.0 0:-3.7331661764084108 1:68.31096046077755 
-1.0 -1.0 0:-3.7331661764084108 1:68.31096046077755 
-1.0 -1.0 0:-3.7331661764084108 1:68.31096046077755 
-1.0 -1.0 0:-3.7331661764084108 1:68.31096046077755 
-1.0 -1.0 0:-3.7331661764084108 1:68.31096046077755 
-1.0 -1.0 0:-3.7331661764084108 1:68.31096046077755 
-1.0 -1.0 0:-3.7331661764084108 1:68.31096046077755 
-1.0 -1.0 0:-3.7331661764084108 1:68.31096046077755 
-1.0 -1.0 0:-3.7331661764084108 1:68.31096046077755 
-1.0 -1.0 0:-3.7331661764084108 1:68.31096046077755 
-1.0 -1.0 0:-3.7331661764084108 1:68.31096046077755 
-1.0 -1.0 0:-3.7331661764084108 1:68.31096046077755 
-1.0 -1.0 0:-3.7331661764084108 1:68.31096046077755 
-1.0 -1.0 0:-3.7331661764084108 1:68.31096046077755 
-1.0 -1.0 0:-3.7331661764084108 1:68.31096046077755 
-1.0 -1.0 0:-3.7331661764084108 1:68.31096046077755 
-1.0 -1.0 0:-3.7331661764084108 1:68.31096046077755 
-1.0 -1.0 0:-3.7331661764084108 1:68.31096046077755 
-1.0 -1.0 0:-3.7331661764084108 1:68.31096046077755 
-1.0 -1.0 0:-3.7331661764084108 1:68.31096046077755 
-1.0 -1.0 0:-3.7331661764084108 1:68.31096046077755 
-1.0 -1.0 0:-3.7331661764084108 1:68.31096046077755 
-1.0 -1.0 0:-3.7331661764084108 1:68.31096046077755 
-1.0 -1.0 0:-3.7331661764084108 1:68.31096046077755 
-1.0 -1.0 0:-3.7331661764084108 1:68.31096046077755 
-1.0 -1.0 0:-3.7331661764084108 1:68.31096046077755 
-1.0 -1.0 0:-3.7331661764084108 1:68.31096046077755 
-1.0 -1.0 0:-3.7331661764084108 1:68.31096046077755 
-1.0 -1.0 0:-3.7331661764084108 1:68.31096046077755 
-1.0 -1.0 0:-3.7331661764084108 1:68.31096046077755 
-1.0 -1.0 0:-3.7331661764084108 1:68.31096046077755 
-1.0 -1.0 0:-3.7331661764084108 1:68.31096046077755 
-1.0 -1.0 0:-3.7331661764084108 1:68.31096046077755 
-1.0 -1.0 0:-3.7331661764084108 1:68.31096046077755 
-1.0 -1.0 0:-3.7331661764084108 1:68.31096046077755 
-1.0 -1.0 0:-3.7331661764084108 1:68.31096046077755 
-1.0 -1.0 0:-3.7331661764084108 1:68.31096046077755 
-1.0 -1.0 0:-3.7331661764084108 1:68.31096046077755 
-1.0 -1.0 0:-3.7331661764084108 1:68.31096046077755 
-1.0 -1.0 0:-3.7331661764084108 1:68.31096046077755 
-1.0 -1.0 0:-3.7331661764084108 1:68.31096046077755 
-1.0 -1.0 0:-3.7331661764084108 1:68.31096046077755 
-1.0 -1.0 0:-3.7331661764084108 1:68.31096046077755 
-1.0 -1.0 0:-3.7331661764084108 1:68.31096046077755 
-1.0 -1.0 0:-3.7331661764084108 1:68.31096046077755 
-1.0 -1.0 0:-3.7331661764084108 1:68.31096046077755 
-1.0 -1.0 0:-3.7331661764084108 1:68.31096046077755 
-1.0 -1.0 0:-3.7331661764084108 1:68.31096046077755 
-1.0 -1.0 0:-3.7331661764084108 1:68.31096046077755 
-1.0 -1.0 0:-3.7331661764084108 1:68.31096046077755 
-1.0 -1.0 0:-3.7331661764084108 1:68.31096046077755 
-1.0 -1.0 0:-3.7331661764084108 1:68.31096046077755 
-1.0 -1.0 0:-3.7331661764084108 1:68.31096046077755 
-1.0 -1.0 0:-3.7331661764084108 1:68.31096046077755 
-1.0 -1.0 0:-3.7331661764084108 1:68.31096046077755 
-1.0 -1.0 0:-3.7331661764084108 1:68.31096046077755 
-1.0 -1.0 0:-3.7331661764084108 1:68.31096046077755 
-1.0 -1.0 0:-3.7331661764084108 1:68.31096046077755 
-1.0 -1.0 0:-3.7331661764084108 1:68.31096046077755 
-1.0 -1.0 0:-3.7331661764084108 1:68.31096046077755 
-1.0 -1.0 0:-3.7331661764084108 1:68.31096046077755 
-1.0 -1.0 0:-3.7331661764084108 1:68.31096046077755 
-1.0 -1.0 0:-3.7331661764084108 1:68.31096046077755 
-1.0 -1.0 0:-3.7331661764084108 1:68.31096046077755 
-1.0 -1.0 0:-3.7331661764084108 1:68.31096046077755 
-1.0 -1.0 0:-3.7331661764084108 1:68.31096046077755 
-1.0 -1.0 0:-3.7331661764084108 1:68.31096046077755 
-1.0 -1.0 0:-3.7331661764084108 1:68.31096046077755 
-1.0 -1.0 0:-3.7331661764084108 1:68.31096046077755 
-1.0 -1.0 0:-3.7331661764084108 1:68.31096046077755 
-1.0 -1.0 0:-3.7331661764084108 1:68.31096046077755 
-1.0 -1.0 0:-3.7331661764084108 1:68.31096046077755 
-1.0 -1.0 0:-3.7331661764084108 1:68.31096046077755 
-1.0 -1.0 0:-3.7331661764084108 1:68.31096046077755 
-1.0 -1.0 0:-3.7331661764084108 1:68.31096046077755 
-1.0 -1.0 0:-3.7331661764084108 1:68.31096046077755 
-1.0 -1.0 0:-3.7331661764084108 1:68.31096046077755 
-1.0 -1.0 0:-3.7331661764084108 1:68.31096046077755 
-1.0 -1.0 0:-3.7331661764084108 1:68.31096046077755 
-1.0 -1.0 0:-3.7331661764084108 1:68.31096046077755 
-1.0 -1.0 0:-3.7331661764084108 1:68.31096046077755 
-1.0 -1.0 0:-3.7331661764084108 1:68.31096046077755 
-1.0 -1.0 0:-3.7331661764084108 1:68.31096046077755 
-1.0 -1.0 0:-3.7331661764084108 1:68.31096046077755 
-1.0 -1.0 0:-3.7331661764084108 1:68.31096046077755 
-1.0 -1.0 0:-3.7331661764084108 1:68.31096046077755 
-1.0 -1.0 0:-3.7331661764084108 1:68.31096046077755 
-1.0 -1.0 0:-3.7331661764084108 1:68.31096046077755 
-1.0 -1.0 0:-3.7331661764084108 1:68.31096046077755 
-1.0 -0.0 0:91.80385445389189 1:-272.5684354081875 
-1.0 -1.0 0:-3.7331661764084108 1:68.31096046077755 
-1.0 -1.0 0:-3.7331661764084108 1:68.31096046077755 
-1.0 -1.0 0:-3.7331661764084108 1:68.31096046077755 
-1.0 -1.0 0:-3.7331661764084108 1:68.31096046077755 
-1.0 -1.0 0:-3.7331661764084108 1:68.31096046077755 
-1.0 -1.0 0:-3.7331661764084108 1:68.31096046077755 
-1.0 -1.0 0:-3.7331661764084108 1:68.31096046077755 
-1.0 -1.0 0:-3.7331661764084108 1:68.31096046077755 
-1.0 -1.0 0:-3.7331661764084108 1:68.31096046077755 
-1.0 -1.0 0:-3.7331661764084108 1:68.31096046077755 
-1.0 -1.0 0:-3.7331661764084108 1:68.31096046077755 
-0.0 -1.0 0:23.59699289043927 1:-347.1781647137313 
-1.0 -1.0 0:-3.7331661764084108 1:68.31096046077755 
-1.0 -1.0 0:-3.7331661764084108 1:68.31096046077755 
-1.0 -1.0 0:-3.7331661764084108 1:68.31096046077755 
-1.0 -1.0 0:-3.7331661764084108 1:68.31096046077755 
-1.0 -1.0 0:-3.7331661764084108 1:68.31096046077755 
-1.0 -1.0 0:-3.7331661764084108 1:68.31096046077755 
-1.0 -1.0 0:-3.7331661764084108 1:68.31096046077755 
-1.0 -1.0 0:-3.7331661764084108 1:68.31096046077755 
-1.0 -1.0 0:-3.7331661764084108 1:68.31096046077755 
-0.0 -1.0 0:-33.678486112249125 1:-430.80752971257033 
-0.17209417018544654 -0.8600855524215076 0:71.23404879908834 1:-277.8776439895892 
-1.0 -1.0 0:-3.7331661764084108 1:68.31096046077755 
-1.0 -1.0 0:-3.7331661764084108 1:68.31096046077755 
-0.0 -1.0 0:-178.21171039273943 1:-592.8722950494259 
-1.0 -1.0 0:-3.7331661764084108 1:68.31096046077755 
-1.0 -1.0 0:-3.7331661764084108 1:68.31096046077755 
-1.0 -1.0 0:-3.7331661764084108 1:68.31096046077755 
-0.0 -1.0 0:3.1975782294023705 1:-372.6814087593422 
-1.0 -1.0 0:-3.7331661764084108 1:68.31096046077755 
-1.0 -1.0 0:-3.7331661764084108 1:68.31096046077755 
-1.0 -1.0 0:-3.7331661764084108 1:68.31096046077755 
-1.0 -1.0 0:-3.7331661764084108 1:68.31096046077755 
-1.0 -1.0 0:-3.7331661764084108 1:68.31096046077755 
-1.0 -1.0 0:-3.7331661764084108 1:68.31096046077755 
-1.0 -1.0 0:-3.7331661764084108 1:68.31096046077755 
-1.0 -1.0 0:-3.7331661764084108 1:68.31096046077755 
-1.0 -1.0 0:-3.7331661764084108 1:68.31096046077755 
-1.0 -1.0 0:-3.7331661764084108 1:68.31096046077755 
-1.0 -1.0 0:-3.7331661764084108 1:68.31096046077755 
-1.0 -1.0 0:-3.7331661764084108 1:68.31096046077755 
-1.0 -1.0 0:-3.7331661764084108 1:68.31096046077755 
-1.0 -1.0 0:-3.7331661764084108 1:68.31096046077755 
-1.0 -1.0 0:-3.7331661764084108 1:68.31096046077755 
-1.0 -1.0 0:-3.7331661764084108 1:68.31096046077755 
-1.0 -1.0 0:-3.7331661764084108 1:68.31096046077755 
-1.0 -1.0 0:-3.7331661764084108 1:68.31096046077755 
-1.0 -1.0 0:-3.7331661764084108 1:68.31096046077755 
-1.0 -1.0 0:-3.7331661764084108 1:68.31096046077755 
-1.0 -1.0 0:-3.7331661764084108 1:68.31096046077755 
-1.0 -1.0 0:-3.7331661764084108 1:68.31096046077755 
-1.0 -1.0 0:-3.7331661764084108 1:68.31096046077755 
-1.0 -1.0 0:-3.7331661764084108 1:68.31096046077755 
-1.0 -1.0 0:-3.7331661764084108 1:68.31096046077755 
-1.0 -1.0 0:-3.7331661764084108 1:68.31096046077755 
-1.0 -1.0 0:-3.7331661764084108 1:68.31096046077755 
-1.0 -1.0 0:-3.7331661764084108 1:68.31096046077755 
-1.0 -1.0 0:-3.7331661764084108 1:68.31096046077755 
-1.0 -1.0 0:-3.7331661764084108 1:68.31096046077755 
-1.0 -1.0 0:-3.7331661764084108 1:68.31096046077755 
-1.0 -1.0 0:-3.7331661764084108 1:68.31096046077755 
-1.0 -1.0 0:-3.7331661764084108 1:68.31096046077755 
-1.0 -1.0 0:-3.7331661764084108 1:68.31096046077755 
-1.0 -1.0 0:-3.7331661764084108 1:68.31096046077755 
-0.0 -1.0 0:-12.043708614366965 1:-414.5220837829181 
-1.0 -1.0 0:-3.7331661764084108 1:68.31096046077755 
-1.0 -1.0 0:-3.7331661764084108 1:68.31096046077755 
-1.0 -1.0 0:-3.7331661764084108 1:68.31096046077755 
-1.0 -1.0 0:-3.7331661764084108 1:68.31096046077755 
-1.0 -1.0 0:-3.7331661764084108 1:68.31096046077755 
-1.0 -1.0 0:-3.7331661764084108 1:68.31096046077755 
-1.0 -1.0 0:-3.7331661764084108 1:68.31096046077755 
-1.0 -1.0 0:-3.7331661764084108 1:68.31096046077755 
-1.0 -1.0 0:-3.7331661764084108 1:68.31096046077755 
-1.0 -1.0 0:-3.7331661764084108 1:68.31096046077755 
-1.0 -1.0 0:-3.7331661764084108 1:68.31096046077755 
-1.0 -1.0 0:-3.7331661764084108 1:68.31096046077755 
-1.0 -1.0 0:-3.7331661764084108 1:68.31096046077755 
-1.0 -1.0 0:-3.7331661764084108 1:68.31096046077755 
-1.0 -1.0 0:-3.7331661764084108 1:68.31096046077755 
-1.0 -1.0 0:-3.7331661764084108 1:68.31096046077755 
-1.0 -1.0 0:-3.7331661764084108 1:68.31096046077755 
-1.0 -1.0 0:-3.7331661764084108 1:68.31096046077755 
-1.0 -1.0 0:-3.7331661764084108 1:68.31096046077755 
-1.0 -1.0 0:-3.7331661764084108 1:68.31096046077755 
-1.0 -1.0 0:-3.7331661764084108 1:68.31096046077755 
-1.0 -1.0 0:-3.7331661764084108 1:68.31096046077755 
-1.0 -1.0 0:-3.7331661764084108 1:68.31096046077755 
-1.0 -1.0 0:-3.7331661764084108 1:68.31096046077755 
-1.0 -1.0 0:-3.7331661764084108 1:68.31096046077755 
-1.0 -1.0 0:-3.7331661764084108 1:68.31096046077755 
-1.0 -1.0 0:-3.7331661764084108 1:68.31096046077755 
-1.0 -1.0 0:-3.7331661764084108 1:68.31096046077755 
-1.0 -1.0 0:-3.7331661764084108 1:68.31096046077755 
-1.0 -1.0 0:-3.7331661764084108 1:68.31096046077755 
-1.0 -1.0 0:-3.7331661764084108 1:68.31096046077755 
-0.0 -1.0 0:-29.975042848565984 1:-399.1811728016124 
-1.0 -1.0 0:-3.7331661764084108 1:68.31096046077755 
-1.0 -1.0 0:-3.7331661764084108 1:68.31096046077755 
-1.0 -1.0 0:-3.7331661764084108 1:68.31096046077755 
-1.0 -1.0 0:-3.7331661764084108 1:68.31096046077755 
-1.0 -1.0 0:-3.7331661764084108 1:68.31096046077755 
-1.0 -1.0 0:-3.7331661764084108 1:68.31096046077755 
-1.0 -1.0 0:-3.7331661764084108 1:68.31096046077755 
-1.0 -1.0 0:-3.7331661764084108 1:68.31096046077755 
-1.0 -1.0 0:-3.7331661764084108 1:68.31096046077755 
-1.0 -1.0 0:-3.7331661764084108 1:68.31096046077755 
-1.0 -1.0 0:-3.7331661764084108 1:68.31096046077755 
-1.0 -1.0 0:-3.7331661764084108 1:68.31096046077755 
-1.0 -1.0 0:-3.7331661764084108 1:68.31096046077755 
-1.0 -1.0 0:-3.7331661764084108 1:68.31096046077755 
-1.0 -1.0 0:-3.7331661764084108 1:68.31096046077755 
-1.0 -1.0 0:-3.7331661764084108 1:68.31096046077755 
-1.0 -1.0 0:-3.7331661764084108 1:68.31096046077755 
-1.0 -1.0 0:-3.7331661764084108 1:68.31096046077755 
-1.0 -1.0 0:-3.7331661764084108 1:68.31096046077755 
-1.0 -1.0 0:-3.7331661764084108 1:68.31096046077755 
-1.0 -1.0 0:-3.7331661764084108 1:68.31096046077755 
-1.0 -1.0 0:-3.7331661764084108 1:68.31096046077755 
-1.0 -1.0 0:-3.7331661764084108 1:68.31096046077755 
-1.0 -1.0 0:-3.7331661764084108 1:68.31096046077755 
-1.0 -1.0 0:-3.7331661764084108 1:68.31096046077755 
-1.0 -1.0 0:-3.7331661764084108 1:68.31096046077755 
-1.0 -1.0 0:-3.7331661764084108 1:68.31096046077755 
-1.0 -1.0 0:-3.7331661764084108 1:68.31096046077755 
-1.0 -1.0 0:-3.7331661764084108 1:68.31096046077755 
-1.0 -1.0 0:-3.7331661764084108 1:68.31096046077755 
-1.0 -1.0 0:-3.7331661764084108 1:68.31096046077755 
-1.0 -1.0 0:-3.7331661764084108 1:68.31096046077755 
-1.0 -1.0 0:-3.7331661764084108 1:68.31096046077755 
-1.0 -1.0 0:-3.7331661764084108 1:68.31096046077755 
-1.0 -1.0 0:-3.7331661764084108 1:68.31096046077755 
-0.0 -1.0 0:-17.62614618958867 1:-414.86793259879124 
-1.0 -1.0 0:-3.7331661764084108 1:68.31096046077755 
-1.0 -1.0 0:-3.7331661764084108 1:68.31096046077755 
-1.0 -1.0 0:-3.7331661764084108 1:68.31096046077755 
-1.0 -1.0 0:-3.7331661764084108 1:68.31096046077755 
-1.0 -1.0 0:-3.7331661764084108 1:68.31096046077755 
-1.0 -1.0 0:-3.7331661764084108 1:68.31096046077755 
-1.0 -1.0 0:-3.7331661764084108 1:68.31096046077755 
-1.0 -1.0 0:-3.7331661764084108 1:68.31096046077755 
-1.0 -1.0 0:-3.7331661764084108 1:68.31096046077755 
-1.0 -1.0 0:-3.7331661764084108 1:68.31096046077755 
-1.0 -1.0 0:-3.7331661764084108 1:68.31096046077755 
-1.0 -1.0 0:-3.7331661764084108 1:68.31096046077755 
-1.0 -1.0 0:-3.7331661764084108 1:68.31096046077755 
-1.0 -1.0 0:-3.7331661764084108 1:68.31096046077755 
-1.0 -1.0 0:-3.7331661764084108 1:68.31096046077755 
-1.0 -1.0 0:-3.7331661764084108 1:68.31096046077755 
-1.0 -1.0 0:-3.7331661764084108 1:68.31096046077755 
-1.0 -1.0 0:-3.7331661764084108 1:68.31096046077755 
-1.0 -1.0 0:-3.7331661764084108 1:68.31096046077755 
-1.0 -1.0 0:-3.7331661764084108 1:68.31096046077755 
-1.0 -1.0 0:-3.7331661764084108 1:68.31096046077755 
-1.0 -1.0 0:-3.7331661764084108 1:68.31096046077755 
-1.0 -0.0 0:109.47112365300829 1:-264.4825372340292 
-1.0 -1.0 0:-3.7331661764084108 1:68.31096046077755 
-1.0 -1.0 0:-3.7331661764084108 1:68.31096046077755 
-1.0 -1.0 0:-3.7331661764084108 1:68.31096046077755 
-1.0 -1.0 0:-3.7331661764084108 1:68.31096046077755 
-1.0 -1.0 0:-3.7331661764084108 1:68.31096046077755 
-1.0 -1.0 0:-3.7331661764084108 1:68.31096046077755 
-1.0 -1.0 0:-3.7331661764084108 1:68.31096046077755 
-1.0 -1.0 0:-3.7331661764084108 1:68.31096046077755 
-1.0 -1.0 0:-3.7331661764084108 1:68.31096046077755 
-1.0 -1.0 0:-3.7331661764084108 1:68.31096046077755 
-1.0 -1.0 0:-3.7331661764084108 1:68.31096046077755 
-1.0 -1.0 0:-3.7331661764084108 1:68.31096046077755 
-1.0 -1.0 0:-3.7331661764084108 1:68.31096046077755 
-1.0 -1.0 0:-3.7331661764084108 1:68.31096046077755 
-1.0 -1.0 0:-3.7331661764084108 1:68.31096046077755 
-1.0 -1.0 0:-3.7331661764084108 1:68.31096046077755 
-1.0 -1.0 0:-3.7331661764084108 1:68.31096046077755 
-1.0 -1.0 0:-3.7331661764084108 1:68.31096046077755 
-1.0 -1.0 0:-3.7331661764084108 1:68.31096046077755 
-1.0 -1.0 0:-3.7331661764084108 1:68.31096046077755 
-1.0 -1.0 0:-3.7331661764084108 1:68.31096046077755 
-1.0 -1.0 0:-3.7331661764084108 1:68.31096046077755 
-1.0 -1.0 0:-3.7331661764084108 1:68.31096046077755 
-1.0 -1.0 0:-3.7331661764084108 1:68.31096046077755 
-1.0 -1.0 0:-3.7331661764084108 1:68.31096046077755 
-1.0 -1.0 0:-3.7331661764084108 1:68.31096046077755 
-1.0 -1.0 0:-3.7331661764084108 1:68.31096046077755 
-1.0 -1.0 0:-3.7331661764084108 1:68.31096046077755 
-1.0 -1.0 0:-3.7331661764084108 1:68.31096046077755 
-1.0 -1.0 0:-3.7331661764084108 1:68.31096046077755 
-1.0 -1.0 0:-3.7331661764084108 1:68.31096046077755 
-1.0 -1.0 0:-3.7331661764084108 1:68.31096046077755 
-1.0 -1.0 0:-3.7331661764084108 1:68.31096046077755 
-1.0 -1.0 0:-3.7331661764084108 1:68.31096046077755 
-1.0 -1.0 0:-3.7331661764084108 1:68.31096046077755 
-1.0 -1.0 0:-3.7331661764084108 1:68.31096046077755 
-1.0 -1.0 0:-3.7331661764084108 1:68.31096046077755 
-1.0 -1.0 0:-3.7331661764084108 1:68.31096046077755 
-1.0 -1.0 0:-3.7331661764084108 1:68.31096046077755 
-1.0 -1.0 0:-3.7331661764084108 1:68.31096046077755 
-1.0 -1.0 0:-3.7331661764084108 1:68.31096046077755 
-1.0 -1.0 0:-3.7331661764084108 1:68.31096046077755 
-1.0 -1.0 0:-3.7331661764084108 1:68.31096046077755 
-1.0 -1.0 0:-3.7331661764084108 1:68.31096046077755 
-1.0 -1.0 0:-3.7331661764084108 1:68.31096046077755 
-1.0 -1.0 0:-3.7331661764084108 1:68.31096046077755 
-1.0 -1.0 0:-3.7331661764084108 1:68.31096046077755 
-1.0 -1.0 0:-3.7331661764084108 1:68.31096046077755 
-1.0 -1.0 0:-3.7331661764084108 1:68.31096046077755 
-1.0 -1.0 0:-3.7331661764084108 1:68.31096046077755 
-1.0 -1.0 0:-3.7331661764084108 1:68.31096046077755 
-1.0 -1.0 0:-3.7331661764084108 1:68.31096046077755 
-1.0 -1.0 0:-3.7331661764084108 1:68.31096046077755 
-1.0 -1.0 0:-3.7331661764084108 1:68.31096046077755 
-1.0 -1.0 0:-3.7331661764084108 1:68.31096046077755 
-1.0 -1.0 0:-3.7331661764084108 1:68.31096046077755 
-1.0 -1.0 0:-3.7331661764084108 1:68.31096046077755 
-1.0 -1.0 0:-3.7331661764084108 1:68.31096046077755 
-1.0 -1.0 0:-3.7331661764084108 1:68.31096046077755 
-1.0 -1.0 0:-3.7331661764084108 1:68.31096046077755 
-1.0 -1.0 0:-3.7331661764084108 1:68.31096046077755 
-1.0 -1.0 0:-3.7331661764084108 1:68.31096046077755 
-1.0 -1.0 0:-3.7331661764084108 1:68.31096046077755 
-0.0 -1.0 0:-24.98832814136134 1:-418.9746117699407 
-1.0 -0.0 0:99.93063479051338 1:-282.6181112312814 
-1.0 -1.0 0:-3.7331661764084108 1:68.31096046077755 
-1.0 -1.0 0:-3.7331661764084108 1:68.31096046077755 
-1.0 -1.0 0:-3.7331661764084108 1:68.31096046077755 
-1.0 -1.0 0:-3.7331661764084108 1:68.31096046077755 
-1.0 -1.0 0:-3.7331661764084108 1:68.31096046077755 
-1.0 -1.0 0:-3.7331661764084108 1:68.31096046077755 
-1.0 -1.0 0:-3.7331661764084108 1:68.31096046077755 
-1.0 -1.0 0:-3.7331661764084108 1:68.31096046077755 
-1.0 -1.0 0:-3.7331661764084108 1:68.31096046077755 
